-0.02182609191040763,-0.02659867693844177,-0.04271351304862196,-0.024634730585721,-0.0573065861397642,-0.04825815254602617,-0.01532813720685747,0.04591711774866108,0.07893615964931956,0.06679008005955374,0.02611123332927626,0.007296603333110017,0.009911278185763693,0.008309623327972002,0.01093715428400828,-0.02143765914845315,-0.01323706940583164,0.01873596193925492,0.02677607310786828,0.01149033571284192,0.0191727147790476,0.01597693666847845,0.01331675631663809,-0.03031618976910148,-0.02883505110998192,0.009084737388868534,0.0153884821793689,-0.009815983234792285,-0.01603878178371304,-0.000560191530483667,0.002690300897841653,-0.001367652062253646,0.01369176454437486,0.03642558756241145,0.01734996888513952,0.005888427499636612,0.01396513948605664,0.04648367091316571,0.02749724804457282,0.005678114406735582,-0.00733541255016,0.007878555325743596,-0.01866367999506946,-0.01818416171766807,0.00403526809708359,-0.0006052084196275873,-0.008295152854132716,-0.02431251589277556,0.02237028737484268,0.01546745359111923,0.02042574439643325,0.02366017906192515,0.03922677497098963,0.0332275416741734,0.02671585261695719,-0.0003793697040499516,0.02777522278915996,0.009482027952318015,-0.003249385299852115,-0.01948929059002858,-0.01474851770485399,-0.0384612075534433,-0.02221098928381727,-0.03481636442322988,0.003946690905741955,0.004129753574708606,0.0363563329542059,0.03896507076537867,0.04123247525494606,0.01830447820806676,-0.003350809461252005,0.03838598101669536,0.04371870426741048,0.05137547040247876,0.01032614052024284,-0.01752585613937522,-0.02891861112720274,-0.02770724274376716,-0.05099479205869174,-0.03770108882485552,-0.002793736575845186,0.01794897697092199,0.01747033926036262,0.017732736259448,-0.001025039071199905,0.01428135408101582,0.006751880406132676,0.04469067985290276,0.05913472079914671,0.05917941956404035,0.02515193126735216,0.008985683848884174,-0.006774550519202245,-0.02591473281947254,-0.03187449285709242,-0.02910321677460302,0.000618345696332249,0.02277388112180275,0.01257049589585223,-0.0005101359749453598,0.008868977522873123,0.009859935342994385,-0.003794415381645885,0.0335076888265852,0.0657919832114672,0.06598598553143872,0.04960371942933033,0.0148660534978551,0.002934513835608769,-0.01398881105388032,-0.0002981657234469626,0.00447580273864432,0.003688629458102911,0.02092279726157666,0.00263877451445151,0.008071314282743955,0.002147855641421103,-0.02345380057801569,0.001192478994649992,0.01119239870662299,0.01187464200860321,0.02860487931283622,0.05518278274459527,0.06654930818034852,0.04446307358438267,0.03469662040506008,0.01543272720246079,-0.01961534950744684,-0.218117163171482,-0.003691731539188402,0.002923651796223987,0.01752525555903444,0.01254143460333909,0.002839538256144458,-0.00393878880103742,-0.0122760915510078,-0.002309578604066758,-0.01310171686305622,-0.01489747408644537,-0.00681462229493585,0.005838382584009966,0.004203012559419421,0.02236507008421373,0.04117579457367575,0.02490777741517367,-0.0001628310821386403,-0.00378783747017604,-0.00399273115042027,-0.02103338234762666,-0.006882645893203345,-0.01842316363274965,0.01280530196136321,0.000556997932915494,0.01620802073231226,0.0166944758243688,0.01521825563269858,0.02976228633858351,0.0366672404743892,0.04957995572852163,0.0262988960627582,0.05215760987894112,-0.01188090904702028,-0.02619819002157616,-0.0324327196985433,-0.01567658408036072,-0.01448917938032353,-0.01681519728107924,0.01179530878198577,-0.009917058636040433,0.02345761875124611,0.02794400236968702,0.03098596545126864,0.03610053642311953,0.03439340569318891,0.05162102504810415,0.03655172751595616,0.04061759770073067,-0.03786730235360131,-0.01158678003498016,-0.03247351849978423,-0.02126074475362782,-0.02467540908796874,-0.02609414861142002,0.0009046868215738472,0.01289766367059986,0.02010110627500149,0.0255254492120794,0.03128870679946993,0.04160166722542453,0.03243759557094399,0.03494055680202072,0.03370604698548257,0.08177787541819294,-0.03392380477049833,-0.01871451668613378,-0.0174187861460707,-0.03638207143518309,-0.04302884804048722,-0.02276359165488036,-0.01935490173850822,-0.02592896999923065,-0.002524646403475833,0.004726231413923043,-0.02160273570935838,0.01768585558735142,0.04702063130726449,0.03162734094163978,0.04125679579352678,0.07415005584734523,-0.07073694490890536,-0.03412838092402566,-0.03290366452063259,-0.02883428270286949,-0.03183094313288215,0.005212894910551383,0.002693014089729007,-0.000528122340717483,0.001225364855928505,0.01528393664629211,0.008775404676192592,0.0286891924519687,0.01431830827088562,0.03780562315329457,0.02190523088387697,0.03761136344927824,-0.05442348364812886,-0.02691141420693305,-0.03520504991575531,-0.017855569435848,-0.02126519724701274,-0.03375121576385225,-0.0418363697682138,-0.01872834888638449,-0.001661504184467998,0.003202840393357064,0.04771121813364645,0.04153985427314467,0.03844920751652473,0.03167497344481227,0.03129961662330706,-0.005575074451639281,-0.02901556666574302,-0.002936103883746312,-0.0001989239072081437,-0.03133447797888732,-0.06520309638470212,-0.08400163590986576,-0.07492906145631721,-0.01294726308570116,0.05145440887379257,0.06691568795843914,0.09512172239240128,0.07549319647369876,0.04897691563695291,0.03169197561507618,-0.002653130584791765,-0.04538983269090553,-0.1503645302101836,-0.01972917499889321,-0.03707532785492323,-0.04018102514207716,-0.04181153052789363,-0.03597307822712169,-0.03836715336284722,-0.002560525730666083,0.05204291098375877,0.08922826083505811,0.1013694067533646,0.0591238965211481,0.003364593618157009,-0.01444902566907923,-0.02937438956359508,-0.02152765871786286,-0.02143760522850372,-0.01667569497847197,-0.009017970981112537,-0.02317586630477884,-0.02611281666158206,-0.009646692243417012,0.001781693645971042,-0.02768230607151679,-0.03153498260007673,0.003075953338317142,0.02984870603365212,0.008520296930357791,-0.003478897854915362,-0.003623292820665601,-0.01496105937058737,0.02108315884901606,-0.01925927918758029,-0.01235627072449421,-0.0007477597087778448,-0.01079109660480718,-0.008794712674596604,0.001750301865766564,0.01118128491958331,-0.01642277290868974,-0.06171063137860586,-0.07798351866261968,-0.01939113095538035,0.01530734933570021,0.01595355819628867,0.004863519640387401,-0.001051352534566649,0.008292151289107642,0.01843569219658585,-0.002327201670145246,0.005770511068307735,0.01540138062564981,0.01827077642313841,0.02739781241389869,0.02953963635621205,-0.0417708519913296,-0.07919525833574448,-0.08473052255567523,-0.02998135874160827,0.002056306116944532,0.01445847538631193,0.01403234835170398,0.04057412724211207,0.01334000859290644,-0.002675244292322705,0.01821989102932365,0.01917285582996344,0.0006573718536338308,0.01108775561325665,0.004438230919075434,0.01173238525904411,-0.04241888994192778,-0.04911020722213909,-0.08601429707110329,-0.04874255102801007,0.0009074959231411821,0.006125737530705474,0.02411306024884739,0.03747864768020309,0.03911729789301799,0.037126016301251,0.01066148375751916,0.01357891114570966,0.0237018773540205,0.01005904506313814,-0.001598425347665694,0.001667145492068958,-0.03337738056279588,-0.01823128059131065,-0.07027040188114725,-0.02388683719279283,-0.00975346258660169,-0.01196552919052471,0.01331943957558947,0.01372903642348063,0.009685803670620741,0.04730849199733467,0.006889193839127106,0.008372887505065919,0.004507166972792784,0.005934021645988059,0.0002162838850002472,-0.02090164545239161,-0.02801748401175982,-0.03014194570096794,-0.04271762447156547,-0.01890809387679727,0.005764369092880787,-0.01117710942011196,-0.007458368718242809,0.01307471721090697,-0.001661517036990233,0.04766097168239503,-0.03961990743461071,-0.02203221204143136,0.01027550333923207,-0.01288773752334789,0.01414499620726624,0.0003794196766512732,-0.04290195633955139,-0.07805783552670528,-0.05206390563360461,0.00107611081218663,-0.01017684310224404,-0.01559446179506401,-0.03555184090626203,0.01839100669242409,-0.01198215585952851,0.015009472313024,0.1250886910044264,-0.01521856475114347,-0.006763372794565558,-0.002688372438402534,-0.03029593325505854,-0.04213882583361269,-0.04172276572285435,-0.05655101632115527,-0.06742807953964662,-0.02060230506606708,0.01052402066997226,0.02098609918500202,0.03558673091501541,0.04688159636170656,0.03299488855371732,0.02393341320624176,0.01492637502449831,-0.02333143991010858,-0.02736217789205525,-0.006034599567650871,-0.03040452533393219,-0.03008088997168759,-0.02784839031190945,-0.02592696959874171,-0.0288044821243498,0.002544603785000773,0.01400033231408231,0.01150767912539551,0.02681936943134746,0.02710703729769924,0.0430253036649285,0.03736690265317238,0.02707637871660325,-0.03117785544179873,-0.002114727949183078,-0.002555398626901346,-0.01727863154113996,-0.02223256909291372,-0.02960644984473115,-0.01790288560483134,-0.01228760978653064,0.006817738410190394,0.003182218440555287,-0.004487069653559259,0.02208519756584261,0.007624602034329077,0.02712066366813169,0.03126461477908293,0.04235310028788971,-0.02356520160382449,-0.01827095909496568,0.0008973438536569601,-0.009511626532564947,-0.0005738683407111107,-0.03431669927931911,-0.008843747962900514,0.004352753159346202,0.009118400970410962,0.006767185234118189,0.01051687071218545,0.01434570622160951,0.02857526550909099,0.01216956225575514,0.03506195033152029,0.03638350787997165,-0.0140005862720792,-0.0187279765274318,-0.009754053661685509,-0.00654867326660628,-0.01846500792947529,-0.01105883902539917,0.02156799002066233,-0.002053302791721344,0.02460402937094231,0.01688535486391093,0.03391517903337441,0.0451899486324021,0.01341646889611031,0.02360307045866219,0.0306708119446377,0.03499911883245836,-0.01258942758434049,-0.001377377020185622,-0.002160493227168589,-0.009080602030499589,0.001610458683536521,0.005903822265408603,0.0114216457482486,0.01859545815812853,0.01970630639203605,0.02853739256118141,0.02821761245838247,0.05177421235941063,0.0300501470504476,0.03126153611570576,0.01708358881623758,0.008512677766511687,-0.00875194053148922,-0.02770217809899271,-0.007082068901858769,-0.02112194381987423,-0.006332794650666225,0.02836311045250665,0.0136822987402013,-0.00249522179768083,-0.002044846868990196,0.03053891746904831,0.0324265474851027,0.03503404888800488,0.03723877677385427,0.02064812358521814,0.03475994903560427,0.01611289907604981,-0.005494158071167812,-0.004195678868909163,-0.03556884828146041,-0.03671814132039438,-0.001257709275234295,0.009248119009996551,0.02329011946879911,0.01927997712793508,0.01329507846338332,0.01121510836008016,0.005266414359418336,0.000925558913761931,0.03886236344085415,0.03713033818751195,0.03851584293803946,0.03097249142912117,-0.09554866995030367,-0.04127986341478716,-0.0193647147607603,-0.0253474011394067,-0.03320773443444592,-0.009868974244583856,0.02478784913870561,0.04782336792815604,0.09422833752845333,0.0881294074484865,0.08087659470033715,0.01693914733473192,-0.01842427395391283,-0.02959185519530337,-0.03475749929649147,-0.03346341526364268,-0.03882992461324223,-0.01638860871754368,-0.005330846259279392,-0.004162118693189384,0.01695479531518317,0.01774339160315803,0.0423786575145348,0.0526921162166709,0.05498510117157398,0.05738766215459365,0.04927861353647205,-0.00138481659121115,-0.01442657026744958,0.005701267267525331,-0.006481055350157864,0.004365980464049363,-0.0221818744593705,-0.02111462036241006,-0.01035494610658134,0.004919746060565417,0.02257263582483898,0.007540238599297157,0.0359543312637423,0.03268647303446946,0.03735167021134109,0.03550499505816386,0.01453532690097878,0.01344806667772181,0.006042186791711238,0.007292278503333947,-0.006683518955991065,0.02186284342414101,-0.0007422338484541254,-0.02723633367687408,0.0226009094198739,0.02264636771548888,0.02534940195834236,0.03065674245467708,0.02555239836535239,0.02616574298934152,0.01301379816333713,0.00855712700162875,-0.03613997677480624,0.01257912651890459,0.03990447313692768,0.01381955337510437,0.02864292672289856,0.01642113381473609,0.03308342101075036,-0.01128678026802483,0.009399893859025281,0.001790161116392632,0.0305277691878445,0.02642609817382479,0.01378842103469172,0.02785468272624482,0.03001141993646238,-0.001378325207220778,-0.05407203417354062,0.01450163365155911,0.02277232549383765,0.02034756071967381,0.04103578441079548,0.009610815820224352,0.04648803969067908,-0.006809208072536419,-0.01526434357309416,0.01395153393427361,0.02771363036381528,0.004505307618505811,0.01619614019566844,0.009717966097394493,0.01212079860394479,0.003271043595189944,-0.06368266595439805,-0.01324715886052998,0.005777949391027088,0.003589208277414552,0.02525975005361147,0.03997166631429545,0.04179772739821339,0.01344413327306493,0.0006683706911737735,0.02202220957006375,-0.0007832917581254377,0.01002823980711527,0.01770022036013259,0.02168052062108812,0.03166175243098947,-0.05761395152945079,-0.03003562316164112,-0.009131330139313895,0.005131849187092253,-0.0101949477005508,0.01080876354699434,0.02075430788749449,0.04193281505523598,0.01096453386338164,-0.01373401421391962,0.01242974669279667,0.02853278843246988,0.03313000735018984,0.02624939451299786,0.0168392860990497,-0.05866984327505372,-0.06260258315796517,-0.01585756983881341,-0.009276857944747583,-0.01724951353585176,-0.006128576215253894,-0.01363805976314939,0.01889513207574775,0.03046400919514512,-0.2069450242207497,-0.02311665501390628,-0.01288588259440967,-0.01320472790819975,0.008673997189215483,-0.008231957230846923,0.005549850012741563,0.001246455094310175,-0.007631841515065059,0.0322762476189703,0.003619503144257851,-0.005772004896753643,-0.01888865421495696,-0.02143268854042263,-0.05002457038465188,-0.05699632790070183,-0.04450865494081718,0.002969645878307307,0.001807233613016001,-0.003569213385461527,-0.007191349735928613,-0.002007279327073643,-0.005822576501536281,-0.001353916782626813,0.01637356079012792,0.03994165315237141,0.02244379884440805,0.02143432187928859,-0.01408879554014594,-0.020927484093541,-0.05714116215344476,-0.04518144376776726,-0.03998556712703019,0.02251523073391247,0.0243093550336839,0.01615835585692852,0.01377178724423966,0.003996377257428801,-0.01188810867883714,0.01914455275118404,0.02804349652537094,0.02016825385203001,0.01742370050725624,0.02571203080583964,0.006430209558650295,-0.0179914164429652,-0.05520674901409468,-0.02981625583051177,-0.03133705793561592,0.05391005843931999,0.01864150426264094,0.0321462523550892,0.0351436852220946,0.01363036114781521,-0.0247707303653942,0.0008934494646779801,0.03183329721708677,0.02645978704192612,0.02386345497163184,0.004547719118777222,0.02706442976909603,-0.0001586399254707238,-0.01612972435401479,-0.01603679001041102,-0.03283383676192073,0.07252831650460378,0.03504336857351263,0.03049646215507031,0.02773205588934612,0.01993812310636955,-0.0146894284693839,-0.00807857360259963,0.01960627500070928,0.001970125515592991,0.02303545784190457,0.02959565723694586,-0.005199670981197194,-0.007227421870772266,-0.009136241399827494,0.001297963442235502,-0.03603310643687364,0.0777882505631015,0.05408304230836915,0.03128215578812077,0.01119272831764033,-0.02823416306252965,-0.06345795607582878,-0.03878640151996415,0.005402930776873449,0.02376090879344408,0.0001156722452334172,-0.004529189909513172,-0.008095939324972441,-0.02658190029932046,-0.01816442283121299,-0.005185406980033152,-0.03393627268453821,0.06333936041831216,0.06007907681687882,0.07397194691964866,0.0445450717946336,0.01442172135322173,-0.04852955163419174,-0.03097638636300666,-0.03683744875060419,-0.01709462553929649,-0.02633861492080738,-0.03214887330147534,-0.01884405043044441,-0.03463366358255308,-0.01886796512970705,-0.0238238364592717,-0.03842538588103753,0.0506942975432465,0.07659206763454192,0.05190582250025982,0.05209097104610749,0.01256224098075579,-0.009415745285136097,-0.03317722295961244,-0.02567002419942586,-0.03203203914158707,-0.04209644647988798,-0.03842087328318371,-0.03551637765770009,-0.03432916673955867,-0.02835390195593103,-0.02538005349241788,-0.02134421725165249,-0.001109209584606587,-0.02949589884044859,0.002785013210919335,-0.002155642072609284,0.02183126555572065,0.02411127689545571,0.003910045297390112,-0.02634259029505688,-0.06097621152422712,-0.03615459168100602,-0.02933173230794143,0.009075532513270633,0.00461107598359616,-0.02077413993890409,0.005513970579800897,0.006302937365721037,0.006097725723678209,-0.006781442576974544,0.02738164423384749,0.02930292720993828,0.0118551844596493,0.02208416110590614,0.03142489363305919,0.006003692840443648,-0.009646021589549201,-0.05288560348065605,-0.05779929868512908,-0.01570860274973954,0.001545986877246106,-0.008642424114791911,0.00626255330752608,0.01946105070157617,-0.00103882987563087,0.02093952152692367,0.0130885180714595,0.02880572277973625,0.02879544923406794,0.03097732705891054,0.02040720958458884,-0.02294372180153396,-0.02224856600481596,0.009000114186386118,-0.02210912883219168,-0.009346158136007062,-0.02517112174557437,0.01209698627879854,-0.0008026560981292753,0.002078559852830499,0.01793759493350083,0.03125620168578801,0.0183740550838074,0.02301575343311914,0.04057403516275885,0.01465750094148817,0.01248376635279547,0.004104727385710931,-0.01448413879281116,-0.02267241283722453,0.004155448217361412,-0.03201731950539517,-0.005239207859525565,0.003557971431572961,0.006497257023429903,0.006954200156769758,0.02984775248893469,0.04306832742470912,0.009315326828546805,0.02239560583242285,0.01890224108501637,0.03785244447333358,0.02224269135450372,0.007027892955266579,-0.009569128629113419,-0.0006388672559882199,0.01153622997638266,-0.00425372847717376,-0.01648938306444946,-0.006265695625067203,0.01046022379183232,0.005170735433209461,0.02285491878045644,0.0187580299024276,0.008897649463510033,0.01454266684031944,0.01923484122551321,0.03138938792117602,0.03089055154808167,0.02246581176448276,-0.006091919979483666,0.03330135372611203,0.02150172939178141,0.0008079747713634314,0.009120100158018118,-0.006504511444044291,-0.0111462068329817,-0.01017971642564945,-0.007993259446106873,0.01979970123452561,0.004707815650447479,0.01430403322573258,0.02693030246301178,-0.001789713239673258,0.0371828854895617,0.0463227197530313,0.01277181480160589,0.03449511634043715,0.02075202645317385,0.02192980885367555,-0.005313602886361172,-0.008974791301880822,0.0163131999194266,-0.01591682082840843,-0.009359204531902558,0.008694772983668018,0.02832294316180124,0.01905989184347101,0.007254803598305187,0.002355695501376852,0.02112561805398962,0.02567126760279114,0.01411244146209458,0.02720089862009631,0.02448727325753043,0.02355129553958483,0.006584414785598378,0.01654661777684543,0.01993484594724339,-0.001713556321043743,-0.0003483362780868059,-0.07054172875207543,0.02359267060768648,0.005570524496358168,0.01648115992685505,0.02452685507800958,0.01130942946334559,-0.009961088026356058,-0.004305021187259979,0.01167558059740663,-0.01056226129829958,-0.01202334629188011,-0.02162959169053395,-0.002862782863711135,0.02329608892033794,0.03624321155638431,0.03609118655387727,0.01956669047323062,0.01202947260463011,0.0167003408309016,0.007330139227947266,-0.01670596192514708,-0.01474919271663509,0.0007050358936662031,-0.008218573793026289,0.005637625853624887,-0.003441058885961494,-0.002332689604049166,0.0267668236929192,0.03903150207209415,0.04080442955188903,0.04318805404055925,0.02043127716308813,0.02307488543584455,-0.007824003785986024,0.001230584368195243,-0.008281974901474927,-0.02723209295392643,-0.002914320182680386,-0.01674232955423397,0.01212494448900794,-0.001982775119015789,-0.004156548518375754,0.03545456883524471,0.03440820257186365,0.04790452434972864,0.01771110845598648,0.02380769135353301,0.02824308097675861,-0.009181502381216813,-0.01123778662538663,-0.006677409797145756,0.0007628267410176087,-0.009997243266905473,-0.02940944623441258,-0.02685067728844476,-0.01188881969348391,0.003556623247088389,0.004844797117656853,0.005142608283246118,0.01536209498320423,0.005659144019331449,0.02453220823285247,0.01611541481103591,-0.01107273653126694,-0.06953195484588282,-0.009856557007430281,-0.01191151448858978,-0.02187254399795366,-0.02480136258850225,-0.03290777991430178,-0.02419012141374609,-0.02584761732288024,-0.002186427925336946,-0.004084110376081002,-0.01015399245893568,0.01189370570187387,-0.002955631617661668,-0.001471439356661135,-0.03844958596658144,-0.04969738817328615,-0.0683496678404016,-0.008034652677169291,-0.007882730239584176,-0.0237696191748158,-0.03729695970739412,-0.03147900226785612,-0.04644579880250142,-0.02005047123347603,-0.01519463491062707,0.004072843247160507,0.0188328665601354,0.03015803310659247,0.03553983002413925,0.01763529254791213,0.01575892954304186,0.002824228322838489,0.02217323533494402,-0.01931417370248235,-0.0184149345843262,-0.01101291137816456,-0.02531142075823034,-0.03116189581122567,-0.03911090660211317,-0.01172745233920226,0.01569836412292644,0.01741186802547206,0.02868637988476734,0.02921945201838564,0.0310297232661173,0.01769373217468611,0.02380756037519764,0.02766517859001211,0.0511607022876959,0.001553955501024099,-0.01067835836444405,0.001214377023494129,-0.008594395252210679,-0.026006072352997,-0.03652833583673243,-0.04516384590100442,-0.01035062537764904,0.0122809808858891,0.01139678815631916,0.02067169580440696,0.02740572228328829,0.03979008919567368,0.04396716250583653,0.03419305365138187,0.05660027126722246,0.03037012225101708,0.01432363754187123,0.011359415368467,-0.007699374915986993,-0.03557233643187716,-0.04610852670265255,-0.07585208647455846,-0.04215110196928942,-0.04286477261194099,-0.0511178453679305,-0.04738220488907929,-0.02878072768613092,-0.01111173832731376,-0.004648757560905157,0.01576102198863498,-0.002240243765945121,0.01528413052663349,0.02851705049737118,-0.01986030241393993,-0.02825661236938328,-0.04432411229951916,-0.04733765892260573,-0.06877291352028966,-0.03582270992665242,-0.04089677890755989,-0.03507123543879967,-0.02523505234143844,0.009307182237471319,0.01663203612806871,-0.01191136501593786,0.01335969448221074,-0.02167890594556319,0.008670597301466312,0.04892128935099237,-0.01400490189871046,-0.02792801517630814,-0.08151876372328266,-0.05307833217339077,-0.04214890777249253,-0.03139489654408439,-0.02769135939328047,-0.01686603627231284,-0.01402820514287446,-0.004883421983044272,-0.0009219503157679213,0.006664847181284269,0.01777609995444336,0.001997613722161988,0.0004288399415117529,0.01614619180449768,0.007331517291090971,-0.05012562252424469,-0.08424044066199775,-0.05036455840160763,-0.01228401221114115,-0.0152112638408739,-0.02625668943669977,-0.01235760259593527,-0.03290124175379409,-0.001224828938214261,0.006835729974155665,0.01225415041623408,0.01331738190654206,0.01018671593130173,-0.02082668984382087,0.01750227070190003,0.01287755108666145,-0.01644561609888393,-0.07133120183067279,-0.04423307597666316,-0.0431203502757443,-0.02685160820880274,-0.02314165313015809,-0.01019551891977639,-0.002218363831999245,-0.002962602302679417,0.01096537587800301,0.01224534326186971,0.02097335779141809,0.01247310584001711,0.0138626102370077,-0.003432491410305303,-0.01127181485149879,-0.001713748123376982,-0.06069710583460789,-0.04102364002768142,-0.03935867459627488,-0.03389401420837844,-0.02588639105224546,-0.0147558616077779,-0.01532218668916251,-0.01415528926877314,-0.001052247378589159,-0.003261762094558697,0.005815673461590311,0.01637894452833748,0.008079056896971684,0.01214057194248786,-0.006734415315743435,-0.03453622260079187,-0.05973464286157465,-0.03156572217618506,-0.03660856634649562,-0.04560937972272796,-0.03215602493544199,-0.02400003747002897,-0.04714175595291427,-0.02435959543187444,-0.0118229949945232,-0.007152595201596263,-0.0007650416151825113,0.006921888596885233,0.01540084433316204,0.01246300395635374,-0.01569901782769993,-0.0356013097328975,-0.03100410848198592,-0.02148744566743597,-0.038585455482501,-0.03782897818169356,-0.04789920595920126,-0.01840641092124138,-0.03059727326956305,-0.01747863114779389,-0.002470075194558058,-0.0124737016749191,0.01809404647553249,-0.0005081282963861981,0.0324739681342448,0.5381130054426276,0.005856890088009902,-0.003086359011804445,-0.008737990120431163,-0.006956714699436966,-0.00550744509643953,-0.007555921041129305,-0.01037489310688033,-0.01707324342922168,-0.01137183706914253,-0.01209643719401286,-0.01018361650253884,-0.01046665917913741,-0.001023498532427661,-0.003752236891809117,0.006805622477349868,0.002485858042742536,-0.006328681090134819,-0.02023722332105616,-0.0225588013145587,-0.02272801871287646,-0.01715709253403332,-0.01003988226514285,-0.01466905655963309,-0.02071557886812046,-0.01367336666343774,-0.01632577123556037,-0.01064898426355126,-0.01768131367992432,0.002851893619892301,0.004977988455523414,0.008344585579403842,0.00236795017403424,0.01145941007755869,-0.01072889804504238,-0.0143504598175852,-0.006360481217492922,-0.01302061880673011,-0.01792614007557494,-0.0167404244880811,-0.02329527907040512,-0.019980290711446,-0.02955147328252108,-0.01488589365172694,-0.01328879944908583,0.01144742332264169,0.014495191382483,0.03313049331666004,0.02940999584127386,0.009388569616470235,-0.009044862420744215,-0.01776906891562268,-0.004844835529238289,-0.009320240514352271,0.0004784675998615889,0.01431437149124879,0.003314202247344827,-0.01158471369634956,-0.009410916937348501,-0.01347458233487089,-0.01210540216832281,0.001722807987430966,0.00777003887183584,0.03500513906617469,0.05180278928001657,-0.003547525668437043,-0.01784589328587421,-0.01878300861564832,-0.01345028918869244,-0.0120027896365401,0.01236771831651604,0.01092775634502029,0.01583201928401775,0.01239866365369725,0.0009320211159312867,-0.0002339878558253068,-0.01030506719844526,0.002024338197547717,0.01066398927209775,0.04248004813069263,0.06340983327949165,-0.001189031987069415,-0.0180147955230702,-0.02169096437144307,-0.004348147463540643,-0.002460863258183626,0.001287548931022844,-0.003262993324064666,-0.007357075881253836,0.002561517920709554,0.01386828758940458,0.02216650164704632,0.01732611628458169,0.01423388291766469,0.01181415587346032,0.02624423113280274,0.04111485006412331,-0.000494729272078447,-0.01635605176289393,-0.01796172230279322,-0.006939431764683149,-0.004558676290203342,0.003509123799913296,0.005068703716356777,0.01951700447019991,0.01817354380023531,0.008453310686500726,0.008145884430615008,0.02061995365624187,0.02590094150602045,0.01658977158970156,0.01851731810913411,0.02014800347861046,0.00913837830777511,-0.002592519059881222,-0.004090489486865424,-0.003880068878662169,-0.01138889827142819,0.0002022289508599809,-0.003054783429152122,0.003816120090341904,0.006837990777790631,0.01216166559647953,0.01659338653926186,0.01416358744611225,0.01670049352797294,0.01027135130340709,0.007301520125777613,0.006220770203957725,0.06289285422473286,0.02052533965230531,0.007901657299310787,0.02412479290302017,0.04090149769297084,0.004857770397697927,0.002478489183028901,0.01540800976211315,0.002663382897703942,0.01130864422708933,0.0178938603512374,0.003785063702542648,-0.0001125525962017579,0.04617710245074676,0.03962275854380275,0.05134611528611764,0.02521504935389477,0.01356152405998864,0.008948197906634845,-0.01783932814139006,-0.007404042577032128,-0.01222515542449919,-0.01286252655386896,0.01177390472975829,0.04075471421441175,0.0453669787998053,0.0464230658630448,0.03905616578185703,0.04495170537057796,0.02932598521980159,0.03417074354641199,0.01905660583341162,0.04085073458980821,-0.004468779786038114,-0.01164788944703576,-0.02444645244515077,-0.0118553861623579,-0.03517857707514283,-0.002602716023712224,0.02068816874451574,0.02073186879530193,0.04184619355200776,0.04298727977728577,0.03164927734185874,0.04489138206203158,0.02047126835058689,0.01540389792882228,0.001489293564375089,0.009592526068942647,-0.01321760148479414,-0.01527554060871411,-0.01713003886410964,-0.04951990362032268,-0.03006874089741859,-0.01134487631951315,0.02682764817452064,-0.0002050500890622081,0.01126614083469982,0.02548023313065644,0.02208426304635246,0.03798032549155014,0.0175467519761885,0.01528752028736383,0.006376357291408495,-0.01579929238123163,-0.02862448007578778,-0.01993026895925729,-0.03671983196401327,-0.01127684834764865,-0.004077636907174748,-0.01320807276709055,0.0001954640583749899,-0.00390769452392892,0.001476939110939989,0.01973209657355855,0.01124024875016532,0.03699430855979834,0.02957710786539546,0.02605263391065508,0.01797573420735918,-0.02479457539765279,-0.02353142256633957,-0.02748509865678422,-0.02714936887915616,-0.018198646532886,-0.01206328402304513,-0.007320709010989294,0.01183258021828496,0.001851232094881206,0.00206089807446049,0.004507198897539375,0.02638763078567738,-0.005192779751343227,0.0264312990369632,0.03077494033833409,0.02901506191676765,-0.006118244366762753,-0.0364530441153051,-0.02139302475199936,-0.01677173185127404,-0.04870433157815655,-0.02942061570191221,-0.003296321283431218,0.007273934819088889,-0.004727529396586589,0.0008798946769156471,-0.01638622606930248,-0.02161608728496973,-0.02518339284429361,-0.01355538761794441,-0.002044675111449729,0.01503385349703174,0.01607272247902688,-0.03092281993113642,-0.01870951144447122,-0.03932084824796565,-0.02911337274549115,-0.04814231081905073,-0.005865955293704143,-0.02163554675111129,-0.01825566351574795,-0.04007813302635926,-0.04941515322305785,-0.0358253252822397,-0.01317809474146552,0.007638898273253073,0.0306367096271176,0.02786569759918385,0.01923767890069202,-0.09017638333904925,0.05094534820734939,0.01394769023751645,0.01011898502810506,-0.008570541219713238,-0.01084570608533437,-0.02114348128557852,-0.05033032495368753,-0.02981741598372119,-0.02688082193283302,0.003645009085413135,-0.01118206753793934,0.01055599039526204,0.02034783366182984,0.03112673950309237,0.02751455796808186,0.02437134290892531,0.02844997342132067,-0.01673648430566887,0.004924024272357845,-0.004994698035431488,-0.0176847716520466,-0.005720097987604793,-0.0089182788390557,-0.02152562705072485,-0.01634192700852496,-0.02563635407586088,-0.03079439681553988,-0.005096412978525981,0.007067191108768091,0.01541690733722489,0.01036398231203755,0.02184275225080218,0.02222618680309096,-0.006908737460726557,0.01215619231934344,0.02678467179208175,-0.0004347573809432039,-0.008735433407409858,0.005355891510671501,-0.03085189702862808,-0.02547586093104471,-0.028089816077725,-0.02878739973934082,0.002137404921401198,0.02204859694498445,-0.0130968687233043,0.004156707933246126,0.02695195164000658,-0.01057800578962784,0.006820206883551047,0.02063643702349752,0.02876101190310121,0.01092124746495635,0.02311888294349673,0.0101208551929124,0.002570804818586513,0.00509275320267632,-0.006112647798944881,-0.001948536527106002,0.01448213507294605,0.03043945278855207,0.01015142033769626,0.00550817328586067,0.01763330234055371,-0.02156644437246446,-0.001866346340319574,0.01361977172582455,0.01735195769921229,0.002381412593913958,0.01522888554623528,0.01118052255622342,0.010298643872337,-0.005477861645630397,-0.007071693715953892,0.01264242171801419,-0.001679963633260525,0.01621354447512169,0.01167567127291964,0.02136539510345396,0.02671034319067135,-0.02214469570569587,-0.003646016519445342,-0.002712512959869765,-9.196371427391745e-05,0.003520135599560486,-0.0165935128626417,-0.01723785212013277,-0.05542584628529679,-0.04173753768970444,-0.04014954155185162,-0.0398188409362198,-0.009102577474510844,-0.01248871782435592,-0.002155086379334251,0.009650055133642125,0.01704925380598664,-0.03623165274437425,-0.0114456293593889,-0.01591909829127557,-0.01928437071769884,0.004031514575429102,-0.02890063470822708,-0.04250627406823845,-0.0537596212991941,-0.0569820004753321,-0.05775895441040348,-0.02766710580888548,-0.02729237749227819,-0.03110526791741291,0.007301696868425513,0.01687347625847978,0.01533014963864333,-0.02095140732030183,-0.002782349191620061,-0.0361545733823064,-0.03099789324963486,-0.04524543166566655,-0.05601919702119108,-0.05629020713451446,-0.03927584022901899,-0.03599806041762784,-0.02259651266004121,-0.008385299325832884,-0.02188836105499783,-0.01884988313169508,-0.0214141630083933,-0.00861661425011678,0.02422410092662082,0.241015839617601,-0.007468222463140821,-0.004974838509207955,-0.01435863140985124,-0.01026235549562032,0.02037021911534135,0.03774927249832165,0.05938622944310908,0.00974403565015306,0.02292228990546053,0.02730926777685001,0.03824717217516722,0.01745702920036368,-0.005031117836365453,-0.005629935372245815,-0.01340869003377183,-0.003599263733182137,-0.00740331302849402,-0.01001199417204637,-0.005871048767788757,0.00904643628504849,0.0159042546050322,0.02231158897041649,0.03682394893441066,0.02556112190275305,0.01993150056376125,-0.002477215098205039,-0.05638934763805412,-0.04242862808980777,-0.01563891261698935,-0.01839225000967753,-0.006529174134205238,-0.006239899281229563,-0.007975176424932038,-0.01416772807024741,-0.01092624282630225,-0.007887120542707233,0.03114692112752548,0.02003201901296044,0.0489093543120817,0.04409710115372496,-0.01177474527279433,-0.07386960937119025,-0.08491860295842406,-0.05865004121196196,-0.0365003328822635,-0.01946370557415853,-0.01126914665873681,-0.00740331302849402,-0.01320097355127252,-0.02716844440683875,-0.02202653737024235,-0.01102699683491279,-0.00796817327576591,0.002196705585820211,0.02385992335071414,0.04872807728199606,0.04807636133973332,0.02089188371861636,-0.01798573659126732,-0.04745408090849251,-0.03772480753260098,-0.02978695644790983,-0.02172010348002899,-0.01193403612876023,-0.02058785514366689,-0.03029555774121823,-0.02859349037871351,-0.02538901171922297,-0.02031828857182453,0.0125121173957904,0.01962430472772066,0.05774879883563182,0.07046256540845622,0.01878971524158629,-0.008088939914496345,-0.02697705733307407,-0.03077690302399759,-0.02578291191994593,-0.02190131302207227,-0.01606503515818494,-0.01328384507376787,-0.02643653913817615,-0.03315124290742377,-0.01782061714760468,0.01694926433743314,0.02598506826495951,0.04454490085299004,0.04925180311854992,0.013180980668458,-0.03702792660426724,-0.05627193404524693,-0.05126605167931479,-0.01855300859772495,-0.007851361612489215,-0.01485164962527519,-0.01168420401938442,-0.0141145393169235,-0.01441538869264782,-0.0108852324396821,0.01905002360973254,0.009765481191878254,0.02626958732712528,0.04247234062348966,0.05285228397654859,0.01891564092201164,-0.007197593443697026,-0.03441844003887638,-0.04209726953460524,-0.01811890407523746,-0.01508327690986907,-0.02125219513335954,-0.02238563796874484,-0.01088396074677304,-0.01435285672572815,-0.008329953532855486,0.004577064134533933,-0.002792400014140749,0.01083763831137059,0.05207064636709241,0.05710332224670947,0.04479998539375312,0.02971387222404158,0.01419786893915437,0.01427770372331983,-0.02487274870673313,-0.01929446643579354,-0.006532803006349451,-0.01179792652987299,-0.175101053530355,-0.006706133490304279,-0.0046190675731123,0.0310412551528462,0.007365782038524762,0.005457128599045607,0.02251552159164784,0.04259902245416719,0.03334791648529825,0.01783170455367823,0.01408643046133996,0.03151600122449996,0.02327017477572404,0.02698333299913126,0.01187005301361229,-0.02161391211588118,-3.836747181606916e-05,0.005030193306159698,-0.005907261015855697,-0.001593668158759598,-0.0002036991510241422,0.0005681131821004387,0.01358711923653484,0.006687399782082247,0.05155530054172355,0.04366054268648415,0.03911261539951067,0.01451194694276645,-0.00355375712771458,-0.01011548357666521,-0.009108853681221218,-0.01533458012287027,-0.01883849598466406,-0.0004403014824418979,-0.003759083384104681,0.00558497704798867,-0.003248791896927371,0.01142575398463353,-0.006883681932042272,0.002845481701598468,0.02188935899775284,0.03298533186205753,0.01207047797109944,-0.01303193019624513,-0.02585852026894644,-0.039180372837084,-0.04481182352396502,-0.05228658596462775,-0.04649346101345712,-0.01365753798137898,-0.002738251447187198,-0.007340483791432944,0.02131793156234611,0.008047240310825137,0.02036154825459342,-0.01120214456555005,-0.01564656935274252,-0.01100694160276168,-0.02522667617828757,-0.05755412964476959,-0.09575667439487155,-0.1130954345188158,-0.1057019029150381,-0.08765620958830614,-0.06739062562237999,-0.01240178497515638,0.02511143422819741,0.01226983599661482,0.002816565308938698,0.01725853106744191,0.008561774325927335,-0.013206217783706,-0.05514945156752719,-0.06786588694515155,-0.05733200677065394,-0.07531721053505082,-0.06828724902452664,-0.06637616383183675,-0.06857739500230309,-0.09099413349158197,-0.06290803860287991,-0.01793641943670296,-0.005914362752444901,-0.01204615035902168,0.007470600991599819,-0.01226128688131909,0.01074481631691509,0.006726239809359941,-0.01283837350635015,-0.01610861202697861,-0.0001870960898377809,0.0101098450069215,-0.006000684616135356,-0.01478607313321053,-0.03622284028163476,-0.04701045994395036,-0.04624102711775158,-0.02025318671477175,-0.03394743244218782,-0.04326094341044529,-0.0157988916751405,-0.007235316935867928,0.01467259844290923,0.0113688127966107,0.043351795334626,0.0587667516819808,0.04664486052550194,0.006984252785043455,0.0009916375617371812,0.02582384879355586,0.01622724603698775,0.001271115460306302,-0.00917308997352511,-0.02135069341613261,-0.007793138346088491,0.006964634633614442,0.02915115401045905,0.01797632354616941,0.03380797867225846,0.02267949382693255,0.05834830983978623,0.03913470625304747,0.04252657671621644,0.06700956932380114,0.04473947866115682,0.02172495282824738,0.02351005298260985,0.003175358909771054,0.00356216298447966,0.001126681171907699,-0.006540587264020364,-0.02829606640611817,-0.01415629207133133,-0.01275268086802865,-0.001894273098313096,-0.01906924669586842,-8.286892212016582e-05,0.03929518979001555,0.04477355409791189,0.05712540460843426,0.02083284153636613,0.004409956328135391,-0.004430893216312301,-0.01169385507270102,-0.0115402089518832,-0.0155026634218076,-0.001435875341814751,0.01216638763949071,-0.006367846150827951,0.02447441825799128,0.01561039045597837,0.002141162087577377,0.01832450235916193,-0.01157717899697581,-0.02054252734745991,0.01179817928738166,-0.002665850425254248,0.0004580674196513028,-0.001640801680302149,0.01641464340244065,0.01934341452607884,0.03229058025130258,-0.01288648596649178,0.0166311072309378,0.01418724499054649,0.01096853198359497,0.01996552104487592,0.03850203202019095,-0.0002473047038297068,-0.03204800275575409,-0.0324226772110293,-0.008897825110391512,0.008370264376401693,0.03258414728331516,0.001867958149826128,0.006669188157486258,0.02247068650669682,0.03090059146188908,0.009642056944356114,0.02007495737859803,0.02946557785085944,0.03347734443797407,0.03731818762327817,0.03561971459810417,-0.007033014491329311,-0.03903199692652864,-0.06633259484694451,-0.02089481682104544,0.0006859216407202431,0.009199380152455687,0.02432765876600301,0.01754983052161664,0.0211604560327071,0.03132981539254452,0.003188237476306536,0.01958362105261268,0.04187560456688195,0.0262019433388945,0.03158918944522827,0.03613077979497239,0.002851220586408884,-0.06530780805068638,-0.05179520838103238,-0.02311458616875195,-0.001251507154154367,-0.009026413212283341,0.01810437453638006,0.03000501070166881,0.02255134955168395,0.02474432055792703,0.01718288412618891,-0.01788135401826916,0.01475730795641597,0.005126872224648171,0.01173947008748473,0.03743384902695995,0.01254782375621944,0.004088655171724959,-0.06259754067690541,-0.01873300904781334,0.02167490969496341,0.008462317437855039,0.002242261958406392,0.01172409067009737,0.0228014792195467,0.009451833683745367,-0.0006093113333196629,0.02407634710791274,0.00765183090939953,0.01717731367618797,0.001579409736963358,-0.001389735516665238,0.02481956642002408,0.01766347524631028,0.005781533562719809,0.01629891375989437,0.002801294136318411,0.01597147367080667,0.0123235257546693,-0.003858127853961457,0.00260784631948223,0.01148733484978374,-0.01786523025691958,-0.02167993055138364,-0.032155223428944,-0.02324995590398489,-0.005794518430883592,0.02294117097691347,0.07224992579039276,0.1074250749392281,0.1026973872354674,0.04483341178023325,-0.003469519373568578,-0.02704987797981549,-0.01946360435202425,-0.05053548301456464,-0.02616588100850248,-0.01914852859345354,-0.1247667327608851,0.02484483689525656,0.0265826030900873,0.03462921936706973,0.03271658043864563,0.006728164343343403,0.008739804304319809,-0.01127546512184624,0.01385753022977425,-0.002808471623581829,-0.02453603281446907,-0.01804630008647238,-0.009277959963268559,-0.01755340251097586,-0.02866368401005491,-0.01051980921098592,-0.01073924500118735,0.03760660014402883,0.02614217532863121,0.02526692448210961,0.04159369320292162,0.02249042956496883,0.01104780456471475,0.005755614192976152,0.01541155543673799,0.009819761160554993,0.02854175743719906,0.004465940726273479,-0.008241577331680721,-0.006269226804587621,-0.01029986685056353,-0.03751729193062171,-0.02710758881600453,0.07379543063713528,0.02957749168107167,0.04672798723949872,0.04906383987337815,0.03157329355422923,0.03459448731122013,0.04289204508381633,0.02827109151285251,0.01425685328354044,-0.002531516826947966,-0.004276692543687395,-0.01119323485608758,-0.02161045631401808,-0.001867191922795227,-0.009925146411097015,-0.03670041256930816,0.0947094448596856,0.03604744547941176,0.02423111483502059,0.02982380968419381,0.0202158942331443,0.02376293849331486,0.03062236493021998,0.0237803672191545,0.02376113445750822,0.004841659854489273,0.005882247141384685,-0.01515296307828106,-0.007439896809826578,-0.02606851142477121,-0.04546070779537962,-0.03498644579687725,0.08558846039865729,0.02359238906621065,0.02433804503326371,0.01841697814833125,0.0005630885785363037,0.003023497632104767,0.01558532194988645,-0.001152338037038991,-0.02303655672660178,-0.006620591366346289,-0.0449032921048027,-0.0278173015949592,-0.0229328691485839,-0.02644137773269873,-0.02968970179000962,-0.03622952124841305,0.08078620983770275,0.0575216948205847,0.03376671260340178,0.03712496782025888,0.0362780762736282,0.0133043813251524,0.02679675916814315,0.01332441631956009,-0.01460709486524651,-0.01260174125394245,-0.03704155168709442,-0.03911578483472444,-0.03041623994069921,-0.04533200410659312,-0.01644602787556898,-0.0469044113034577,0.02877551809131039,0.03114592034270339,0.0403005971535902,0.02564046306814358,0.0431767921173063,0.05421645824399236,0.0200795405559926,0.02789700743964629,-0.01595672240190734,-0.02975449949383329,-0.06177489865351338,-0.05696735711817252,-0.04173422297419121,-0.04063973435159193,-0.0427715928092437,-0.06240126458606902,-0.01893295676304101,0.002556863156530652,0.02772641077718937,0.05474227443929935,0.05563121430637299,0.06011989487106785,0.04230069328815982,-0.007415455486503988,-0.03272481264985747,-0.03957436342954015,-0.05810709328402064,-0.05101563099769472,-0.04801242625323533,-0.04374473522354757,-0.03801233364375625,-0.03733931901274601,-0.1318782247065535,-6.035340505381755e-05,0.008915594729821119,0.009935211012397423,0.03059039708569179,0.01668202102633176,0.02046097451025588,-0.0009565745008244189,-0.02393617637221627,-0.0285384695043316,-0.02835485230851065,-0.006216448477574053,-0.01741794065101683,-0.007815877264146757,-0.006425159609178154,0.002131439689884438,0.01499535373322738,-0.000807457547094641,0.02403882450556147,0.01764914718429668,0.0368544624103664,0.03426622826955716,0.01595756174108692,-0.0006165339119632661,-0.001162583620178752,-0.02222249165228334,-0.01780521783797105,-0.0136713713895171,-0.02170784854266501,-0.01344611713468381,-0.01307072998532615,-0.01551652687935912,7.07828118955033e-05,0.02365183427563801,0.05246670368904422,0.03193048707504648,0.02683703539157302,0.03295110297548183,0.01219558955062046,-0.007198596313560962,0.003609072375590916,-0.01680947601682321,-0.006194412239151543,-0.008911451652514417,-0.003457231745921599,0.0004728610859444492,-0.005455314404285538,-0.008612483980572381,-0.007781007751876131,0.03066724570952947,0.02338250808944584,0.02598752686054144,0.02867187811901761,0.03762953377869858,0.02374091306545621,0.00403726104322144,0.005464611835283673,0.0005598355712549069,0.006577215790692325,0.00449223791290992,0.002762544427961989,0.01164684512140946,-0.009902563199795355,-0.002251941714445029,-0.006731964214478636,0.02790299256690947,0.0350436639116715,0.02641696314303151,0.02546937717992071,0.04239475115475336,0.02385462271272406,0.01449539503261948,0.01375114093212749,0.008621872562028695,0.01094940636903275,0.0225360766557419,0.009347706955582178,0.008417853317031562,0.001716878808617379,-0.00143480718860074,-0.02217897195269601,0.02499294872094167,0.03106654584257931,0.01527133199100819,0.03168488922403134,0.01496043233729642,-0.00151941947198281,-0.000759687821924064,-0.008085159327132684,0.002778911245131353,0.0136285653842648,0.009133892567194395,-0.003823600510717752,0.00226422365165564,-0.002523392746790012,-0.01363856767964067,-0.01263321696671618,0.01805616842932083,0.02853766102412931,0.01567678329966922,0.02004024941163874,-0.002179387927994954,-0.01136009673618961,-0.01069801901323489,-0.000391166152166489,0.01486460007911149,0.01338635971208317,0.01463379280997514,-0.004399457109272606,-0.01780594288309947,-0.008693621981828074,-0.008056451432714898,-0.007429978037361365,0.005192381252875347,0.006382145035839572,0.002491728661102859,-0.0009965237716129567,-0.01041668125838842,-0.0004423055684182528,0.00441348300304626,0.01187881650719223,0.01492851589011824,0.008027684022894341,-0.00161839016601125,0.004297468738236905,0.02566866574875273,0.002696404965610768,0.01048907040414562,0.00901071698545006,-0.04897346317197184,0.0290710729512859,0.01481160130567824,0.03445901540424436,0.01197260488035563,0.008222573121746264,0.03791908679422806,0.04231089369866441,0.04330108181020872,0.04633188264757745,0.02570459416652295,0.02400050499848486,0.01703812577844165,-0.01151943009887503,-0.008160115696318044,-0.02241741060377061,-0.01426869760963978,0.01318511912953737,0.009967880574498184,0.003517758038712415,0.01456200703774023,0.002555854669057413,0.02130831855099985,0.0304771225725537,0.05676149817676745,0.06953634804654296,0.04686933445797527,0.01350661365987703,0.008559028990945848,-0.01489810250837101,-0.02830954343999942,-0.01956710145826085,-0.02066165322867553,-0.001015762458363567,-0.0125235072460898,0.01931113644890229,0.01798495575556437,0.01488644523030502,0.02024810601438434,0.004870998890562373,0.005785856161624674,0.03068299895695775,0.03254803831259295,0.01074587185945336,-0.02070418444655394,-0.009030151784902008,-0.02248755959088254,-0.02889924289396371,-0.01664872651179478,0.01505013588203007,0.01286819417999609,-0.0004152546927221933,0.009599271234023028,0.01459440219321326,-0.01595393023629109,-0.01823456993504965,-0.01668559657510873,-0.01383689156409433,0.0129922948848208,0.02120905069073393,-0.01819571859237877,-0.02808558844508394,-0.01401799723814789,-0.00740358200529775,-0.02781489968776011,0.02702177612706446,0.01320934813287241,0.005455768043856156,0.03400773571552847,0.03455787505265929,0.001644470450529871,-0.01871539917623255,-0.04670574790648643,-0.0199174132148467,-0.02152504157813391,0.01057065860887912,0.001250639610186035,-0.01484382989873232,-0.01071131816972089,-0.003758886911690927,-0.01238803975840014,0.01248549362736834,0.01718248352469946,0.01033930455537639,0.01416226667667239,0.02593742086549008,0.008876209440774122,-0.03090244644990598,-0.04235902088579852,-0.06481480233016139,-0.04961339980225386,-0.03863607009180108,-0.05211668795438414,-0.05598177361549484,-0.03482274092981128,-0.03361199230032055,-0.03525783430852755,0.01749306790984094,0.004176277487293166,0.0146917902648235,0.007539853379662551,-0.002918628777505808,0.01223605765314696,-0.04127914144129689,-0.06811904376172737,-0.09109129625054323,-0.08347710392521758,-0.08121386109512314,-0.06125490553944355,-0.05830720647822846,-0.0504147369129453,-0.06196190933360184,-0.04961747077631648,0.02637761180528024,-0.0133710154236836,-0.00981541556803457,-0.00779078817723739,0.0215726034727855,0.01494959101712662,0.01250902583141468,-0.07686281217294458,-0.0869194164387317,-0.09073913867875996,-0.1372751424739402,-0.1156730998077128,-0.06590811327450552,-0.06157514251679107,-0.0507492226463384,-0.04270142466991057,0.1263385453243762,-0.01778335040230831,-0.01514433119772927,-0.002153656534329598,-0.002449105373796891,0.00538258946997115,0.02416842236102198,0.02967927508330209,-0.004615164593396695,-0.07158993439182505,-0.09755355749608753,-0.07549207646617385,0.006572610831163037,0.01336163802843083,0.01091154683105402,0.01597099203014796,0.04837474494427049,-0.01004930398396228,0.00899064410982383,0.005055598478095689,0.005728745351466583,0.01195516210202856,0.02698883150245355,0.01604496302182868,-0.007884203577803743,-0.02094369048229183,-0.05929590073976488,-0.05736675401739229,-0.009572367449214773,0.003337050632630564,0.01136453388856005,0.01782152113923691,0.005199222897762184,-0.00310581670302502,0.01299854276443037,0.009147601841921888,0.01942743465276457,0.01437710164366492,0.02140672997851054,0.0159363211956451,0.01058804817630554,-0.002678423454362765,-0.04242354160572341,-0.04161577981705275,-0.007180107763128518,0.007146203622274167,0.02935654422296601,0.009695706484784411,0.01712360291475994,0.01600526343851165,0.006741139157992549,0.01857890777047018,-0.0009721742016435957,0.02432888453204463,-0.004918439567197268,-0.02278594152090362,0.0189895408030274,-0.0009546353482390801,-0.03017844116368724,-0.02806301646513032,0.00740740539982984,0.02498293013025699,0.01191746577795251,0.008390506041038678,0.02355453238032608,0.01708401326091627,0.01321455351448887,0.01926115366668661,0.01416505431228471,0.004263307659866543,-0.02775112705043463,-0.008466545129626673,-0.01172189666272299,0.01357409497770791,-0.01885659397703018,0.007656317145346342,0.02676126904541835,0.01113724312047247,-0.00338361415895632,0.002153627672432113,-0.01116993078439601,0.02060580018291499,0.002757722570610536,0.006101776314772563,0.01405350374696923,-0.01349891269305649,-0.02847117583626803,-0.04426381059266159,0.00445691882930615,0.005401500886643608,0.002821295979441909,0.02674514677932549,0.01559656983609009,0.01622149276395364,0.003447435448416085,-0.001270467721500594,-0.02205221011962659,0.03861979324311376,-0.0003098995043630958,0.002522539835634317,0.01930684080440614,0.005418476519780766,-0.04565713974208978,-0.04377933409611014,-0.01619809484358771,0.03205189473806831,0.04180342032053944,0.03225397228687185,0.03364201876040721,0.0247696440513349,0.0008221668789749942,-0.0005773842565100738,-0.01482238621373869,0.01893724216038561,0.02786845506071052,0.02390676385800767,0.02618483417392904,0.01357083912701475,-0.05605282211912363,-0.0909674876994265,-0.03810526090016807,0.04114582988905189,0.0585634213880586,0.05807599635533381,0.05834727732095641,0.02352122398147343,0.003034501026281833,0.01177834673004754,-0.00766612047748326,0.05071880017622412,-0.001165943474738552,0.01200059924192477,-0.008017178959056473,-0.01720902847309306,-0.0007311274640045994,-0.007451509900884943,-0.02192749574327411,-0.01075245054428743,-0.0002331558924348889,-0.02781000828500236,-0.02536202239468581,-0.02512519351794513,-0.04583240541441939,-0.02319782336307417,-0.01846876713371691,-0.001549318914991475,-0.0195019339076219,-0.01520877919800926,-0.01721769754103763,0.008963092174455428,0.01107806434266905,0.001411877943153481,0.01093997507589547,0.002686115959146588,0.004462565708684084,-0.006793563004039144,-0.01559343526282486,-0.03235398145974318,-0.01622147715180728,-0.04340885983591949,-0.01393128077381185,-0.02603925138127938,-0.02872045573772884,0.00464266448684037,-0.0008413181235493076,0.007743073996984325,0.01388523135258413,0.01421374043264834,0.00854291839297967,0.009472774580815442,0.00261734911831497,0.02475310980509176,-0.01089860739984476,-0.01155090662027814,-0.01523198199076806,0.001762466812544334,-0.01438535812849347,-0.02008032791109966,-0.0160588257414579,0.01115115976363664,0.008087165044308326,0.008819839571600296,0.02779111095560362,0.01741587977948012,0.01441349476642688,0.006149206768258972,0.005810126171752176,-0.01467655247677026,0.006944364767391589,-0.003920003015999596,0.005358082599957904,0.007356722105520572,0.009053477517551223,0.01684258804816238,-0.02425624672342497,-0.0001634017680835456,0.01114752299386918,0.01115771612079868,-0.001432807442229201,0.02215838669560028,0.01628749345610149,-0.002251007030532119,0.00869353905991322,0.01300343118254713,-0.002520667603485537,0.01055666906776994,0.004651508184398704,0.0137197970957554,0.02929879703007388,-0.009460398086516717,-0.004228381880573279,-0.009441002197720056,0.01722677352065029,0.01105649180987778,0.0117967994547369,0.02168878664046697,0.009508970989989044,0.003338345299836318,0.00978337046420409,-0.002773561596647349,-0.01411795371089919,-0.002616975789147307,-0.00266173473632101,0.015859859957458,0.0158639864390381,0.01154871216772389,0.004087856121283143,-0.0008787832965396526,0.002053853657394035,0.004603749658264825,0.0136484590366239,0.01096157084197636,0.02839143194653015,0.006607089111687061,0.01045367576774446,-0.01004737189050536,-0.02921271812130087,-0.02215245660150015,0.01490952685143133,-0.01256788872312743,0.02185208167510085,0.03265114038160955,0.04514086772122321,-0.005178449251021606,0.003384031313187825,-0.01314834341966061,-0.0196161107283328,-0.02309224724939493,0.01365351103549124,0.02305482541399908,-0.007830031419384575,-0.03845495189927638,-0.05562275414413417,-0.02841359708036754,0.00802515730715154,0.0156054656992491,0.03516363916333713,0.02616049034129968,0.1466976331089673,-0.02794535028175665,-0.02417884349950309,-0.03071815727290493,-0.01943352300131885,0.0129654259431433,0.03492072351889153,0.05294474119070154,0.04031158052160767,0.06326709826002697,0.03396629288565865,0.005391043234610157,0.001642458820644675,0.007140556075490532,0.001618508129226762,-0.01574964947381218,-0.004457950669230741,-0.02560864660758607,-0.02243770414817246,-0.02094977825510727,-0.02992267194322166,-0.01823168555343493,-0.03942536375640206,-0.009005996162072273,0.001846681681876607,-0.001690983062285403,-0.001440423644145579,0.004190494551833773,-0.02012099087887694,-0.006305099708509869,0.001043438977320125,-0.01228466461765425,-0.005078785333977709,-0.04739927879348504,-0.05968075161499817,-0.06439119867095346,-0.05725564586055309,-0.07367607721208505,-0.06008800648952684,-0.08125242495406874,-0.07230567183611984,-0.07725955476540484,-0.01317923321770285,0.01725614675100447,0.001042955308505462,0.004711361888185438,0.003807970736807982,-0.008431403974516352,-0.01138043708097118,-0.05478488586828108,-0.0556418880535015,-0.05987785908762232,-0.07220765761193502,-0.09028075634124023,-0.06584977419878163,-0.0534267990133265,-0.06065293515216003,-0.03767556091416233,-0.03068396241297613,-0.001938529673200403,-0.005644004286150774,-0.006878144311555965,0.007697412233134094,0.02990825984035328,0.02479962607321928,-0.05118842910136626,-0.05930256832922178,-0.05283263715656692,-0.05982759409981829,-0.03465624347586339,-0.03192328765242142,0.00761634123988407,0.02567656194911552,0.006284234920319041,-0.001093756948709486,0.000740808579938903,0.01338333796783219,0.006331701970893194,-0.001536098842501017,0.0009266070644359168,0.02035814687837914,-0.01486003004308016,-0.0186473699354372,-0.0304783012795686,-0.01860907590313674,-0.01298462520491238,-0.007500917341261741,0.002742418669642649,0.03450316986280368,0.05120073698282672,0.0435007987886314,0.002600153705627338,0.02927455449172575,0.02269723719119893,0.01495751497886365,-0.009608245544037733,0.01756568939439946,0.007203567099280226,0.006940872044164779,-0.01802567791894717,-0.005471514404753291,-0.002744473034315435,0.00990919087249899,-0.001772016903418738,0.02849899010651397,0.0257001932798383,0.04607913349561245,0.05227494551834207,0.04161160738426025,0.04048558852196506,0.02057602526327023,-0.004957166563204761,-0.02855298447613945,0.0142706962197992,-0.01453252945997103,0.005398335924859101,0.02475129619480733,0.03420651808325294,0.05049667308820302,0.0148714104886639,0.01369921255428906,0.0195291439075666,0.01530345162810332,0.01696766062237215,0.04178392983440472,0.01640135853795321,-0.001363981931598313,-0.01042270695596905,-0.03211599490012965,0.03173010597393616,-0.0002323249131760713,0.01473005146932026,0.001203176046167455,-0.007014189866536354,0.01831026638478403,0.03728314999302672,0.05698902507932493,0.02951021530253601,-0.004546451731463656,-0.01186468342497122,-0.02395801284373335,-0.02253370057774406,-0.02960244364228374,-0.00633449711777337,-0.02102596403485102,-0.01704861301724024,0.001961863196311627,-0.01211189529526932,-0.00705399430509304,-0.01482072225658866,-0.007139411549292635,0.01167215603085432,0.01676592645865162,0.008693269845004346,-0.002981722565046239,0.000480699872409901,0.002238239984218449,-0.00105739550167421,0.00123231288021165,-0.004009218329962747,-0.007676023255121242,-0.01841678998517602,-0.01462958940844008,-0.031063590309734,-0.02769216158495659,-0.02275584549283529,-0.02792067079022138,-0.01852640421434299,-0.02157432264527321,0.003792671779830772,0.003066098609061821,0.01231380851280239,0.0254555416055955,0.00808708734250824,0.01353858982609921,-0.009397000460678068,-0.006107720581452647,-0.01216631327030459,-0.02243485770572564,-0.03685938954004195,-0.02464529924052529,-0.04030307267774265,-0.04603724194400804,-0.02760740782036188,-0.02893114061548195,-0.02706021296255565,-0.02854752109156594,0.02075438301043418,0.01974677896956975,0.01670710085116871,0.008661307551724938,0.01966740418594459,0.008997615678545718,0.003509197293117441,-0.02311394548188381,-0.02481821083798084,-0.02475602867816275,-0.02514274678082176,-0.02631329298512316,-0.02108060492386358,-0.03713883362516568,-0.03203154909982392,-0.02647675140935471,0.004253665275862489,0.003874782805802039,0.04496572050740016,0.01821766107227573,0.01977571584625421,0.02740761513539445,-0.001097738258392283,-0.01586029943139937,-0.01232358339551524,-0.02650518548824444,-0.01259887741450406,-0.01184041047647176,0.01241586857056216,0.002326910791250103,0.005462063962839392,-0.01025161543680209,0.004154055252729812,0.01113020632368535,0.00859491666140025,0.0256373458800679,0.006489136251614612,0.01456741438265188,0.007508087539853605,-0.004477407454276372,-0.001938823599026155,0.004740381863203756,0.01231924026349982,0.01533349208162959,0.01616272384716292,0.02139629204845034,0.01946377117315663,0.01041947106491648,-0.01172660810016807,0.007656516204757321,-0.002291705461538265,0.01997412763734282,0.01237908548789908,0.008450015809503233,-0.004183970859369329,0.01636678938375087,0.02316824956554615,0.03883575342387208,0.01275052845121555,0.04327045098882561,0.02656580261335478,0.01791720097543086,0.005218997581229468,0.003051205667622836,-0.01734219837519387,-0.008775846739200651,-0.013063961847826,-0.01243462750856509,-0.009256890396481428,0.004501821366945581,-0.004271959491891072,0.05498532848667487,-0.002514344197479187,-0.008974923904680647,-0.01189254290719472,-0.01573622287118066,-0.006980157280192697,0.001356236840504984,0.002860096066180747,0.03744140820838346,-0.005676451687028068,0.02095267853134444,-0.008618184538983446,0.009179168199933972,-0.01829857548281679,-0.01557573595335118,0.003120667997100193,-0.003287872568954184,0,-0.008658710612805737,-0.01061513130314542,-0.02400377635426567,-0.04671417207997242,-0.06533778668546994,-0.08323847985539581,-0.02225147952403356,-0.004320349017630411,-0.01554106864710519,0.009355298836710792,0.03387129648439089,0.001993471353858895,-0.003600703137088335,-0.01202771808239407,-0.003348617096433235,-0.002969278658474355,-0.007382648374863643,-0.0014484597346482,-0.00774525691053435,-0.0181171598325903,-0.05590902447134942,-0.03544215219065034,-0.001789541555370251,0.04629367951175608,0.03789100921252882,0.03267340804094194,0.001131673320157357,0.001132525919010865,-0.004860846911009175,-0.01329329297312964,-0.007980965214034338,-0.008065574368392042,-0.01065714497834424,-0.01754923228991517,-0.0202425257164669,-0.04018559961185653,-0.04103284735350024,-0.01388345309040882,0.047320331956462,0.05446965646474518,0.05939124185236332,0.01404536632603334,-0.0009094866204488667,-0.009242570672187341,-0.01728173418890453,-0.008395194095418546,-0.008567274683632801,-0.01065972688101116,-0.004464152272130605,-0.02010281372093893,-0.01480798554025256,-0.04551603488196897,-0.05154169479570442,-0.0238819147638708,0.04548930466104483,0.06586711197830612,0.0376323372456389,0.004686268919291615,-0.02044521616830313,-0.009922110609207838,-0.02797145104444642,-0.01866802067366726,-0.01679128989151463,-0.009704072402630179,-0.01036437357634351,-0.02196804854985398,-0.0226382170486124,-0.02452795043292475,-0.04568505886126753,-0.03702703876341328,-0.03643519558857401,0.01985959579076864,0.03257904167722368,0.01093552011791495,0.001289381317577162,-0.00430455791220577,-0.01583175089779923,-0.01034426563796794,-0.007109349070494491,-0.007602372323437554,-0.009285775252019518,-0.01820797951103172,-0.02178541148139308,-0.03084077725957029,-0.02600520915404321,0.01291835328489863,-0.02121953829043437,0.005283086632895868,0.006762436852131589,0.01555090561213337,0.0328097644980691,-0.0004481102987570289,-0.006753480516065042,-0.001283285113720943,-0.004196078493474403,-0.002360266787749279,-0.01170841149253003,-0.01824652700771824,-0.01148012816531138,0.006597694385184193,0.06023927527615532,0.1118367717278304,0.09427920226663786,0.0437934273054888,0.005272952906448354,-0.0165618100098583,-0.0122948403017025,-0.0142605903970219,-0.01818524554169357,-0.0123964183164144,-0.00122679983500006,-0.09518187540403079,0.004615709810342407,0.01247251281594411,0.02795559347281811,0.03439519889836669,0.04037424064090517,0.0120050873717815,-0.02593923163763377,-0.06989594738335471,-0.0810178215457272,-0.03327376753029267,0.02954743634483684,0.006560434891671207,0.03441609106370978,0.0271415259417484,-0.008502808089660719,-0.01520266998636058,-0.009187044389562686,-0.01129261550703547,-0.001169946557148234,0.02656699098794886,0.01929652449772189,0.0215809074205624,0.0132489773393535,0.004673522602204984,-0.03686047833224621,-0.01766679287497172,-0.005900037159160466,-0.006917291549356661,0.004603146994345206,-0.006191536910949144,-0.007249919397385111,-0.01148841226484975,-0.006529635313693566,-0.01657208568367237,-0.01322004642148901,0.004967834892859037,-0.005384055469821097,0.008859030729158295,0.03700755191523803,0.07782996235920259,0.02096495549743485,0.003049357443901102,-0.009477818574817947,-0.01981081833246994,-0.02173709181909395,-0.00179935784347829,-0.002539100024478547,-0.01540655242814871,-0.009901484863148641,-0.00158060760383722,-0.00377050181394274,0.009233963223166388,-0.01837397854931708,0.007409648115206101,0.02963265478065297,0.03755215365893495,0.04941185476827273,0.01773421033996744,-0.0188855140951853,-0.02087352130187632,-0.0174793122091663,-0.006222566805586532,-0.009927727167981737,-0.01366966634236381,-0.01332973514060707,-0.01123412037303395,-0.009150701863277634,-0.006876976908816295,-0.005849824503840388,0.03608372917331143,0.02906485885182154,0.01680490478968866,0.04894900100776847,0.04802251212592417,-0.02118794271431035,-0.03585283966393335,-0.02619818998316673,-0.01819422111340073,-0.01363711768453719,-0.01574225140381568,-0.004582829295190532,0.005145964283038335,0.01192946730348305,0.007662493918331991,0.03322698641158302,-0.003433839971077899,0.02339688484756409,-0.01010322850505987,0.03321436618113545,0.03240733448622897,0.009811308965132543,-0.00236675604862288,-0.0183040649183839,-0.01387593342323119,-0.01281039190046737,-0.004862747126010424,-0.0130102761143558,0.007197445863094555,0.01048875275257212,0.02042367759209953,0.03084985931359081,0.005890415867306935,-0.01756879980593525,-0.03009644384990763,0.0122822796550069,-0.00197646712832168,-0.009819733875646103,0.01099826281818689,-0.002278551939325111,-0.02006663682979026,-0.01477589411840829,-0.0009630482611985854,-0.017018719768193,-0.005028779093944377,0.01073675295080953,-0.02204166049798208,0.0007043222084088022,-0.008897352275217115,-0.03766115967908776,-0.01227434333187935,-0.03153018396770016,-0.01807718390903848,0.009764377013230558,0.00185514405652298,-0.009336369420364322,0.004558368428978264,0.001822267653090288,-0.005016998093661878,-0.03902411405207806,0.04528485229789682,0.04627809502227556,0.02124857832323151,0.03667939361215943,0.02242817352765889,0.001115359540875739,-0.03538159899889113,-0.07430858144136315,-0.07477377791208362,-0.06103464555898504,-0.0238226678556235,-0.001589444444673908,-0.001188970723556466,-0.001809516440022542,0.01898470187597013,0.02295668934533129,0.01824863714891324,0.01865854292712302,0.02739895293967533,0.0122686357953355,0.01448117505731604,0.00950793683568559,-0.001002123336339105,-0.03054065164736657,-0.04741449711072619,-0.04745534442796334,-0.009548059771116345,-0.005040538508841632,-0.014204740271637,0.0002352963579285528,0.006733104758541343,0.01543038204697216,-0.003362960226179643,0.0276740533864104,0.01589712243573142,0.02093828943618485,0.01630440404582979,0.01961814870086949,-0.001193531350865353,-0.01703496393379284,-0.02559661694989089,-0.0320791381590565,-0.01192823066047138,-0.01016982766293173,-0.008400003151040688,-0.01203509517253617,0.001051018734974588,0.0192695317379204,-0.03604387775883478,0.003069087238920035,0.01656378294316787,0.0311215527572519,0.02384479788500811,0.0186618405704889,9.464517480904093e-05,0.001102876526279763,-0.03324156820233146,-0.02049062436752172,-0.02008747264140095,-0.02495247331817934,-0.01117610373058264,-0.001785621636289263,-0.00910354658249898,0.01837823996225375,-0.02501305351692555,-0.001612268721650238,-0.005933209129974946,0.007082252383437776,0.02221699518088009,0.01770652635719866,0.01636033871902368,0.02044719013597696,0.001017250251457366,-0.004907966124242042,-0.01272806198008,-0.01662364929398242,-0.02007304621349946,-0.02786274918913529,-0.005846598043136502,0.01445799997682373,-0.006861053395009245,0.01034768130162383,0.03299297899586114,0.02024724588738311,0.03257108088683696,0.03080321294402146,0.02358600401217276,0.008878082629420511,0.01590318891976815,-0.01280788434165076,-0.02217247810290024,-0.01907068428525625,-0.01437666150735568,-0.02157186715130438,-0.0118304829271197,-0.007217865396320748,0.01387320227222961,0.0106798323372674,0.01794212820709108,0.01266692024273415,0.01842530370131022,0.03517955838563459,0.04504140791576196,-0.006010118142464486,-0.0005462019543810888,0.01719424952455666,-0.006539602073951908,-0.01445028682591199,-0.01933184957306913,-0.01018625272368733,0.003725579521691948,-0.003761873987575546,0.008493096373532794,0.0211833894821738,0.03548498886451785,0.0255791394106738,0.01016253566166092,0.008371536143065187,0.02830937360951621,0.01793267331906171,0.007192992104524719,-0.001102580331453702,-0.01475778343921574,-0.03044889450033853,-0.02069980421232161,-0.01000923086359998,-0.003436886921261495,0.003778874653041486,0.04063755913891676,0.005714232308748649,0.01168339496140913,-0.004697736255386032,0.003711620030721316,0.02554784021795121,-0.001639679099601181,-0.03546417855357876,-0.04172682421145336,-0.05602933567676763,-0.06370440100660886,-0.01967762882785761,-0.01557243536534584,0.00047455132022709,-0.01807989928199327,0.01316028198830946,-0.007273231166179389,-0.004660736819228823,0.01442396898369923,0.03320683702473921,0.02949098034322722,0.02265018363335956,0.004470218975224608,-0.03520525696476487,-0.02864130783302797,-0.004710607971097367,-0.01877162404316953,0.02420391392232398,0.01395107088242271,-0.000807717118808471,-0.02350408260377431,0.001133849424801951,-0.007979180271277106,-0.01934348762862307,0.008810837046858555,0.01712900165132114,0.01186534547894619,0.02170115817025273,-0.01582398068631068,-0.0379842253428601,0.01602226946191008,0.03067698066711621,0.02031357740608808,0.02010061214415592,0.001750043013116312,-0.007836997771810197,0.007803509884179744,-0.008423607825063278,-0.005406197887460014,0.001031995287713493,-0.01283937090209121,-0.005722764358155268,-0.01969745891357606,0.01699752229301784,0.01745366149700863,0.02050406853765005,0.01897150875467566,0.02763666124885743,0.01309791897399508,0.02498799697181075,0.03128430900578588,-0.007865913948882343,0.01570374467904247,0.001169487688495485,-0.02136435254338173,-0.01269402099736822,0.001193036672453564,0.01628212233013619,0.01195028895804806,0.003689107604662746,0.005986633771451915,0.02667172752931353,0.03616494216263955,-0.008232688528276456,-0.005164751486374359,0.01996328110110011,0.01318640408916387,0.003187883515445605,0.006966085300764834,-0.01713394102512067,-0.008251749927498511,-0.0246825582716034,0.001548470089947561,-0.007084926577490836,-0.004307818029398111,0.0003437254024605851,0.02309541287646464,0.04250228537511307,0.03257169417307838,-0.005274142028400203,-0.01413174489951093,0.00593785732620808,-0.008644525424434767,0.02635541742071776,0.01071465774368614,-0.007329523342031279,0.001392879201213885,-0.0286043622992861,-0.01962263712487194,-0.01457587200544826,0.00712322862042021,-0.003750811790589996,0.0133975860128284,0.01904914967326644,0.01138950876635242,-0.02156272229285748,-0.005039922234996691,0.01094556702785275,0.0190007187965336,0.01059637684509536,0.01370691950527028,-0.01239600857515221,-0.01158593750276463,-0.01756056936863111,-0.01999203511824684,-0.03297140374461023,-0.01044857280814068,-0.01068262259242525,-0.003179488554710184,-0.01619443857778909,-0.0115571989951281,-0.03903161650213763,0.00575448797475881,0.03334940008243099,0.02743399607768956,0.0140016429529466,-0.01684754921039554,-0.01056458651705212,-0.009732200002058536,-0.001986993067082741,0.06077566256922178,-0.07894932150116914,0.02504780010132611,-0.06458055699124615,0.06806079210218022,-0.08034914498427473,-0.008699950378566614,0.05103963493887716,0.03331269946773713,-0.01321332870802668,0.02198337118994801,-0.08709448306381987,0.01952796936016263,0.02786178736700107,0.01115771750373741,0.03449494558374483,-0.0431788735871304,0.01221532032665375,-0.04865974863077204,-0.08375116781033023,0.1583308513746101,-0.07998363939961328,0.08478904400239093,-0.05434716877982288,0.1195216389208564,-0.08531185097367655,-0.1107953427109766,0.006651665271952192,-0.0630275304057893,0.04549379394855749,0.01284198458601717,0.01923513004972351,0.124997642925144,0.005737975468824682,0.04241743694403368,-0.01740342811133804,-0.003244213970127309,-0.04778829455314111,-0.03625860275985181,-0.1188192609594533,-0.05488636399919441,0.02292904410215461,-0.04697916521627694,-0.06355846576196382,0.04478310979599435,-0.0008532247077841403,0.0173975919429362,-0.06321560163869769,0.03548518830759839,-0.0006770360621987475,0.2085257523980084,0.04101021511584881,-0.1558280546844545,-0.05770364272311206,0.07040142554067094,-0.06203358961691459,-0.05593968253591353,-0.04748819510661585,-0.06140635501934098,0.04932152499396901,0.02990862981106793,-0.009495690918757193,0.03733037517263002,0.03120026271080508,0.02343333327618802,-0.07041258246142014,-0.07111274281738486,0.01295206271451727,-0.02464314635186822,0.0989617803922155,-0.03605034902780015,0.04552725119808314,-0.04301013017423487,-0.03409532598093185,0.08672241916584511,-0.0301215070411929,-0.03539691655052864,0.03008602029377504,0.146573547066857,0.0505361580597068,-0.03184875666836021,-0.02127405865970063,-0.06741612925528702,-0.02077234110313957,-0.02065459041396958,-0.01429289640954891,-0.03463332430806531,0,-0.0125235950191116,-0.02633387186466834,0.07903056311569361,-0.0537889617827475,0.02622649810625849,-0.02253199349705412,-0.001487887820701764,0.08050236236468689,-0.01986696525845789,-0.01995323554487948,-0.0347195507924442,-0.0178157904105384,-0.01318679861577059,-0.005088936770230442,-0.006496898355133289,-0.009597754872408553,0.0917893790452933,-0.02281019294976574,0.05585565583230149,-0.02015417473148651,0.0740569646226895,-0.02372620433453161,-0.02270626146074484,-0.01977108324054827,0.1247887178998319,-0.001399638030067438,-0.01121706031162167,0.09963285587567543,-0.03353279108217926,0.0777244160717195,-0.04949238875553957,-0.03505334265790006,-0.01102246026496739,-0.02794708903586577,-0.01923765406064515,-0.02145495411800418,-0.0566345857070328,-0.01025235762759457,-0.005679106595001693,-0.01081408297074834,-0.009126712893747217,-0.01177495761641821,0.05396279769126169,-0.008855597926875253,-0.02472345548797689,0.05236179971408361,0.100269576964442,-0.02257942398579416,-0.02471801162139316,-0.01362092317184,0.05584425831199276,-0.001790448215693985,-0.006643440584870085,-0.01214144955005087,-0.03225998913384433,0.0909885050613131,-0.06161024345217701,-0.02838807015215857,-0.005018576456428022,-0.02126769209203297,-0.02180389008616059,-0.02148267676228909,-0.02113980777704316,-0.002652777943908935,-0.006611382679274858,-0.01198202355257201,-0.01055316726318562,-0.02455200280658079,-0.127308547091974,-0.06040926568870866,0.003323870266424961,-0.001004806142487013,-0.08492008567082208,0.03478155537886643,-0.02020394425035814,0.01557646327703525,-0.04692636845924571,0.06522899567002806,0.09323722725489081,0.1020429749312217,0.01911430631666345,-0.04076129081005808,-0.1238296985050266,-0.01921135593003973,-0.01434371524389016,-0.03380225532577671,-0.01369630901950452,0.0926452513708514,-0.07726471520083791,0.09858778813131894,-0.07305201171100509,-0.03338228218940683,-0.03643522755744717,0.00700762987635819,0.03319122738564996,-0.02662452358287189,-0.02615837181932079,-0.01593416515461781,-0.05730606955509533,0.09911273374519865,-0.03782544334663751,-0.01873067916799646,0.07490224259152427,0,-0.01526784702958483,-0.02598840426435343,0.05208334047023003,-0.05560731959045655,-0.04481749302250151,-0.02144311868098569,-0.002546759019302591,-0.03050035356468454,0.06354096240349121,0.08507168499235157,0.09546997381296382,-0.004582190092646979,-0.005132057780392415,-0.01437359239218203,-0.002784843033796311,-0.01850899890431547,-0.05941890508954906,-0.0223042110817406,-0.02946799697655092,0.0563205361289993,-0.06569730933983514,-0.0209167218388197,0.05745875940788602,-0.01728565533150308,0.00150953170759315,-0.008196486222733475,-0.01800855525757081,-0.02898894273177011,-0.0200100192533757,0.1809189666236207,0.04816286838916655,-0.0226813081634791,-0.006495469741950299,-0.02145063803772775,-0.02515444538262407,-0.03649175831365128,0.07017357645849447,-0.01230696680962807,-0.004260499899440292,-0.01111028916219475,-0.01837300769839521,-0.02776683075672966,-0.03816036796976908,-0.02220745265392434,0.07584367585272327,-0.009763764650843056,-0.06363018044855404,-0.0141592957652075,0.08912426933689664,-0.03157618260608441,-0.0168549934267252,0,-0.01393412832234884,-0.01144134055183213,-0.03177359105439294,-0.03983616099824634,-0.03099327606664778,0.1295404767811985,-0.009071446282614932,-0.02407348136225977,0.1012457315081715,0.05104494152925648,-0.03733545262466979,-0.007911945775282522,-0.01530606902707949,-0.01364917083688113,-0.01148719705416703,-0.02430311021857693,-0.07985920026503697,0.0001810851024986283,0.005585537376621633,0.05353398943774235,-0.1059469482277313,0.06855005477347802,0.01416580181524785,0.04326391274785935,0.009705155137741547,-0.007222516540299747,0.1044047480356532,0.1150731976015353,0.008702930180889079,0.02452959330811574,-0.03854107174491427,-0.0598385725220161,-0.02150043084003607,0.0941248341897587,-0.04826864673168989,0.1175813786257032,0.01086114754725602,0.062442756160735,-0.02835954076521233,0.1242110692544686,-0.02892205400427281,0.06634209632079403,-0.004331485931406234,-0.007213643302090533,-0.001393498629142936,-0.005895560720796312,0.07093204663877321,-0.00137170071409897,-0.001561778729457892,0,-0.002933080900162982,-0.007194032036089675,-0.002219006442378072,-0.004365704303617247,-0.004168137218526353,-0.01089686176551235,0.08283516932016802,-0.005186894779513837,0,-0.002787120029714582,0,-0.001357035994130295,-0.008126640298132171,0,-0.0001243491009390947,0,-0.004319092937970336,-0.002215409192502147,0.07046694733270738,-0.01925869297552503,0.1066569085821254,-0.01229779823062513,0.02189038493706162,-0.0141929707283198,-0.03807133186054076,-0.01772994873587274,-0.04011940998712859,-0.002343198853651722,-0.03295082166094362,-0.02729776245571101,-0.01503253722352588,-0.03925973728521338,0.0431766080829025,-0.0258231469296431,-0.008849851234653856,0.06769375778281246,-0.01800046280440649,-0.01884960694773641,-0.04365488495038166,-0.01141818523548064,-0.004900470675347419,-0.00679689747113722,-0.005995629514958559,-0.01920101548580426,0.08686427464800502,0.113887127286175,0.06466302924048653,-0.03136333122824182,-0.0568151241402475,-0.03554838292778683,0.03167134268540172,-0.03671671638417997,0.06690288227807072,-0.00569488368682176,-0.03155803631127876,0.06204453939964847,-0.04331854845200774,-0.07492657045740066,-0.001686004596804094,0.04790906630386997,-0.01281405831122427,-0.0592307893819737,0.05133255942468096,-0.03347270125626432,0.08266002891412284,-0.01228518394945997,0.04822829731240143,-0.02169147073266195,0.07344837108689634,0.05562060591801481,-0.0613680225042131,-0.01707466894105982,-0.02685027674064753,-0.01374986947226133,0.008780769684710078,-0.02088491580602267,-0.02815201584713648,-0.01237712669530559,-0.04706262022894357,0,-0.02258199027250941,-0.03015187441186716,0.01481916175493427,-0.05848340229744012,0.08409594328971214,-0.03007423110246369,-0.00797394413460145,0.06458775137898157,-0.0220294866744406,-0.03511627627693946,0.06695212191728378,-0.01819743664580685,-0.0122230586315779,-0.01127132642510035,0.06650542490508385,-0.02474765271288631,0.06120921794010212,-0.03993765983925052,-0.04994505985851579,-0.04312151802001418,0.06139310841985581,-0.03043510097723349,-0.03346273074620163,-0.02283185593268348,0.1894098828879938,-0.007064193374275198,0.04868543979607327,0.02498241374850281,-0.04936689640725912,-0.02702548852907236,0.06432424079475342,-0.06479383442186254,-0.01174137660676168,0.0226287224897915,-0.03235137548205298,-0.03692788836942509,0.05056569686133323,-0.02406583164759954,-0.02281561582882969,-0.01533336766176501,-0.0106741992644949,-0.02803983616620154,-0.1218900773811431,0.01892491196001211,0.07693719771443171,0.06693845825284622,-0.05228682660298548,0.07577767632884995,0.01135562054699485,0.03504757104417239,0.03513834240252983,-0.01442942980915171,-0.0414680525621124,0.0488652707352684,-0.06752623416024295,-0.01586125562143959,-0.05494516660636435,0.02614361000188624,-0.01558251778045466,0.09653288842785868,-0.04916248165371862,-0.04801222526219825,-0.0978953598885018,-0.02140338692041818,0.05661129508127036,-0.0120120655921299,-0.04524259846238472,-0.02647961445749838,0.02707954612141009,-0.01244751731816491,-0.02014670443362326,-0.02694258628903505,-0.05176018252010917,-0.01934354124313997,-0.02154519589144483,-0.02342676622314308,-0.04394461495467247,-0.002368530060278509,-0.01818022792662084,-0.01973053107485275,0.1994190054376739,-0.05050383342396889,0.001109859767122544,0.01851764942971273,-0.008957454860022031,-0.03499143373240569,-0.02704388820119682,-0.02369325490853056,-0.04425749288645894,-0.007982511849147498,-0.01020833112647503,0.09987054249950514,-0.01656085473096829,-0.02833431989146466,-0.02248476660788843,-0.01234077860516321,-0.00492794636503152,-0.008331489950032602,0.0258382929790901,-0.004929336898108668,-0.0190055761061243,-0.002514159522013734,-0.03068730131533514,0,-0.005174434584945401,-0.01221055403543733,-0.01244225069800932,0.09606232548018455,-0.01949510613707434,-0.006900671024602712,-0.004092295953329327,-0.01019530368251871,0.09088241220451737,-0.009578719701776438,-0.01739715070866517,0,-0.003569632979149035,-0.003075146096282121,-0.005251688085169217,-0.003973311191977092,0.07468506644172003,0.0577787438983003,-0.02168024009325718,-0.02363221400426194,0.09595974099400009,-0.02630842039651884,0.06574135841618141,-0.01813803685263483,-0.06310989854884361,-0.001667364063409163,-0.02494569208667135,-0.03778533159978863,-0.04422205086764508,-0.06296546484724098,0.07732331479398152,0.09529803509165666,-0.006673264810056872,0.01941819521560988,-0.03217276931179135,0.05164960432053219,0.02473561503699539,-0.00887516203715096,-0.02329104896718977,-0.006429524981600442,-0.01172364076003547,-0.03484632498315851,-0.04599076238189628,-0.01623111879437698,-0.02432039173465245,-0.01477702900342192,0.07315644735349319,-0.009895388753547505,-0.01896477729510659,-0.01570989039815289,0.1037733055434341,0,-0.0183570475035301,-0.02925990653724823,-0.0193339319326744,0.1132187940001695,-0.04738441758726883,-0.01115857473787249,-0.0006022976217291562,-0.02150903401514321,0.06275548962811722,-0.02215183492863153,0.1083169030181684,-0.01497183494974061,-0.0162770152290247,-0.002257103166005376,-0.00201052796069945,-0.01067950620566328,0.1032621377758111,-0.04337810281612723,0.1024353146616975,-0.02283411552588738,0.02832051872886468,-0.01494521711300623,-0.02582490114083671,0.07185284712857347,0.05401402347633604,-0.002507984490106653,-0.02077043209030171,-0.03619007950974726,-0.02167346926380827,0.1011655530296434,-0.05936129923517668,-0.03549138436447281,-0.006339983736983828,0.04508821420426157,0.09194726908372271,0.03392381839600666,-0.04623709249901246,-0.008596710431024132,-0.01838141887558252,-0.0109917003535067,-0.008007710465380811,-0.02002929365465835,-0.06681732496994242,0.0499146121661663,-0.03768301311264299,0.03690866376575989,-0.09551628920684686,0.07243294781656613,-0.04608001580506101,-0.01859594830370694,-0.05702132568947602,0.08884730403579848,-0.03593347969435706,-0.03781504134921488,-0.04782833645915559,0.0519636429184515,0.05328734919896445,-0.03482041859619972,0.1896932891511166,-0.02606160389957604,-0.03551853077088597,-0.03776834777193804,-0.1038142572147145,0.07487858325731067,-0.01489054054366258,-0.00381270563400911,-0.01423151626680632,-0.03031844242261116,-0.03641391017599252,-0.01220942533109465,-0.01370983177118184,-0.008018317238415723,0.03225864166806207,-0.01615157769914156,-0.01269719718447546,-0.009154131339259582,0.04316918981128949,0,-0.008305432213301524,-0.01799126384278848,-0.004377522246424591,0.05483407247405649,0.0539662780530935,-0.01434791880058396,-0.00312899739668134,-0.0149970305502821,-0.01553200994863715,-0.01239229625673901,0.04563390391010787,0.1208905101658723,-0.001559078196084003,-0.00421465040145448,-0.003068460877170334,-0.007514576726485127,-0.04707693499895201,-0.009431593586688469,-0.008786946040072385,-0.01255006200819007,-0.03827072093568078,-0.00940614049922639,-0.005499471883613809,-0.003121490584012078,-0.01436858866225773,-8.510643380752717e-05,-0.006816403416546934,-0.02807583637981517,-0.0288302635878283,0.04804402461931431,0.1023421135926348,-0.01394672419228242,-0.002203760659939848,-0.01737532717766699,-0.01739604111519462,-0.01366157592118857,-0.02198504774614505,-0.00142813220108731,-0.01686919062621164,-0.004836250703377812,0,-0.008335448258585114,0.1228683472097457,-0.01420414913076077,-0.01321303660131239,-0.01935483358502321,0.1044684381290792,-0.007204902029674594,-0.00724136416819778,-0.003109330119037306,-0.02470276250069174,0,-0.001917116679500694,-0.002845416007373442,-0.001864165639742248,-0.01711973077864024,-0.01460500045933856,-0.006723718183227032,0,-0.006495819199108963,-0.004814706374954396,-0.005135772267893013,-0.0178674181087029,-0.009197184371764656,-0.00481709665422762,-0.01280376705832087,-0.002957379250048193,-0.01381906144353962,-0.06952801889846021,-0.01190639255472794,-0.02294968122879449,-0.01850561506561635,-0.06200585295672902,-0.004105171276225419,-0.008541255106517945,0.1144774855595701,-0.02681365142984872,-0.001565423227793498,-0.01001227766810081,0.2197684705750497,-0.0215550061679911,-0.06899386655063143,-0.04279927416908207,-0.014065947140431,-0.003366514690565962,-0.01804654358450769,-0.01230954579317667,0.07666182384436775,-0.0184094545381182,-0.00890246200771177,-0.01063737704790956,-0.00346991534894193,-0.01668010952696874,-0.0146225037820768,-0.04279793016839199,-0.01169020415296609,-0.01578118609618458,-0.01556701190042015,-0.05960053853105214,-0.00663435848113015,-0.01089430600866789,-0.00620483695146426,0.1558073470505851,-0.0007550914068185078,-0.01180488198996327,-0.02619254093682761,-0.03632935047414298,-0.0330614242557394,-0.04605742899514769,-0.01268694325476105,-0.003231377288047105,-0.02890998068839101,-0.005359176175132633,-0.009054735858185857,0.1487125876693693,-0.001657330702941022,-0.01007738371575838,-0.0129109132021514,-0.001542556737342877,0.1876064111582679
