-0.01868519371209189,-0.02359819287008204,-0.04753966719660602,-0.02786472863103689,-0.06028937698074315,-0.05526328843207958,-0.01386160561315319,0.05498055541261712,0.09156102734993657,0.07938556224808423,0.02839309600461588,0.01402183604989154,0.01490972037510463,0.002580688426693623,0.01857387882659096,-0.021739446951752,-0.01327262690174055,0.022861620065787,0.01830404511579932,0.01188400254235622,0.02703584719115088,0.02061726088572041,0.006001794515655886,-0.03148678048529994,-0.01941386926105414,0.01036366750099386,0.02316342755415373,-0.0105920530934968,-0.01895738889511355,0.0003895870120844577,0.004360546468068536,-0.0004542491902735141,0.02513417073176755,0.03423979467490008,0.01083343446995388,0.01001241004106361,0.006329605100984798,0.04916921347771802,0.03163993903041683,0.01561061914188077,-0.01904300646263881,0.02621129618636961,-0.01718352455850878,-0.02354903126760096,0.003533509399893231,0.002309146561634225,-0.005298904442303808,-0.04082705084969394,0.03241600556954196,0.01957748133604605,0.03622338406099114,0.03124924047387933,0.04968308351469597,0.0360529937255805,0.02567475809210003,0.002882444973905541,0.04065735783703922,-0.002267979484757736,3.57072399792836e-05,-0.01579476836853181,-0.01551275994349943,-0.03908597822537094,-0.004900577469517501,-0.05861744154721186,0.01787996837845005,0.007964602160250923,0.03894541161875396,0.03575436343969084,0.0413569436951856,0.02132589409794259,0.01112845258825202,0.04076718655717024,0.05634273252685332,0.06353969275375344,0.01512651125768879,-0.01847836256622542,-0.02912595717323756,-0.03088260765549606,-0.06782847802287172,-0.05651663699301063,-0.0004844162775314371,0.01765912549775255,0.02002043344801714,0.024754344809655,0.004505195159585466,0.01913422282907727,0.005622877239612565,0.0433522846587588,0.06845596544133535,0.0763409721327339,0.02855229725372026,0.004881232119134529,0.0001999089902450119,-0.01597723276586571,-0.03558062358378277,-0.03740574050084063,0.01983771854646129,0.02735881676864221,0.007991016679798528,-0.003011926292703785,0.01434519355577915,0.004295664766298002,0.00728926623810163,0.05044702047470973,0.07602990194070376,0.07173116062429472,0.05017940519806055,0.02421142340437079,0.004706093125873872,-0.007609260309215913,-0.01342776393199633,0.01816119666848574,0.008252353348386997,0.02666979985011218,0.01147388717486589,0.005193977590882292,0.005197747825281289,-0.01821316731301583,0.0100005219571267,0.01499679632965907,0.01229764340840581,0.04219354934250455,0.07211283612153772,0.06905837553956327,0.05702371957663754,0.03380264209628357,0.01355299617326309,-0.01770824471503836,-0.2859562430058172,-0.0143232003522118,-0.005962507627392692,0.01387032655790711,0.01925571415717461,0.008189803613410413,0.00557804866385987,-0.01253098209131858,-0.007460563252756934,-0.00845557975742323,-0.01873115851148241,-0.0002181095285484854,0.01427376387564537,0.01076520833798124,0.02815701048541669,0.05416370576280669,0.02168237564418087,0.00621165227145807,-0.007448016053285841,-0.009612446068282847,-0.03195234790005071,-0.003249042744732139,-0.02983029414353417,0.02225239416355521,0.009381731813773211,0.01151595550327199,0.01839483571530218,0.02540699294924785,0.03967318338477362,0.03889161000075353,0.05533920694823212,0.02034992145221371,0.06639676270566186,-0.01739764374777838,-0.02974532682001367,-0.04054785895788526,-0.01482131824316437,0.002266582937368909,-0.006969261698268728,0.01817094634795932,-0.010582142858354,0.02317912402906916,0.0312085687239382,0.03213661122655041,0.03758840953494019,0.0389721276287473,0.05957604269522103,0.05320880504942868,0.05429947161862873,-0.0494193724354852,-0.02041443705013405,-0.06108669656839447,-0.02254138799985684,-0.0248582138064113,-0.02032674268174618,0.0123220088403133,0.01899027930629987,0.02346230200783963,0.03264497799444345,0.03395008022536428,0.05354562522945071,0.05441460113478309,0.04688745584930287,0.04356715999673422,0.09328085115023206,-0.03312215029345975,-0.01547025596904108,-0.02643299066481287,-0.04210288897779815,-0.05141091558325288,-0.02376569110825704,-0.0003151702027502965,-0.009785120351248917,0.00547181818843775,0.01369639506722846,-0.0241136558622662,0.01271570449246919,0.05452912162621702,0.03817912507596432,0.06033972878722835,0.09921141645460389,-0.07989620846430315,-0.03164850121304445,-0.0397844852234258,-0.01967745287835512,-0.04874794942422513,-0.001765319213682465,-0.001432094683371424,-0.00652551289223653,-0.001397915714933029,0.01532059472922963,0.014157565270452,0.03647573009597648,0.0241864010486019,0.04990845952884307,0.02797088928778518,0.0493678406212807,-0.07131101622305795,-0.02130229773007041,-0.04978010777602426,-0.008711814247998039,-0.02409934596816727,-0.03032028663273335,-0.0473242267162478,-0.01786763825910392,0.007764647542634986,0.01031906352614189,0.05550997804379774,0.05121608547287387,0.03868871027260857,0.03795872256905927,0.04182265008342114,0.00112616945940324,-0.04414837119792879,-0.01400109739840359,0.007836369917896657,-0.02539147939705661,-0.07341447010305346,-0.1063309975808236,-0.09744173222936849,-0.00862268307544216,0.06329781379684468,0.08414013423912953,0.09840305327598617,0.08225353217698664,0.05136934885337743,0.04573872035754152,0.005888453415377527,-0.04707453370919137,-0.2226382861096832,-0.02077846506686492,-0.03682411373546414,-0.05268472244179523,-0.0463646216703243,-0.04888503926967633,-0.05145352330909986,-0.003973178388114809,0.05091414510207667,0.1072550854047515,0.1098544871359632,0.06330164818883109,-0.001107695220549221,-0.01481512895330863,-0.02463266170254492,-0.02407854473688266,-0.02643485779132551,-0.01938199865602435,-0.008336061333608135,-0.04001508163335781,-0.01786953578227648,-0.01655795990701249,-0.004425427725346978,-0.03744379372917898,-0.02974709865675326,0.007324986562110903,0.0342232173055703,0.0002396495224143521,-0.00294629292845182,0.0005315684780375814,-0.008364095545680831,0.0185252959562828,-0.02264314518406019,-0.02196995984986181,-0.003526415969971675,-0.01673302598368607,-0.00578479970054795,-0.004945350877917909,0.004880411288830797,-0.0148500692292178,-0.07024202259908136,-0.0947601505960273,-0.01557922814599737,0.01386445788899116,0.01465042801372406,0.006943547482037104,-0.001310370041556229,0.008124128097924621,0.01950760711215075,-0.005783660875031984,-0.002118591460178154,0.02796941091058797,0.00168685305145513,0.03178889320354728,0.03169926382183439,-0.04183088188643466,-0.09786786703745226,-0.1084624486477644,-0.03102140585880767,0.00710675786288583,0.01197135982387213,0.01786712964851175,0.03841398192720948,0.01729576033333928,-0.003140598731305795,0.02570011539433675,0.02142243189228196,0.004151973484032301,0.02263910760850055,0.0080617861393981,0.0100091637138766,-0.03648548692020461,-0.03984049338077057,-0.1030011741522033,-0.06669024629688483,0.009038275967471893,0.01017833760930493,0.02035689968161238,0.03884525502012302,0.04120822400338302,0.04501758963905407,0.01430692170903794,0.0221905013084147,0.02015292999326136,0.009337383814277699,0.003678081375357568,0.0004689468084983421,-0.03727925842134333,-0.02292632414393849,-0.08366046720638025,-0.024829846239506,-0.02106997855107973,-0.01102275833423825,0.02421183516993664,0.007281297148069221,0.009460509490731451,0.05377121023725064,0.01475168816379244,1.135854270888328e-05,0.002699836528943212,0.01154866238883065,-0.01602556938421182,-0.02706932457772086,-0.01695636786200269,-0.02236883884132763,-0.05180763818529963,-0.02534315493830921,0.006807734394705432,-0.00747258124144983,-0.01058358585905224,0.01991695539398475,-0.001853085896836268,0.05495682555758535,-0.03785412634243892,-0.01696583327059046,0.006289509836290687,-0.01465694460356437,-0.0006334699344602862,0.004275133205222533,-0.03266349741757758,-0.08486792498200121,-0.05510497955898735,-0.002064601050159132,-0.02498609872127789,-0.01915472272094204,-0.04424463102075952,0.01619187043424694,-0.01176666245205467,0.002419706467602548,0.1752215152095359,-0.01408395336701022,-0.01483302594218488,0.002269337639424364,-0.03929453707247837,-0.05351793084059615,-0.05229044813558497,-0.07049954162838469,-0.07438504901194726,-0.01290217743211522,0.01289474832288011,0.02825197849731439,0.0388644400750851,0.04892880510659794,0.03156124584470148,0.03225651737708719,0.02572748686093852,-0.01927458181447562,-0.04463149401677061,-0.009971233728671518,-0.0282552348278197,-0.03831683428652695,-0.03621053250441488,-0.01666863918302526,-0.02589207206794544,0.004322651130768985,0.0270242754149931,0.005143250285421509,0.03663899274601698,0.0393036731252062,0.05114111341956955,0.03190019497628901,0.02668220688710136,-0.03539121234054646,-0.006037160426198522,-0.008148071545317895,-0.0138761774434394,-0.02214378197454259,-0.03004844024630803,-0.0238091298487621,-0.02202210164044301,0.01292917705935184,0.01388175348116617,-0.01437213969714843,0.01822657474220243,0.0141336817011803,0.03959180762645275,0.04563543913418996,0.06291531498382527,-0.03602247036011349,-0.02921491198644435,0.002854896363810335,-0.01262544698534141,-0.007748941799757433,-0.04153726329628499,-0.004123737298448064,-0.007051599534917935,-0.001423881884341714,0.006840937803962951,0.01242213954128818,0.01034377829700343,0.04806740189067861,0.01725493658553121,0.04330458796302424,0.05593944292358128,-0.02250646884590238,-0.02144735910997815,-0.009259109130259754,-0.01682632597849671,-0.01643817393931582,-0.01063514339852983,0.03006403147048109,0.0009017232242314951,0.0344766557358026,0.02252261269739454,0.0470216471339947,0.04927990861695649,0.01035579182892404,0.02969753298946201,0.02903544539151455,0.04538425335843416,-0.02035314845689993,-0.001819689205647812,-0.008322330204754612,-0.02154684514456508,0.00377929624501909,0.0005750092254605846,0.00610946502892247,0.02155004345323691,0.02308263063814258,0.02644733125576441,0.03234220565806532,0.06570747762431094,0.03438564272698363,0.04759933839525852,0.0205383069517037,0.00895722218173514,-0.01276329620156189,-0.04103021922176445,-0.009012372116677081,-0.02311102217115253,-0.01437963198843717,0.02904231487415979,0.01071233175951238,0.006703206698308378,-0.0009235027050804073,0.03449416373784583,0.04227707072593748,0.02927731408056633,0.04642071822282739,0.02396935656703582,0.03677730615074509,0.02406421123947591,-0.01022125865657341,0.002070655584529378,-0.04780727100531847,-0.03607236399376566,0.00441429588957966,0.0110424293159798,0.02268235452004349,0.03021024673219747,0.0209482349018589,0.02441528247123598,0.02224095744364608,0.007983694193150708,0.0413379364736104,0.04329943352564772,0.04851767427062107,0.03747495199067948,-0.1285107371279803,-0.05533602599360076,-0.03332066950911104,-0.02146420145076722,-0.03626860879114675,-0.01691855526789468,0.02451377997178378,0.05408471219624129,0.09922645880707608,0.1011248446708315,0.08359509971096293,0.01990935833741343,-0.01644721996157034,-0.03518685614059188,-0.03240574406469925,-0.03331165611531132,-0.04124924210918042,-0.01955680736654117,-0.002656329478199931,0.01266959513402242,0.01483980781912697,0.02136229558854219,0.04261670070175284,0.05165897219776863,0.0621147110254279,0.06532486233355128,0.0541208772130692,0.004313618235361955,-0.008375727137569533,0.007353584556288991,-0.01119302657931048,0.01776478389004588,-0.02473923348929903,-0.01613862162762206,-0.02053822396316736,0.005100538754151032,0.02880831498590762,0.01088708977628237,0.0401929849995593,0.03643935766379208,0.04251014861138473,0.03859366052998481,0.02656162759024348,0.02076337477158844,-0.001931484160279934,0.0089885389162019,0.000154089022383612,0.02008883758502542,-0.006986662906163819,-0.00777796393246798,0.02103471780057158,0.02740866580558777,0.02497768373566906,0.03019045916092735,0.02467187499372812,0.02855552657444651,0.01057720989600661,0.01097323268222643,-0.03916551017758904,0.01399999897391139,0.04976571029539374,0.01810159518991611,0.02558260943619962,0.02485260190403801,0.0271277247009096,-0.006488486182372616,0.00533936986976941,0.01153035567494735,0.0330443287451595,0.02615346720695114,0.02475532431522427,0.01942777909051674,0.02587154665478615,0.001797445846997036,-0.05162256599152108,0.009325774200508794,0.01715863310415172,0.02426188607300904,0.04118740340483856,0.01662026818626655,0.03801545419084117,0.005317084151134298,-0.00565133581619935,0.01280727953827645,0.02708657034953868,0.01414544785128379,0.01589341260092366,0.009941324225792065,0.01410484530181545,0.002983007552090489,-0.06543603719305596,-0.01620895251636274,-0.002247585929202666,0.003737757213041928,0.02410291888118472,0.04006156809789245,0.04715311092460085,0.01232570206278183,0.001389765284313203,0.01834933850497523,-0.001710246337014328,0.01861428336777748,0.01011273521751112,0.02037464390138353,0.03162234101518078,-0.0556760805777636,-0.02571020706344392,-0.01079268052826541,-0.001171468637811943,-0.01052514678600989,0.009476109821070269,0.02124310992651006,0.0382202764959597,0.02027039150362021,-0.009360194452474215,0.009840861264108965,0.03841893570515015,0.02889378533356972,0.02792451106458661,0.03136303185775581,-0.05776200287021962,-0.06267136807463559,-0.01330179547427833,-0.008095742036753444,-0.01214202041245604,-0.003317607627203672,-0.01499849190192143,0.002004332078176657,0.04780362232405455,-0.2034681891951812,-0.03208935804350699,-0.00418749461818182,-0.005892791113200719,0.01445568584137964,-0.01009214674333119,0.01186195225439845,0.004462434950039938,-0.01686144375913515,0.04639008470929629,0.00613861774787774,-0.01101115177003744,-0.01731706225113247,-0.03160744478309132,-0.05536448343453608,-0.07120056446892323,-0.06953447732975854,0.01398344215297181,0.007351907419357762,-0.003018441802568271,-0.002595837965557018,0.002685938476837066,-0.007271120864075297,-0.007217953048402481,0.02833922097530008,0.0425098087871894,0.02538910221594285,0.02063596588639854,-0.005481037988190522,-0.03408911755203407,-0.06516820250592835,-0.04995950986636281,-0.03825744355601659,0.02175724845754532,0.03706118240354034,0.01842050293680855,0.01628116989748148,0.002411365247857291,-0.009704156794683796,0.02377834626350224,0.03559917839125083,0.020578252494377,0.02011526790949721,0.02785989660335542,0.00457336280784994,-0.01734066419114591,-0.06315355719052737,-0.04062699168097166,-0.03587130154839675,0.06237290865848259,0.01835977026634716,0.04089779323739218,0.04502086517579997,0.01783514241834005,-0.02476161602354927,0.0107258717058849,0.0267648522247647,0.02303113064528969,0.02054691134034879,0.007024743946332598,0.02523509578045526,-0.001227491860787479,-0.0111204733154673,-0.02751545414279004,-0.04497549848851114,0.09797032998796923,0.05080540360284806,0.03462640433031975,0.03371388917909894,0.01988844462992284,-0.01790594234279467,-0.01384467070710211,0.01424574735413454,0.006471418878235016,0.02756642354863228,0.02601228586206792,-0.013522361049386,-0.006205396392106411,-0.01380030661580775,0.006166815068846623,-0.0301682482566204,0.08098187397205882,0.06121747944409632,0.04207427410104109,0.01935075760154735,-0.02831190529164197,-0.06397965496371867,-0.04094644332107984,0.01274244279716985,0.01883036788690614,-0.0009865459316384132,0.002503282767782565,5.852149923908539e-05,-0.03270211942643684,-0.02200742387969408,-0.007478486770950557,-0.0484385101941666,0.07370320309391472,0.06852839520008019,0.07436154041717401,0.05283286914926769,0.02337807635240776,-0.05747470011839782,-0.03819870135148459,-0.04652407842956185,-0.01747491244173182,-0.0279832068097823,-0.02712756869374559,-0.02502122783517343,-0.04250040505717094,-0.03407116463922041,-0.03112052338258522,-0.05637885493176119,0.06182521912399521,0.08999020224856075,0.05678712087590067,0.05867536231654556,0.01916419802757974,0.003773216865572006,-0.04174599744260602,-0.02093304058069631,-0.03190971230703992,-0.05892985184521001,-0.04537746960390142,-0.04414154359608918,-0.03544641347801421,-0.04024010078246439,-0.046125595384017,-0.0322294794446543,0.005783387201287773,-0.02733865496479185,0.008983706549180298,0.0009421045313290885,0.03141768803103101,0.02449877204632623,-0.01277976812122902,-0.01818787742470108,-0.07443604158679412,-0.04291360894682487,-0.02812233802563678,0.01018592367890319,0.008486320801191733,-0.02058341141017789,0.002159903841089639,0.01109969883607735,0.006275356537512778,-0.002906086130577803,0.02685076944734292,0.03911410376743013,0.006343517085691946,0.02621671319163097,0.03440198271746365,0.001484430710205134,-0.01852807846455701,-0.05425359733605505,-0.05709846766847188,-0.009294093602871518,-0.0008993964000377465,-0.006107784773847891,-0.004369207665714726,0.02602456033442452,-0.01251593482491911,0.02445130378609251,0.01759978021829088,0.03240915260063933,0.04719373080811524,0.03093354115870588,0.02091459978000534,-0.02588237739221914,-0.0253478397793896,0.00619728930621227,-0.0209508366898762,-0.008463384734572981,-0.02644217348075808,0.01041676010980534,-0.007269631603157664,-0.005101144208789157,0.02857473110577539,0.02746900053096624,0.02695516406439353,0.02633548127314348,0.05121357639931211,0.0251342581208164,0.01714806351866582,-0.00222007855226254,0.002089601051748336,-0.02377911497053399,0.006599774742942288,-0.03725001554753705,-0.007583584357052037,0.004011655595990558,0.008713809027697321,0.009727068879107074,0.03143456767327507,0.04407991135557163,0.0139089724536915,0.02229799547872711,0.02677454711281051,0.03888018337055428,0.02348064507081904,0.01333845904393068,-0.009504733359293596,-0.005741035901571045,0.02389020693133806,-0.007766637903387178,-0.01060848483184677,-0.00972561498951823,0.01132790861757197,0.0008794172435496509,0.03143670151090627,0.01547093356885231,0.01507823103651646,0.02519908681897788,0.0214934040797851,0.03957724097914248,0.02917860935299186,0.01944649977674561,-0.0014420722247185,0.0418165421025091,0.01708170170107977,0.004566826022910552,0.0104726740205463,-0.003206742561042909,-0.007386140013279707,-0.01511491690713831,-0.01643663990024037,0.03330398979231245,0.003019425961786739,0.0172337865155378,0.02744307555318474,-0.001504078853424476,0.03596060435272271,0.04791725593438557,0.02205656842479771,0.04324425883180912,0.0219040198764767,0.02159966544277123,0.001160291812075039,-0.008022777806599978,0.01076538659409887,-0.009892618480063073,-0.0106112443008772,0.01579796139862228,0.03406032904333619,0.01375723722134977,0.01561925734454139,0.008111893965550565,0.0228591361423792,0.02661941342436108,0.004280605689591844,0.03154091841155533,0.03597971735142644,0.02707199580920308,0.01580254129941932,0.01717776803278787,0.0217681710724523,0.0008532528807181738,0.003408238310449574,-0.07671619352187753,0.0303125619701709,0.0002276996660479287,0.01500219862767745,0.02065213881772595,0.01347533794038077,-0.01241735103490095,-0.009029881531420682,0.01816404978260443,-0.01089052904176521,-0.01307029292184583,-0.02526343093244882,-0.006134543628715431,0.02696587819182471,0.03905705824189162,0.04199912914433798,0.02410875356606266,0.01335714372534822,-0.002444116519586757,-0.009349237232459385,-0.02537451331878788,-0.01434169665604095,0.0004203715605897468,-0.0004025585277654194,-0.0008352520655568586,-0.002024501555187774,0.001619025176035354,0.02657446944119041,0.04355605730427144,0.04682586277972762,0.05029984209723339,0.01954254295472535,0.03305898790695672,-0.004473441292465753,0.001230510743569997,-0.01302999173754608,-0.04108656949168984,-0.01013287436945109,-0.02494411907228269,0.01494513571929824,0.005177482376473217,-0.004352118271192427,0.0313903158479921,0.0384383992875514,0.05670609087764837,0.02395592659000345,0.03110262441817745,0.04265970394010744,0.001080481573451836,-0.01233713866650613,-0.01006691013922495,-0.001232483230290284,-0.02106471863979919,-0.03950094253281214,-0.03771944697638328,-0.01778550975788746,0.01512940805558811,0.002071801583297035,0.003246645110651334,0.02233711483551779,0.006453676826173542,0.03011771323241494,0.02085334074975774,-0.01415336769061031,-0.08139540377814954,-0.008673877087020625,-0.02760511533224749,-0.02449718953636146,-0.03461647672069391,-0.03585754881535211,-0.03098414486738505,-0.03646172686884026,-0.005499357315891176,-0.004452908604916048,-0.01219862017161111,-0.001543943809805789,-0.001337072033410349,0.0008752492674352066,-0.06076075734861243,-0.07779710198755718,-0.09618416693407031,-0.009358732698707824,-0.008752389211194587,-0.02700951874148145,-0.05005505973580834,-0.03161302494997154,-0.04030737935609548,-0.01376444942686413,-0.013187839049358,-0.003308887498415345,0.01211544898777842,0.03493868169129395,0.03650194306967922,0.01395495599594739,0.02576279324748345,0.01263759666890749,0.04869431287951118,-0.03007749235667341,-0.0207267239251897,-0.01839719512582686,-0.03864958948680861,-0.05151561319991933,-0.05846517317352275,-0.01182362316133809,0.02731428596273838,0.02380386669396688,0.02711707602487767,0.04139270907950607,0.03593609393406227,0.02409388078945917,0.04164057597555467,0.02781722576583687,0.06775223215952154,0.01978015773497505,-0.003727104664597289,0.01005172380575546,-0.01914393499582661,-0.03052103154184863,-0.04379393963422389,-0.05771725169278571,-0.01556165774039913,0.01670051057136487,0.01278625264621597,0.0383208031307555,0.04163029614864946,0.05112372914308305,0.04938232588036474,0.03696886561809733,0.06940103284088267,0.04457285749004455,0.0159171906396843,0.01662173958659592,-0.008269276936633549,-0.02983273205861722,-0.0494521015748364,-0.1014716339206763,-0.05767154955158987,-0.04396600382411088,-0.0775063693800226,-0.06667639217279406,-0.02510328469578041,-0.02152492074598018,-0.00369558501886584,0.01586875022184164,-0.002441529056082703,0.02452176232366623,0.02630987002402659,-0.01313667111886637,-0.03119879579894132,-0.04253352345497266,-0.0618597123272786,-0.09188458958435768,-0.0457727795034607,-0.04770773589714831,-0.06038140360874193,-0.03285130520533157,0.01140646805681351,0.01487900560782527,-0.01139563135585863,0.02379344859293653,-0.02188906849489046,0.008887609066463331,0.04099124185668203,-0.02143320525082825,-0.02117461806529357,-0.0950568865641203,-0.07084423647084818,-0.04538789516565107,-0.03402648790198186,-0.04632170781075139,-0.02658729684391103,-0.03342790336932824,-0.002727713346634318,0.001936129510123419,-8.481839518613288e-05,0.01176707433053339,-0.009092193988356267,0.003246317587736038,0.009386332052809381,-0.0005331173834211184,-0.0604105256456165,-0.08417918855875088,-0.0580711115238614,-0.005384944537068627,-0.03374276182748549,-0.03756026951501922,-0.01815956714281521,-0.04701390837772476,-0.01596314058462635,0.01360650469926156,0.0110532741631274,0.01211774272341151,0.002492995421212968,-0.02673427446561326,0.01844618860814638,0.000435182464576589,-0.007592276081990696,-0.08951749436188985,-0.04432642603150553,-0.04094319107867929,-0.04265069138760039,-0.03053391728164849,-0.02144761209959984,-0.01520167637198123,-0.002989270823340898,0.00734610487591662,0.0111503302030515,0.01978039961345743,0.005580998740111079,0.01016410660518847,0.002099630914213374,-0.009047223349290714,-0.008078354576456177,-0.08384266946446335,-0.04816977200790191,-0.04438685847608562,-0.04175950042770776,-0.03999149929903055,-0.02728779858056387,-0.01240848747356529,-0.01358679650224366,-0.01587214176597277,-0.01453881420121766,-0.001794015604746464,0.01783189140431746,0.007230493745197132,0.003916102276225104,-0.01641658337889376,-0.03442129444248348,-0.07751058213360312,-0.03047785144461327,-0.03040110729327271,-0.06179192139154356,-0.04037705762433028,-0.03261897079160646,-0.04956404690557134,-0.04080874999041911,-0.01263288564047212,-0.0111699587076869,-0.00312067943374357,0.006013847113924001,0.003849362242854329,0.01962187501200141,-0.01992044892373508,-0.04658057462143793,-0.04270150007915937,-0.0225552678745017,-0.04989798257203001,-0.04977042436720373,-0.07695891890025458,-0.02229103122596239,-0.03870234258150032,-0.04237129915009343,-0.006282460386342152,-0.01309055265394531,0.02062510118330904,-0.002238043639704353,0.04049639122889008,0.7103350469941554,0.009419421016427707,0.0013211973750186,-0.01666256906956678,-0.01393745813258786,-0.01303561429510297,-0.01405802967196239,-0.01854711099482308,-0.02456421631011425,-0.02203258681350079,-0.01210378764669225,-0.01038533574076317,-0.005687397077421639,0.009434706999861408,0.002594517906864447,0.007811333504798235,0.004816171905628992,-0.008268460981020862,-0.02456182958351501,-0.0306379607904424,-0.0278782881057518,-0.02329843649965445,-0.01554977941176283,-0.01660509209188354,-0.02677891086419037,-0.02459645663811736,-0.02179039183157273,-0.01035423891759592,-0.01921240381949236,0.001322176660079421,0.01060208551805508,0.01086997415402127,0.0009345507700234422,0.01255801498033837,-0.01176082875185128,-0.02063443429736477,-0.01489917780164136,-0.01774324290675516,-0.02341784063469804,-0.01795261365795316,-0.03561000021089292,-0.03203962130188537,-0.04337713671819142,-0.02508422218985513,-0.01210549370794626,0.01491155545325072,0.0160588961921163,0.02965509020557132,0.03576855355816543,0.01167371264396553,-0.01081652535800824,-0.02841734101367513,-0.01824928977466753,-0.01866917753470653,-0.007088570281339417,0.01725481246575007,-0.00689746072881455,-0.01503240261560169,-0.01250485781713523,-0.01765692916004981,-0.013821330386515,-0.003837551194929108,0.01424495902816458,0.04976720215403668,0.06273699071173537,-0.0125905053215553,-0.02938283712517873,-0.03018209817323238,-0.01825645340381934,-0.01583438321921546,0.009358579112054692,0.008448852390716211,0.01861937062029148,0.0132125752143241,-0.000388796680886229,-0.00252464392451701,-0.01209954344484861,0.001493320080275799,0.01530839505858286,0.06840347672626142,0.0787250481286228,0.002382414070336053,-0.0260587475162155,-0.03715691830164625,-0.008371279655616069,-0.005825305682427642,0.0025263871485126,-0.00153143876049223,-0.009674544717171064,-0.001785879506392686,0.01639271763068572,0.02043544048292036,0.02224204155798627,0.01802261217467244,0.01366752058431606,0.02839520903368408,0.03525745855330818,-0.006991849608505241,-0.03326627381367196,-0.0243951008343588,-0.00215215719513118,-0.001589212827367711,0.004374069846739556,0.004783567411664281,0.0131514335315091,0.01454685411813357,0.01187130271722273,0.006319176418631523,0.02752160801367718,0.03423991559810056,0.0125106186458776,0.03322526003057338,0.02721115111659628,0.0154956730681355,-0.003257525674817075,-0.0121845182186293,-0.007886106096488156,-0.01889567292216053,0.005950939762786262,0.002464851767515232,0.0006725012393761627,0.0001131841598429459,0.01405253200663736,0.02327157790408977,0.02096058389971824,0.02326936706985222,0.01548795103702754,0.01405504118347048,0.008222762741707475,0.08785835720083779,0.02983127935359179,-0.004394954005780939,0.02573454998425194,0.03521162212851665,0.00281902644858569,0.02420115079681587,0.03101442918252185,-0.003222142010406153,0.01544613103929142,0.03093140875129626,0.006733937049554418,-0.009345947838366826,0.05530868166176863,0.05160057925562102,0.05328236137482769,0.02799833508934408,0.01934162805156659,-0.002567794716777826,-0.0268468892356535,-0.01567785992925633,-0.01422898875106514,-0.005440561860582033,0.01506653995159893,0.05275670833435624,0.04346633678868685,0.05428837849098951,0.04031874642251588,0.0478694137335926,0.03688685248500791,0.03337400563951415,0.02776618844126398,0.05539327015207927,-0.006364061930070412,-0.01546140858089726,-0.02195858461654794,-0.01929845330408301,-0.04311167249263684,0.0009458916814350402,0.03094754748424175,0.02769865950121957,0.06666519623202277,0.05028043150525345,0.03971595223487497,0.05216730088926098,0.03400843341216934,0.01964034761476206,0.01138939697494718,0.02287440997939376,-0.01680357995583079,-0.01879379383338898,0.001640747859213496,-0.05407041096496207,-0.02977892431431138,-0.01261811335148186,0.03467951254019368,0.00144243016024347,0.008491516290366078,0.04104894149074933,0.02421479089604316,0.04410434120886326,0.02553820796720191,0.01951832366424791,0.005743474329663758,-0.01117460319687417,-0.03953513423547073,-0.02975625554711312,-0.04591785887950568,-0.01140764075681858,-0.003066806402442332,-0.01297048703257568,-0.003352915480309589,-0.01270724803098275,0.004364851938818779,0.01315377083119994,0.01956434197365411,0.04292200535991473,0.03377653498258525,0.03156977929771015,0.01653546228673347,-0.02723238724541577,-0.01992035492132121,-0.04208122841223558,-0.03912828853063458,-0.002410890218126805,-0.02126125371453789,-0.009554568524119633,0.01043020115926958,0.003028885638241023,0.003765911846230184,-0.004002902579718689,0.01943169301762698,-0.002306588855780639,0.03063580363158325,0.02957597676150502,0.03620330976906469,-0.007455752491947893,-0.04232085065902202,-0.03241141610641188,-0.01613999944466072,-0.04664676150774,-0.02639817713686802,-0.003876799389620859,5.316895424317829e-05,-0.01207072881365633,8.999935663325226e-05,-0.01034520208704773,-0.0165110262918263,-0.01010328051374613,-0.01015294257732309,-0.0107717853805984,0.01804703492134647,0.01701713505010458,-0.05409106926401898,-0.02522082255064995,-0.03308239934269637,-0.03746605329512445,-0.06330666126347997,-0.01770964905000438,-0.01381405174369691,-0.01154938695028073,-0.06310124200536402,-0.06310501219527669,-0.03102528987858228,-0.0266319493897893,0.004064353744735147,0.0352708590502532,0.04316939544451402,0.02588166690454743,-0.1416113282404066,0.05447265453602115,0.01179291738821333,0.01682301521138614,-0.001624428659677334,-0.0190521917963166,-0.03476458810213583,-0.06739896327601308,-0.02957009654954852,-0.03833811599340801,0.001508086163769617,-0.02688363279267263,0.01374589550209856,0.02303316917464836,0.02968135893216097,0.03270158331856071,0.03980485919878742,0.01372301122948884,-0.01458301360766396,0.02127789240542012,-0.001167063910293439,-0.01760448410061005,-0.007851944024287022,-0.01735586677235382,-0.02149285923721042,-0.02858412012567482,-0.03086815472323824,-0.04713768742848991,-0.007118983105410083,-5.43816992852832e-05,0.01383371067411533,0.001554721302450579,0.01835853767003805,0.02199029389361698,0.003253458930519452,-0.0001176296226373137,0.02360547218548003,-0.001667691988476214,-0.01769771409320601,-0.009052943728913304,-0.03975336803094773,-0.02773219711064723,-0.0355232580401349,-0.03211820474407642,0.002361638933630898,0.01200484916017483,-0.02395240480032001,0.005511140552597638,0.02483899659241258,-0.01165883880873442,-0.001272901695574319,0.01651648825585062,0.02238997083822337,0.01273486554683102,0.02739505758827968,-0.0017508047887818,0.001244491326560783,0.007598865326484532,-0.02542981191759033,-0.0008064064351672085,0.006338425612054665,0.03043795984096771,0.01041402811715519,-0.001588117588049739,0.01580656977925241,-0.02607285210490819,0.0008672581413723153,0.00574536358488606,0.02086729973659895,0.003714912010936396,0.01200184439321274,0.008865754877492188,0.009359098100860922,-0.02182167072891759,-0.01772737756795865,0.01061844662973443,-0.001752134166804602,0.01834360787746389,0.006017482056532436,0.02406965946255052,0.02505586721942727,-0.021671515717238,-0.007126869684814037,-0.001007428282742566,0.002356116627158494,-0.00624381219940764,-0.0135936276530062,-0.01944650208814736,-0.0680811720650295,-0.05960100443469463,-0.04174910829704497,-0.03765394793834881,-0.01198113743250265,-0.01870312684129862,-0.001465617459914857,0.004975025521787924,0.02050082014464413,-0.04123583997155771,-0.01062818163545793,-0.01571537203235738,-0.01786861819182673,0.01090825967794714,-0.007184993284601681,-0.04827248709694438,-0.06504727242447443,-0.08775657341408716,-0.07691451268179939,-0.0316067809552569,-0.04279068246643419,-0.03851352264102379,0.002483136214422711,0.01830327362863061,0.01519699281826263,-0.03781979431921041,-0.0123353047027778,-0.04881103318936016,-0.04048185208828936,-0.06308659438179796,-0.08261874559244667,-0.07282613518594254,-0.0516619229159262,-0.04552243400215694,-0.01726051491873988,-0.01115414231287553,-0.03153434740210742,-0.01948120313587228,-0.02345652492310228,-0.0111091796929726,0.02106425705280195,0.3697770496045511,-0.01409383379663483,-0.009890354188516259,-0.01118494393743883,-0.00353407895185757,0.03505536614467678,0.0404267294873508,0.07114082604191788,0.02840485438187473,0.03849736832974282,0.03958463868313246,0.03847879522985675,0.01343083892030899,-0.01041197043876368,0.003055968823872932,-0.01693242599519867,-0.007614154190544445,-0.01150580144847961,-0.01068108368931095,-0.00650636352612851,0.01115345897759961,0.0180497089641569,0.04010836413242742,0.04381035726574693,0.03829189383823837,0.02746091806959299,-0.005006963650133323,-0.05531864794010957,-0.04595749227948879,-0.01570633049303437,-0.01753852707075714,-0.01034247702993777,-0.01199003328966716,-0.01094374145010741,-0.01581461225570401,-4.647127095005991e-05,-0.004272575951849025,0.03898078231117689,0.02535812421119501,0.05049280433579889,0.07049631015006752,0.009614572534430241,-0.08177608275233139,-0.09234911984172284,-0.07724650372792279,-0.05298586094152612,-0.02444409552259392,-0.009163949321385286,-0.01148274275265412,-0.01473679952693704,-0.02956555790630513,-0.01776283971885073,-0.008934745672117755,-0.007744838616080215,0.003704136251972594,0.03083682907595963,0.05455974468876432,0.05971980208725424,0.02252596167398927,-0.01054626292060672,-0.03924752226284818,-0.0462973228043537,-0.03325096180848804,-0.02165976419809817,-0.01543557991952941,-0.02594945444067658,-0.02537317751134264,-0.02804777144533014,-0.03090472220113338,-0.02646280804190204,0.01572396664009451,0.02305126798125235,0.06477956439053444,0.07612497714543354,0.0214362223244655,-0.001851381100883841,-0.02794279532678971,-0.04043738429785076,-0.03504976227357351,-0.01743827420746969,-0.01840648640095202,-0.02012838835487348,-0.0279834592356067,-0.0403270198681192,-0.01766486628340718,0.01906151069587812,0.02982385946336261,0.04981580598942878,0.06004772881839354,0.0251770182959835,-0.03155497267514384,-0.05564519447524113,-0.05357800690706528,-0.02003528541868498,-0.01588494579585683,-0.01622208796183956,-0.01866830424324751,-0.02131822280829361,-0.0196413775783445,-0.01547495032295976,0.03275960120209947,0.0232756209755592,0.03013800713694994,0.0501060496361778,0.05824262324844175,0.02536787641944092,-0.01469542691130535,-0.04266659204251027,-0.05036162384172909,-0.02077927428795262,-0.02088456203987385,-0.02571781980429813,-0.02720593548491512,-0.01567273196013968,-0.01349155200719365,-0.004744598137050314,0.01504835921960254,0.006266533290106609,0.0189854259548835,0.04978152525045931,0.05539278962893304,0.0494112010283694,0.04225905816591718,0.01673472261640072,0.03923973606225315,-0.02897321728817655,-0.02025457896220152,-0.01241990414981698,-0.01573897578132756,-0.2700101125912523,-0.007816640440197193,-0.008531057377375022,0.0295880038147284,-0.006655302181595055,0.01240481195146486,0.03044399740891738,0.04202267925714696,0.03158856834708738,0.01810580891608387,0.02378610775907019,0.03741594719786217,0.02453814796549502,0.04307227205882625,0.01278100872538776,-0.02478975642211453,0.02055295493759357,0.006436177306334636,-0.002083377953710025,-0.006808263540653436,0.004564903467443203,-0.002842184218146112,0.02012432600210689,0.00477508787941975,0.0599333204922228,0.05569932667449928,0.03763273934621197,0.02008496782092826,-0.008957187202465709,-0.01275457488221626,-0.01010526655429895,-0.01272924888787409,-0.01784992474539094,0.0002105221641841455,0.008124078771629208,0.009556133368679052,-0.00238263489034881,0.0002519327270211473,-0.003843229410172856,0.01040515319313687,0.01483990990717077,0.03586319894621113,0.009736546892556807,-0.005503340831955143,-0.02864003173069464,-0.04005420660554611,-0.03865499567565113,-0.04765708245733637,-0.05129411263938514,-0.01401302964380692,0.01031829967128938,-0.01862610982952034,0.01909698616990454,0.01277202733647667,0.01389815930782388,-0.01580540481489241,-0.009102990321514825,-0.007972383996061686,-0.02085891513992419,-0.05214001506499295,-0.1000001089303109,-0.1189809351886138,-0.1443212796676122,-0.1120814766212303,-0.082974557007039,-0.01122863146626739,0.02416667064849513,0.02233599365983365,-0.002129811405374741,0.01170734348168276,0.01190880491755459,-0.007446840704057083,-0.05318456769069579,-0.06745440857982819,-0.06655009798748839,-0.09958595777895755,-0.07156336500167228,-0.06449473274027161,-0.06382331922853657,-0.1009140896899561,-0.07362667531984739,-0.01484699522716259,-0.02976533424648962,-0.003501011121101149,0.007126299352856565,-0.005983524332297638,0.01831676406049422,0.007763079326517148,-0.02091616434227133,-0.02458620719879683,-0.001121796955188288,0.01486090704401429,-0.005210268360781024,-0.01699355980204113,-0.02718253239728824,-0.04354690890986729,-0.05139889901256343,-0.03090123327414466,-0.0460062420527609,-0.03874489641199336,-0.02624350379679294,-0.00254536601111591,0.009099226932620059,0.01869739533812852,0.05353444059427608,0.05926330208216812,0.05603072845361388,0.009377094413472842,-0.007222402824251606,0.03668563768191376,0.01460632985784376,0.002343895101507875,-0.006418686064348608,-0.02305409190850994,-0.003180169222905601,0.006070744594223159,0.04161524608677276,0.0206612951167296,0.03619334501176082,0.03494320133661415,0.06336154551190525,0.03914292732831434,0.03827762763111323,0.07354206017595995,0.05500061163752227,0.02466437532381278,0.03634102279390859,0.0007360910310462483,0.01156798187176103,0.002058010799772312,-0.006331848568956445,-0.0366845428144064,-0.01551570930906734,-0.009390245777659224,0.00243725921589579,-0.01623660391383598,-0.007661232189873862,0.04739721609648974,0.05431386980708144,0.0574901859082963,0.02560840994490803,0.01709487771086443,-0.007922955880100037,-0.005493137559090149,-0.002622717407718644,-0.02126161271701018,-0.008324046594170225,0.02314956175096846,-0.01797447985705533,0.02872662305248373,0.02689106918646108,0.0004897093558599087,0.02313718324134827,-0.0101995079769551,-0.01820806654304522,0.01354057473955771,-0.002203193594315999,1.342874977118705e-05,-0.002362902955951257,0.0202487310498684,0.02105491647270331,0.04280744837624702,-0.01139816154994573,0.01712153335938923,0.01281665281797202,0.003242566414956383,0.01362972380588992,0.03674165163974333,-0.002814009488600213,-0.03552290683555694,-0.03207407633354536,-0.01301883196826543,0.02280993328183475,0.02726502411563207,0.01762248049261794,0.01208295359493055,0.01793002740790524,0.03932407606921932,0.02551184126519661,0.01932051721973825,0.03866916452645747,0.04122577845360673,0.03203342020107565,0.04719988350929774,0.0006193386553826814,-0.04858294010792313,-0.08072409526591255,-0.01567702496805122,0.008550925389638565,0.01843811110633491,0.02094354720732306,0.0214208702084078,0.0334126962289622,0.04426716304117721,0.005050563628096603,0.02343058375425794,0.03411452634904374,0.03254224273488273,0.04201497561143541,0.03609076726300312,0.006913428435109511,-0.07048652620593651,-0.05349055908932536,-0.02136892126157783,0.00197541402266643,-0.002456602173153181,0.02234442930226025,0.03436904312110933,0.01716721821220258,0.0267432417894059,0.0174412030717792,-0.02543960050569042,0.02947205140983479,0.01085744945235181,0.01415913658228336,0.03356562639613321,0.02097445004969808,0.01355031632723139,-0.06336001864641007,-0.02116564399299494,0.02426107037050604,0.01166344210193569,0.0006738069861555133,0.01498138087499076,0.03270150528721192,0.02849233786125705,0.005848876817395811,0.0333065858205675,0.001446004623006135,0.01159707913229584,-0.002932406546985967,0.01120579458066938,0.0279670213253075,0.02096492015212926,0.01374014983811437,0.007529292645700899,0.002872680578809322,0.01438991237265997,0.01813147632807694,-0.009573023441767387,-0.001899373472466473,0.0155063726680729,-0.02327480273679991,-0.03224446011581482,-0.03985681706778563,-0.03160238893008681,0.008571604662224853,0.03421942278371348,0.075948573113305,0.1153011851564877,0.1159487502549897,0.04998433957237459,-0.002815862600971457,-0.03024719003014741,-0.01744001975649265,-0.06185170424967901,-0.04944090777995565,-0.02639522794546773,-0.1477212488666758,0.01802431076252592,0.03154308983864043,0.0486458305006883,0.04660139550514296,0.01265638888594045,0.007432967685002897,-0.02029674611146866,0.02176973842166513,0.00861616679382036,-0.0294570640537575,-0.01735162143268103,-0.01752610550994867,-0.02379804677020346,-0.03842539260245267,-0.02503830039914349,-0.02022310272741437,0.04140188787634072,0.04149977172658106,0.03491130290327156,0.06871695124797907,0.02244763788248843,0.01515294088084492,0.005845980732358811,0.02031423046215788,0.02212766483446007,0.04005881459785147,-0.001605867535493317,-0.004843002030833939,-0.01446182793021982,-0.01658338677451984,-0.04817246501684769,-0.04115736459716806,0.08931774061650721,0.04960795538174134,0.05034967518447465,0.04564293518344638,0.03949213453930583,0.03982240230890056,0.04650391727257273,0.02971418839953113,0.0243982572212462,-0.003501767466761536,0.001343637085142124,-0.01273140996975541,-0.04165382335818114,-0.01183466202734409,-0.01594038671788064,-0.06237920840174167,0.1031226330063553,0.05774045323826309,0.04413260824412377,0.04202638487935828,0.0270566280761339,0.03147374965106871,0.03537069105694805,0.03285889041290718,0.0241226242427591,0.009812911441973894,0.001186589916963885,-0.02127458789964877,-0.002755149681426086,-0.03564856313086965,-0.04736168050319275,-0.0508780543917347,0.09732671756228259,0.03975471816277686,0.02767296935179234,0.03502727106876719,0.01183617019694799,0.009065005989275232,0.01147776927128461,-0.002206033998026277,-0.01013399274740038,0.01033959535980475,-0.04069898026132926,-0.02373812690293295,-0.0193912698910077,-0.03590768405647499,-0.03926912582003141,-0.03739003594397722,0.09840102359749063,0.07192145696423301,0.04113583125431471,0.04558726888692323,0.05267806008607023,0.02711942341223088,0.0228119947782462,0.02141712893660858,-0.006385351921177202,-0.009266091840930555,-0.04963515087960655,-0.04124770048423919,-0.03676939509499233,-0.06204820628182669,-0.01904317663287428,-0.0555968310479233,0.04366044804645711,0.04023355948490372,0.049565571864896,0.03816692608831112,0.04860311290154366,0.05322609456850356,0.01254625335179918,0.02448286817206368,-0.02504918206059758,-0.03948838091452535,-0.08287315291118254,-0.06606155747049336,-0.03924901400887074,-0.0483982849596861,-0.05414509692761459,-0.0780246067640072,-0.00398562467429708,0.005119230333879353,0.0368216792765713,0.06492825074248829,0.06683667931336019,0.06496522236706719,0.05664828048031609,-0.01469304042192941,-0.03538911700536442,-0.05227178319749539,-0.07382310327101836,-0.06697740492784419,-0.06137302023833442,-0.04882917253862792,-0.03381337183830447,-0.05031893465031888,-0.195956265918681,-0.0037433524655458,0.01336848154243529,0.00623043074100607,0.04504320332839777,0.02103910579022274,0.03201458273755022,0.006694637616454189,-0.02191732933301756,-0.03696902883204634,-0.03605318859011377,-0.006692376801441096,-0.02577675468814843,-0.01270999141288241,-0.01476184458977317,0.004477120617698775,0.01216586040739747,-0.0001286570408023793,0.02178776342351677,0.01829585337497052,0.04728916176692387,0.04040515147264266,0.01956034255727234,0.007191656500915697,-0.003118490986412156,-0.0188781799233562,-0.02887665452596602,-0.02507497832550761,-0.03666516722638167,-0.01965627321424933,-0.01712779086125097,-0.01504553256556189,-0.003398787259435846,0.04024679922152032,0.05728946856456891,0.03661620903278538,0.04088037467797853,0.0518045253903294,0.007387965444301814,-0.01146095546154993,0.009932004554804832,-0.01673027527257065,-0.0163001275156219,-0.006510850091667045,-0.007467545085113186,0.005763196667172012,-0.003446661182302419,-0.007332795930028471,-0.008335495651189554,0.04699161739486232,0.03692230395438503,0.04425251855869384,0.03925471189518266,0.03488589352304911,0.02173092699460106,0.01248975903610623,0.009982370930551569,-0.001554308569906358,0.01795044063823466,0.01115043549154073,-0.000800124450069407,0.006222867070819049,-0.01167717277042161,0.001604608714017908,-0.01213725866705407,0.0448674984651284,0.04296225217431154,0.02987465518328181,0.03473399638315856,0.05445572321252096,0.02332680595780016,0.02212325497645095,0.01742946136840173,0.003607631538040235,0.01325157676109666,0.01979607349726371,0.009459903306531063,-0.004806073670284489,0.006701560953375601,0.001031416763151562,-0.02589166041463316,0.02591987600611988,0.03060632201370206,0.02072555775252138,0.0361177329015156,0.006828875270236661,-0.0005740533553927759,0.004191524322755265,-0.003332634825693591,0.003680385500180231,0.02813043670173841,0.004296348396073566,0.0002059251703966674,-0.002094357216471688,0.0006781117348536009,-0.0238727436754038,-0.01989736430860208,0.02983571281499569,0.04293634663983899,0.03042813660135632,0.02203349306341347,-0.00924476455826932,-0.006647726738140565,-0.01402072407072383,-0.006232407952197763,0.003379961625803344,0.00923917666674658,0.02200893401472064,0.001071075585706123,-0.02108515889071614,-0.005808520387502671,-0.01675962882808128,-0.008130117101216206,0.003953843408999776,0.006683226107212249,0.004506262870452883,-0.002451452340407055,-0.01955968832457603,-0.002927813480624564,0.006973531188625592,0.01526502174546767,0.01744661725892051,0.01548965543130313,-0.01274403082902885,-0.009068908028470825,0.01963504176600225,0.0037484316013458,0.02151629272437131,0.004794753340506807,-0.09721993716807362,0.04844145992635934,0.009051672069484486,0.03291169312983119,0.0059045740332871,0.01590886467193532,0.03552756243091584,0.04404075138750096,0.04645936954366807,0.04703752586685229,0.02965675593905799,0.02366073239949495,0.01310248327892027,-0.007581487510717991,-0.01445636776205088,-0.02196873613922128,-0.02692634854375492,0.02169032158525437,0.01277081946607448,0.0135307023806631,0.01758872201736562,0.002168551429726416,0.02753890388640765,0.03060922674694248,0.0647397691007377,0.06389835877068176,0.04730432901286383,0.02694236904190443,-0.002140215552717081,-0.01207488253922875,-0.02974222338796994,-0.02839177295005798,-0.02321034587793476,-0.009514204936370764,-0.02649335223877984,0.01918951479557028,0.02695882767123407,0.008798167557368376,0.02160543384588855,0.001340993752195596,0.01482326140549727,0.03428039066387209,0.03934377255094752,0.01108746068582222,-0.01800354168402867,-0.008307317977745194,-0.03217455968019435,-0.04446764455734506,-0.02205503225314416,0.02281999712635711,0.01901665492929071,-0.0111835385688219,0.008567265489655734,0.01635492802617662,-0.002807697041554477,-0.02236241749905018,-0.01480211116658968,-0.004331782545312823,0.008806567009801035,0.01684969753534346,-0.02304630979931099,-0.02689349775391007,-0.01063476415594509,-0.008535051256260492,-0.02035829043552027,0.03586979454744921,0.02638353103488608,0.01261888176774985,0.02494172368566872,0.03788210327651154,0.0006306300885260633,-0.01981227928446719,-0.05686579229173012,-0.02192036608911301,-0.02110092359002686,0.01352847868381784,0.003352695079076061,-0.01433008880218241,-0.007993813688387037,-0.008072137276882956,-0.02892771639984811,0.0190301433996506,0.02275119890310648,0.009056268719590858,0.01595562019732144,0.02306118454942662,0.0157695869091513,-0.02893714191969652,-0.04213943505058618,-0.06635423540343977,-0.04629737530690423,-0.03664539146099258,-0.06555768359241371,-0.05778909764175412,-0.04097487856489092,-0.02058950977154681,-0.0339879271433526,0.02111130332964445,0.004207061551240424,0.02064174141967278,0.005307636979763105,-0.001952322905636388,0.005417103921931829,-0.0417861360168233,-0.08983754033449731,-0.09621315813612638,-0.08956714448603878,-0.08578342545112819,-0.06633305087289829,-0.05389330678869848,-0.05941099937171664,-0.06234571809303521,-0.06134537915857006,0.02984664576775352,-0.009360329302801855,-0.006192280632295427,-0.01548506922827065,0.02470138417545109,0.005206928428302151,0.01324336985442143,-0.07522089992341627,-0.1057132516202386,-0.1172920182535758,-0.1675830900561446,-0.1287471699429487,-0.07293202068833914,-0.07485191054811098,-0.06042151901826569,-0.06570188766855312,0.1670357062899619,-0.02691737919895774,-0.0175925319001854,-0.006321426749477233,0.002091567820247729,-0.004266750154723753,0.02572146161969953,0.03103674424548282,-0.005481717152906689,-0.07438630866728928,-0.1115265710496921,-0.08552964005290428,0.008143438549745098,0.00883006417731143,0.02163324190622576,0.002017928572521048,0.06297326375890951,-0.01587488243149,0.016210146064678,0.003131046225832816,0.009643966579660747,0.02104723946812043,0.03514224899718971,0.01081833611879421,-0.01268941114930244,-0.02958375100069143,-0.06323186206618174,-0.06271982023158522,-0.003853032963961909,0.005086549227052395,0.0108617873356847,0.0208432801487851,0.004347338383038393,-0.001419827482888159,0.01900981964874494,0.01481964928548932,0.01286954311011249,0.01880946431156896,0.02858937347941375,0.0111093248650439,0.00959183851549501,0.000796446993756551,-0.0539766764772249,-0.03976513622645676,-0.002589567286393115,0.007811829288789381,0.02650782972833532,0.009906979730059834,0.008610954395886872,0.02254297560185698,0.0166051598214989,0.02111264479873082,0.001094440132483186,0.03543864311275996,-0.01436659678393012,-0.02247247858284102,0.01542298371828326,-0.00329277620244258,-0.02471919542242752,-0.03643392205492092,0.006482278748884208,0.02543310002739898,0.0202406889197155,0.006002115402944971,0.03115331506303895,0.01484034351396637,0.01320833510917357,0.02215589467936768,0.01463607461153557,0.005152686030113719,-0.03015922302056527,-0.00672988970919539,-0.01972314282464975,0.003727968889082,-0.02300846884536657,0.01869675769909319,0.03418821884591899,0.02597707477146401,0.007820019759027193,0.01826196979945729,-0.005245253477493477,0.01054185321111066,0.01314615804346642,0.001178319596145759,0.01479285730715788,-0.0223993450535608,-0.03337017653025076,-0.03135720047923945,0.00427711528300841,0.002267896202610925,0.009779126822378291,0.04037266143332217,0.01310070402413878,0.02020278534235018,0.0008339561525086969,-0.005754053289354005,-0.0187669020520576,0.04270734551287751,0.005070656815616122,0.005374708933874647,0.01095474620059534,0.008445877266906796,-0.05916120170765646,-0.04588703751868693,-0.02193319437212439,0.03848048633981802,0.04676269841867987,0.03397540272676325,0.0400782510779101,0.0111643786140934,0.004738407717546336,0.001796371091491212,-0.00669258891544731,0.02080319025156238,0.02866116971936154,0.03415531299324748,0.02173123271985323,0.02111257884671135,-0.06594922225987457,-0.1184641070774091,-0.02738498254713146,0.04760396873417404,0.07125637735944278,0.07174718821693384,0.06191761971569285,0.01774363308069994,-0.000646290659760537,0.002818393722964891,-0.007119949724889432,0.06210345175110558,-0.01371939976242979,0.01561234413605158,-0.004078841529919884,-0.01819770068585074,0.0007677556031742961,-0.004580445749121978,-0.02477712291259051,-0.01316087101621857,-0.008629823509226215,-0.03663111619341623,-0.02751924359424427,-0.01786696603211472,-0.06329808870270852,-0.03831421759825376,-0.01477969117123149,-0.007997491271766187,-0.01726692663608094,-0.02101862608971349,-0.01944483699780703,0.01125116417675028,0.00418366567595659,-0.001063957769057611,0.007980538611693936,-0.002005583702293624,0.001360244672359156,-0.003786838208858126,-0.01579567332633288,-0.03988858783934096,-0.01783576052398062,-0.04871933694957849,-0.0005894065032727655,-0.04270074506402854,-0.03526225039755022,0.0006596644028515399,0.003527118754263963,0.01102199103388727,0.02440174621805948,0.01018276464363987,0.003908518580115471,0.008258100657255119,0.0008790969241281171,0.02343519357334255,-0.01341184843796065,-0.009679155326256393,-0.02168510194919048,-0.0006858935583494936,-0.02021386838151439,-0.01745329978705132,-0.0233043570658238,0.01572804467606959,0.01020688716426015,0.01556594759206081,0.0356985056297791,0.0148430411232613,0.008777614171305223,-0.0006857168798844045,0.007777263230364291,-0.01930026404137254,0.007000480908402042,-0.01020875022552144,0.00978697472771255,0.01043379655875318,0.01085252063303159,0.0213926648964807,-0.02951923705398401,0.003428289047411089,0.01716277563226042,0.01365367895331162,0.0006791993747418402,0.020331757933152,0.009695099567951879,-0.00405369844759211,0.002287460193068828,0.01732748628818206,-0.0002013426497184551,0.010584654855443,0.009317270372718253,0.02008663273738422,0.02854223127007438,-0.009379125911552877,0.001879141329111741,-0.003176787063222927,0.02267090648601745,0.006519090911907065,0.01802658609385378,0.02082045087720382,0.00200009040458986,0.004070483047876091,0.01085816610349925,-0.007630881906083048,-0.01698307348104229,-0.002083346351741577,-0.01257913081670894,0.007744732753520537,0.01822589407961771,0.009030252730277941,-0.005591439384557025,-0.001317610355468596,-0.002510695086509446,0.004389574110360095,0.0123385205379898,0.01238060178836268,0.03025159774434687,0.003436167207877852,0.00465784203040815,-0.01358051999341636,-0.01566651226156337,-0.03590919803925471,0.01947874984538471,-0.01510960728598061,0.02239202929216113,0.03683698314409522,0.0499503735754088,-0.003791170193552599,0.002925765908935436,-0.01939631261758409,-0.02033032098661877,-0.01947644014492291,0.00731513302366375,0.01673464730569895,-0.01027055707108583,-0.04461548366235901,-0.05854332457651177,-0.03263043831682934,0.005498794884412309,0.01744155012819644,0.05626447639566969,0.03624175966598028,0.2140469981038421,-0.03556183977306538,-0.02237182443840954,-0.04448052046244093,-0.02102123177233882,0.01022190068037556,0.04458384405773275,0.05418637004113509,0.04128976075489362,0.07858806780358904,0.04015826624154824,0.007206585849295165,0.0004889322766972921,0.005788445734268572,-0.000521788633040418,-0.02500061168742768,0.002528023648644056,-0.04417558673248175,-0.01418292347164871,-0.01567084703177349,-0.03339096198488436,-0.03156483400526565,-0.02874460525369112,-0.006455641244778747,-0.007799611516693749,0.009004171897026278,-0.002919824118173444,0.002523428550231609,-0.02300927453271974,-0.009983215463380773,-0.00223690518488471,-0.0133056292869035,-0.0004373856513304742,-0.05707434612571247,-0.07793793388197968,-0.0701765529034864,-0.07028454969312231,-0.07195742908525705,-0.06508431786645726,-0.08809116358780857,-0.07963047428082884,-0.09186665483140807,-0.002987534583572625,0.01707666433478072,0.005866738839545589,0.01667917388476759,0.01506721669416257,-0.0009133587607126217,-0.00998354902459892,-0.06762659481026582,-0.07226647266467739,-0.0782709086919455,-0.07251124478019776,-0.1046219804049948,-0.06771797831507217,-0.05398836548715388,-0.06442912787620107,-0.0372086661844505,-0.03904004658944891,-0.009993070410182915,-0.003038279307773537,-0.004092190818950498,0.01339451177456061,0.03025357961552064,0.04640804988056641,-0.06907208362872348,-0.07467994097209157,-0.05813422665388456,-0.05800607891656104,-0.04912310621055077,-0.02944622822452064,0.005260709395881397,0.03132999525045545,0.005426292545888713,0.007480985978436233,0.005043561546430772,0.01514759221795281,0.004378471754213526,-0.006776110654255924,0.004107665086260169,0.05150131642224952,-0.01681375309187047,-0.02338291625783085,-0.02995023799017528,-0.02883296361185564,-0.01378155009655144,-0.002836538571077666,0.007076880647506663,0.03029289136703284,0.05834351818320383,0.05134606652773466,-0.003747368627549392,0.0294630952862352,0.03172322328913487,0.02436412913554703,-0.01405908740201841,0.02802202844263934,0.01078143268942602,0.01013204239500254,-0.01509191215460283,-0.00446918898295133,-0.01247686538957735,0.01436860032574061,0.004085150147262213,0.03437170820482282,0.02493564442106879,0.05817827174862682,0.05532421437869253,0.04961149649155105,0.02173366325517279,0.033608967133374,0.00770807407026141,-0.03363599948788929,0.02199996277660145,-0.03310511404428969,0.007680369059024042,0.02347719633199965,0.0359365052349192,0.06511372611134093,0.02313420416408673,0.01588917215562336,0.03031274402391992,0.01638330770471682,0.02446125969621757,0.04013691104117103,0.02361737556580938,0.0001145747121926408,-0.01580843303537898,-0.03765350962763878,0.04141427595265345,0.001606405215015008,0.01919338033843563,0.0007216562257710781,-0.01372542807807679,0.01818755456783151,0.0443571416976945,0.07101446445799177,0.03652036181512702,-0.00734600018985172,-0.01287982659058464,-0.03544188256665089,-0.02788405014265746,-0.0384537403285711,-0.002746469791812978,-0.02161455035123773,-0.02457199788876844,0.0009941096157377004,-0.01329339879419875,-0.001151144739380524,-0.02310877819335767,0.0003590491783277214,0.01658628456473469,0.01474263637363053,0.001935912460703281,-0.01091018278422854,0.008899376119525399,0.007783529654836954,0.000782452898703695,-0.004693355041927244,0.004213186871866038,-0.003498624332613758,-0.01740669330913039,-0.02406721171972038,-0.04136007231534736,-0.03360057738040399,-0.02489920766149456,-0.02608828008224369,-0.02232366100798776,-0.02147651380602734,0.007831864905435011,0.003122546869074511,0.01697391226313941,0.0150724433493804,0.01206489128308856,0.02946236915911282,-0.01443915638548946,-0.002866145756199337,-0.01452825316785855,-0.03172337357619935,-0.05127642634085766,-0.04479002345338676,-0.06051789879331994,-0.0581953407016829,-0.04138866507274271,-0.03640513106285426,-0.03424723627169691,-0.03003409641370846,0.01816462064559067,0.02252818220037594,0.01222175015988017,0.00332206840655193,0.02243895367972014,0.01268434395971849,0.007286652545284033,-0.03309440969664599,-0.035315309279181,-0.03239296942904164,-0.02970735394553369,-0.02523404218829399,-0.02843539425464025,-0.04216928150937235,-0.04558213894548779,-0.0315704807654833,0.0006366810631764373,0.0004331711325772146,0.03446270343361251,0.004530559735829567,0.02266307470431097,0.03678633775608241,-0.007605234846671041,-0.01944122118242781,-0.01150486173605197,-0.02813409744472542,0.000403746327712046,-0.00419372787856227,0.01835718542713433,0.007419916516699696,0.007989257730395084,-0.01197064967194741,-0.0117726591445347,0.01116684435264329,0.0100653315894626,0.03238209984277697,0.003616332681300557,0.01162815718843542,0.005307632178675923,-0.006448784483227083,0.005961180993101062,0.004906563624552223,0.01502954358557817,0.009117782035729995,0.01697920393858112,0.0160160933335436,0.02523267905142331,0.01233603054753202,-0.01317483297558683,0.001737781090999809,-0.008549562974360714,0.01476814361035369,0.02334597414508437,0.01858231266916272,-0.004881930312468243,0.01955824931262254,0.01958249032666632,0.03919049318682483,0.03258959059737487,0.06338354938847232,0.03258750876759087,0.02634265501493192,0.0259275849512714,-0.001468095979189094,-0.02435173816317079,-0.01307031067263348,-0.01595043307397236,-0.01388504444985294,-0.01330772050537065,0.009324997691391413,0.00088360564886434,0.07432941638813244,-0.002403691086338159,-0.01117306664695101,-0.01552690392369524,-0.02342136825505115,-0.004903088324380881,0.002820059888084139,0.0163996821426642,0.04525483646790784,0.001140439750837066,0.03142243595069717,-0.0207959162890061,0.01268693440843132,-0.02880749360409373,-0.01890166470344125,0.006803242840358135,-0.00381011313946663,0,-0.01386792072217404,-0.01893205186523926,-0.0393680640732568,-0.06326384742278311,-0.07028846162795777,-0.08347831423355676,-0.02673088902209044,-0.001758995493947956,-0.01048473961243289,0.00268895974193258,0.03039002031397857,0.01213072295302389,-0.0002016968880002273,-0.01345569017023145,-0.004516477782903839,-0.006499661408654924,-0.01259271701607924,-0.004591229598378313,-0.01024866825782327,-0.02082249720423423,-0.05658506049050305,-0.03859178710479681,-0.007920255494447337,0.04544558781394178,0.04840664818546322,0.03646199629237642,0.002110160512605724,0.001768697253111771,-0.005318057840019831,-0.01870602266069995,-0.007894791628207148,-0.01105998970762486,-0.01301355801815098,-0.02561318844584306,-0.02805827903034368,-0.0456620553334393,-0.04145221798086329,-0.02508514271606053,0.05256618877736998,0.07148764983220254,0.06342965020583843,0.007988910263659336,0.006993263654593253,-0.009942981771365475,-0.02318363971442743,-0.01673261162316216,-0.007872960343675328,-0.01461431752249686,-0.006389485457489705,-0.02823978689961361,-0.01644963773594646,-0.05614175644898506,-0.05999114132601323,-0.02105329353706224,0.06310252141461055,0.07881676984721236,0.03456937231560722,0.001153050293147463,-0.0205946756896844,-0.00521426022164308,-0.0338282943843052,-0.02270950742812951,-0.02135334246196428,-0.01372647162622316,-0.01701319149072955,-0.02769178773774943,-0.02849050169124608,-0.03091307847668101,-0.06456824874536533,-0.0549675612473394,-0.04719754939120177,0.0250553135747981,0.03531953811220036,0.01349260081022012,0.00241130537180029,0.002242712695402433,-0.01966922622100376,-0.009161861891740125,-0.01327502419870258,-0.008387437528760738,-0.007645650091993091,-0.02315811088199318,-0.02661545702692463,-0.03682956341650981,-0.01061866432919147,0.01957227440693483,-0.02472807915568996,0.00402119010651269,0.02028134008511855,0.03217212577336464,0.03786328613826524,0.01594556084394276,-0.004863512268696002,-0.004402497841826974,-0.008949720807662178,-0.005949134587877582,-0.01370313773722961,-0.01756470996389108,-0.0006537856501149848,0.01378248336256101,0.08114747093805715,0.1368650077241704,0.1122643242710666,0.05660128968761727,0.002362845475161011,-0.02074964733521027,-0.01253532454177513,-0.02102867483619366,-0.02691999310051951,-0.01735648598402584,-0.002611852357117549,-0.1639040039551206,0.01808983685538924,0.02860760477949737,0.04554383715175322,0.03018444842107869,0.05497646126632557,0.01404887413500036,-0.01423254467903006,-0.08021157303512318,-0.09883092134217529,-0.04781046749321873,0.04574167441955835,0.01697904595265204,0.05381225996353143,0.0250288116225599,-0.01712691399892077,-0.0221614059385082,-0.0146879663116224,-0.0113207907582641,0.01096618501633825,0.01605606080306823,0.02853229883683498,0.02528862175786324,0.02095240819550634,0.002895291358039898,-0.03467987766503518,-0.0270855025054991,-0.0105575026815349,-0.005322409283968269,0.002095307627446944,-0.012619106826433,-0.008275086202847859,-0.01481900170659435,-0.009022784852185555,-0.02537614895606404,-0.0005489029390113071,0.005582068624287419,-0.0007190751086944893,0.003852809696545216,0.04807044168526638,0.08696410450770424,0.01858926143985965,0.002483661007161912,-0.02151811410930636,-0.01564062563314684,-0.03413212076956034,-0.003814847996970749,-0.005557971095406297,-0.02455770427475217,-0.01297534778797973,-0.007859276217145432,-0.01168860334989238,0.01164895456293963,-0.01599924604187062,0.009788984538129739,0.03925630629794138,0.05150168785055527,0.05360799588156109,0.02445866600952661,-0.009828651996839952,-0.02810298981484959,-0.03503373830882273,-0.002148937293643341,-0.01037794164848361,-0.01877910158652032,-0.01651685944530958,-0.01819740414533503,-0.01916028724790111,-0.01040937157004871,-0.01864818371442386,0.03608231286563662,0.02165187382192828,0.02401943284816225,0.05786331952246358,0.04730822484799125,-0.02730392884372204,-0.03860477083156644,-0.03335572044769741,-0.02401405980559256,-0.01903572078515509,-0.02462852109996032,-0.01332239835356003,1.870392742820592e-05,0.007187348669280566,0.005757117361006424,0.03299125758266053,-0.006029392935289164,0.02672702739860106,-0.00500802470163641,0.03724215822533353,0.02457064148136905,0.0126070187523086,0.001457230738907564,-0.02626790818067605,-0.01280340273575636,-0.01891264364098767,-0.01140709778105752,-0.0197071944124794,0.01531611812350202,0.011619384184879,0.02221991003627784,0.03559856376578017,0.008440426810531802,-0.01619643057770438,-0.04167635941395558,0.0223888628385897,0.008671392230664038,-0.01430410991307235,0.007363404739617507,-0.01203769182131044,-0.02294040651056803,-0.0220942100590958,-0.003969826329996884,-0.02237034164989431,-0.006721926678770932,0.01261511521406839,-0.03601188036489981,-0.003274681983344107,-0.007804791192913322,-0.04579464803064517,-0.01446766677743207,-0.03517591478537349,-0.02579139780606615,0.01204903409384206,0.00523744638511807,-0.009974448417891722,0.01582912867622407,0.01313288396432372,-0.01388254000839451,-0.06336521950811075,0.05149714004391277,0.04393358797729449,0.0216842138485818,0.03514465834899105,0.02492778980999853,0.0142898711212115,-0.04582193235203406,-0.08176275908844818,-0.09636683259206844,-0.06795277887735275,-0.02319189022331617,-0.00428015845387118,0.002918670413928261,-0.002747270322888689,0.0185756787324724,0.0309829270581076,0.02471275927671084,0.01563558192341943,0.03527110982886631,0.01791996297141648,0.009702302801172841,0.002003731185656876,-0.00870552736317958,-0.03674290664784222,-0.05783142183546615,-0.06629878747409203,-0.008486271034767054,-0.005686300438857213,-0.01669418900630264,-0.007680477031705302,0.01533242267098234,0.01722836276699866,0.002164671406008574,0.04331729019184622,0.0201273219923271,0.02480362101146862,0.0164952208865761,0.02521625469691865,-0.006408890216085189,-0.01945432431023316,-0.02627760013444522,-0.04072862096090175,-0.01945912504243412,-0.0111465378599666,-0.01537955896757757,-0.01340114621774569,-0.004150599587549133,0.01432265589424145,-0.04347658563652131,0.01553324085671927,0.01368670079992573,0.03563402368512725,0.02569200324905245,0.02383549893295124,4.630477160203407e-05,-0.002901792208263213,-0.02256376484795701,-0.0179306405248363,-0.0306126525996102,-0.02742774185859553,-0.02670888424664613,-0.01118984002744244,-0.02052211101620645,0.02069912310578364,-0.03213749801705765,0.003564332295261524,0.006767727483522744,0.01723459682746584,0.02340406064159699,0.01843173211392999,0.004782872583518107,0.01667584314217798,-0.009982374889762977,-0.009518595474540582,-0.01468357928608518,-0.01215806376732145,-0.01524439814840041,-0.02307258073678942,0.007149369072366611,0.01503651811450123,-0.003161991453222474,0.007520956924634793,0.03460927768132329,0.02690401903290808,0.03470986697645764,0.03024321330259879,0.02076873901412924,0.008151719692192768,0.02700448563686875,-0.02114296626245787,-0.0267100232534511,-0.02414426454765803,-0.01972838155155697,-0.02635147198832532,-0.01784133948022969,-0.007818030108977053,0.01894627974234402,0.007291874809581677,0.02312372882276471,0.01195077830922143,0.0289974987809326,0.03336939313576541,0.04599172430629406,-0.008182380343162694,0.01420091157798461,0.01272851946088612,-0.01724602570927894,-0.01216633457547832,-0.01622352009599119,-0.008261220581888796,-0.0008561273822110866,0.009310345464481503,0.00314500273557569,0.0355362254826394,0.0445348732267602,0.02405920150140717,-0.001332962547139204,0.006722950392138128,0.02758651214932043,0.007256514772352943,0.00832763715247211,-0.001867111007882912,-0.008755223102969553,-0.02756543174555628,-0.01690536855573986,-0.01068239549560292,0.0001986238871123407,0.01405460052537205,0.05136189612053389,0.01561057627310588,0.02910691442714584,-0.0103456238437276,0.005169774285324879,0.02284659661105718,-0.002506343565391486,-0.04160746277458053,-0.04497010900256013,-0.07250853794439498,-0.06539141843605022,-0.01950057037711369,-0.02495813381654999,-0.004895681241576576,-0.0169891014697423,0.01714381904127737,-0.01061388033752434,0.006462425930268731,0.01869550661956848,0.03966623769579992,0.02319370693839969,0.03604055157506669,-0.00149051441682362,-0.02622137750755423,-0.03894760112070578,0.007089137746401628,-0.02255972125895615,0.03132213145525267,0.01714600908445105,0.006399708434005938,-0.02244745533312565,-0.01023483791485521,0.00200169084354504,-0.0118848764027822,0.01956286913529036,0.01754204492539428,0.02000799335790448,0.02468425059256161,-0.008854184713875727,-0.03333548476942547,0.01335947282575626,0.03033093810073293,0.0211190089711359,0.02183589681005131,0.0116563508596106,-0.0153532034433767,0.01004201124351272,-0.007020489131279337,-0.001714365586050247,-0.005587921061065211,-0.009899327781102325,0.007174866657469336,-0.007900071335300504,0.02355202149026708,0.01372821838482132,0.02096338099021939,0.02811652827472788,0.02153774764012439,0.01885255421161183,0.02488451154728785,0.02484617621880635,-0.0140355925300937,0.02033160185985325,-0.00613256177775053,-0.02305949291257822,-0.02090946609954586,0.005975207637633717,0.01985563586341525,0.01477113588746466,0.01735615171674045,0.01271335218185897,0.03409264081619548,0.03287127919813667,0.0010246656374628,-0.01134295652846266,0.02592953234389597,0.008059895988394388,0.0006403492171404508,0.01235568403838214,-0.02882126863798749,-0.003736021727217221,-0.04064650317555472,0.008342000880913152,0.003801912554409411,-0.01350725033017922,0.000242509660511413,0.01917312051030991,0.05032171489676746,0.03584762965091131,0.00113504859345934,-0.01347926028392556,-9.956563794188032e-05,-0.009455171708155024,0.02484837364604994,0.00342814582906765,-0.0134524228634061,-0.001231697516698997,-0.0336751459767871,-0.0143706125008583,-0.004899352090984119,0.0104669715714482,-0.001652019587250169,0.01281013504777055,0.02589386197441527,0.02528531322580359,-0.02073176799902914,-0.01049157045006933,0.003832652468015736,0.0260956138102177,0.008679377140599701,0.01580248597550542,-0.01155792574546181,-0.02296436442573965,-0.03185955172057149,-0.02798713775569359,-0.04771312424781082,-0.01195548647597988,-0.01012371256911738,-0.006244618290500034,-0.02167432163948173,-0.0178688078045023,-0.04107573708325337,0.009972970758536367,0.04113914566339902,0.02438799641602608,0.0215667786319962,-0.01900289888163362,-0.008501667506621664,-0.00728019528150877,-0.008820203897556677,0.05785354755181302,-0.106196258154741,0.04338079064753167,-0.08296954425204484,0.06565492249700212,-0.1082122836957594,0.01285587854633593,0.07673387803561028,0.04252991595600467,-0.01900042943982968,0.0343820796938553,-0.1267688699188008,0.02552811097666825,0.0440159910314036,0.01864392402316625,0.04838471556578012,-0.06937669925415667,0.02168835831823588,-0.0600606377614961,-0.1088741927861039,0.165230038533298,-0.1043678466081434,0.1190961880473718,-0.07580616246363285,0.1925847838437005,-0.1069301989330684,-0.1247896260333898,0.00891159275867244,-0.073922505409532,0.05318040020866149,-0.0009167606345068003,0.02804802200844258,0.1450692386151001,0.01134545742666636,0.03365277778630377,-0.0250445583107013,0.001299200522607075,-0.05528905375307886,-0.04174630282649519,-0.1331005068847518,-0.0656669807898083,0.04160106366981692,-0.06944494616368074,-0.06959823580680326,0.06372666332219698,0.003203642156684829,0.004793402202431444,-0.08628898117856397,0.03636394199351915,0.0102015857375132,0.2693252316421746,0.03508623774052236,-0.1770801335320833,-0.08484680810687854,0.08457195190020333,-0.09704275363822605,-0.06764374366021063,-0.0636668988461189,-0.08323404654121491,0.07505972562910558,0.0534386263197014,-0.0145740485145291,0.04948686984326555,0.06909833566191299,0.03366425060620836,-0.07838535956306396,-0.09370569979997743,0.0180136358349039,-0.03416233231142651,0.1107015311533704,-0.06734293562040952,0.05687483582257992,-0.04803781177879188,-0.05738592372114263,0.10223147125511,-0.04392605847858198,-0.04007660179704763,0.05416013132571106,0.1625839252985378,0.07612082908946488,-0.03878158736095102,-0.02412086290351636,-0.08926513975211735,-0.02682932509576222,-0.02456147688810214,-0.01971485437547922,-0.04394874466899579,0,-0.01671326183349263,-0.03798665664222173,0.09757761896191103,-0.0641506181686459,0.0360738285114193,-0.03284184537421392,-0.005486621184472577,0.1081277154845415,-0.02130570508971045,-0.02776857311006826,-0.04847844379544934,-0.02059074852497494,-0.01469645947932862,-0.01333009343988188,-0.01066442524891518,-0.01569050236451684,0.1196966782499895,-0.03234683062944299,0.09639290636560435,-0.02591265116062251,0.09332872447282528,-0.03169247123201491,-0.03104701978333202,-0.032852596988202,0.1611724241018105,-0.001100257962627615,-0.01835209672681365,0.1396500726881197,-0.04226532648388906,0.09599661389975836,-0.06749543660045206,-0.04047229059401137,-0.01055456817884336,-0.04416128030905656,-0.03103792275421437,-0.02220794360983841,-0.07389987353903325,-0.01509380791846693,-0.01406210671333742,-0.01050931480079122,-0.0130982823256429,-0.01623461690547121,0.07940692016593273,-0.01304392135330205,-0.02599174744117849,0.08785355412397106,0.1232609294104488,-0.03989205894767948,-0.02882786388413328,-0.02070144302898437,0.08247488668382903,-0.002134557022566306,-0.01238457850626378,-0.02458144993026882,-0.03496236402965971,0.1082309915996691,-0.06779090798712231,-0.03409513013822998,-0.005056112954698075,-0.03417127759307804,-0.02494468478952364,-0.02522150395862227,-0.04047126036528494,-0.005848908897509707,-0.01009881582948588,-0.01526000123170697,-0.01657885145706785,-0.04471103551342098,-0.1544590029189466,-0.08453825052194172,0.01088459668525693,0.01111236816634952,-0.08220827287863902,0.05377510372942518,-0.007759632370978594,0.01459938076406388,-0.05179511202278628,0.08695711467178657,0.1080335294247178,0.1210324319958622,0.01976929047568244,-0.04203138334246508,-0.1608635949710806,-0.01910024755843515,-0.0278222143656677,-0.03020913771709063,-0.011586060250596,0.1156242342510608,-0.09390052867939194,0.1234374435257474,-0.09056327142638809,-0.0398460002048986,-0.04802772356185375,0.01036182740902373,0.04721990061777774,-0.03869439154683324,-0.03437320303502812,-0.0216177832419097,-0.08132352237225433,0.1415759991092897,-0.04620072247133222,-0.02582841662329426,0.09963480687089243,-0.001507414281624517,-0.0248126367484089,-0.03159843813187481,0.07489782906307423,-0.0699707830690014,-0.06392031933904957,-0.03957402446303541,-0.00604881598280196,-0.0348994493091709,0.09343223007712831,0.1107435321383857,0.1271135804479591,-0.005416661072084438,-0.01311551743080697,-0.01353577113927817,-0.007792135554514263,-0.02039220161515757,-0.07630352809275964,-0.03127065907255967,-0.04030745857725715,0.08573150089933877,-0.08520745605054553,-0.02435516012242545,0.08311763989130694,-0.03227703216199533,0.01893547728227621,-0.007342621384059458,-0.02477118161519086,-0.03568480051916311,-0.02844278875622449,0.1977722770902835,0.05923674199689456,-0.03045965565587024,-0.007050993756862657,-0.02630602903590696,-0.04244701719016405,-0.04374501694471162,0.09793614649523705,-0.0158235720326736,-0.005057524262387452,-0.01513515499242148,-0.02148259669614722,-0.0388316088042242,-0.0475794273642148,-0.03125905664208601,0.1054279083541229,-0.009392694893855085,-0.08826880412357074,-0.01834420363354533,0.11980591513799,-0.02958921731212228,-0.02681806797287417,-0.00119510087206795,-0.02428888097375085,-0.01852664285333468,-0.04050023525131987,-0.06740109215191589,-0.04928407752200645,0.1682452080455861,-0.01162080216886198,-0.03957261474356377,0.1309916758514607,0.0814554543779774,-0.05094876927017293,-0.007609157476858609,-0.02033351159612046,-0.01525006789738665,-0.01303521737000603,-0.02726954022306856,-0.1102900196919037,0.02024396776994779,0.01672131516640923,0.07267712376427472,-0.1400397719878329,0.09804493625593358,0.02851812238100566,0.04997287813495251,0.02659134210032021,-0.01017222775953455,0.1327802066737657,0.1546392078141398,0.01481515039745236,0.04077757393149375,-0.04883416719267897,-0.09536507864240516,-0.03566080368323795,0.1174036313079522,-0.06209152491326549,0.1433140620965303,0.01256054300987974,0.08439135767561487,-0.04629882551964574,0.1588811913604803,-0.04398335419730421,0.08820829478580788,-0.005719242738981075,-0.01189241369702791,-0.00279494064230403,-0.005560704034800841,0.1027825972365225,-0.004632397676864464,-0.00141619812817958,0,-0.005606803910071038,-0.009583760507881393,-0.002939403173464141,-0.00788334745048164,-0.004705828931919213,-0.01361499789246986,0.1180696744559984,-0.004839324262564761,0,-0.002166774272707487,0,-0.002915394517653086,-0.01034403086353454,-0.003160883804069397,-0.003187774301384045,0,-0.009135881497696457,-0.001893382747798135,0.09073284364090542,-0.02992480649595979,0.1377051221055274,-0.02386579453537048,0.03919082375562316,-0.02068784436087204,-0.04273793733268996,-0.02060467221696628,-0.0552833256932861,-0.005293968187622203,-0.03409924269572117,-0.03239913838067015,-0.02673909871897363,-0.06434690575339318,0.05868042043118531,-0.02954065867365362,-0.01107215087876845,0.0955858701072597,-0.02760121273341593,-0.02664902125275018,-0.0598689578863464,-0.01417634818107904,-0.01768700772682179,-0.01567012363402788,-0.01073002362486946,-0.02891024901150351,0.09951040771691662,0.136144772354483,0.07409730183153773,-0.04474827992961767,-0.05969721893225673,-0.05109353612834412,0.044864466483552,-0.04561758356413673,0.08416276195034433,-0.008813471990535674,-0.0455114147988914,0.0958286171236879,-0.06974553563247966,-0.08748040168200244,0.01175167567565003,0.06911785174597146,-0.0223517305672647,-0.07565077625391545,0.07734837020944768,-0.04045792726652989,0.1098620315818129,-0.01478076047175614,0.0818861157152473,-0.02596038269224631,0.1159278262459506,0.08795274079872709,-0.08589429998284488,-0.02752644634519767,-0.0368251273363783,-0.02253371576036964,0.02107749426765651,-0.0251711544848327,-0.03402540672319556,-0.0171790112217792,-0.05414317519866563,0,-0.03061408552406501,-0.04077591875174971,0.02966777439451901,-0.06709360322157698,0.08346270542182527,-0.03966409116817057,-0.009821001120231342,0.08170554252576449,-0.03375726763549834,-0.05065130164400131,0.07582816054407833,-0.02526791614327791,-0.02144130230943784,-0.01916591193432169,0.09013131709393832,-0.03586048131010957,0.07493569044547556,-0.05881404470953523,-0.06257752053824578,-0.0547444031567263,0.07670977519480532,-0.04703982947840008,-0.05092514343393924,-0.03363768731501835,0.2118052125464467,-0.01022217926623211,0.06786587655929768,0.0483976642138064,-0.06539596742584435,-0.01297533458245759,0.07881213033848605,-0.09331750529321398,-0.01517439621284914,0.04645866343537134,-0.03824650934185855,-0.0437082774279233,0.07914954878066234,-0.03525723196917124,-0.03371811442002158,-0.02035534236800447,-0.01735861498989035,-0.03262443981665177,-0.1372957332503781,0.02292352097084781,0.08827071317416305,0.08001657203486982,-0.05219971118215846,0.1101480112425347,0.01448655065328374,0.04082682748406902,0.04420239111727781,-0.02258137253000042,-0.05814621069868391,0.06719284233850291,-0.1022206161830366,-0.004734394990574853,-0.05771219491304726,0.02617632678850226,-0.02206212548566541,0.1211267874346952,-0.05841301108222322,-0.05657029265897649,-0.128596206295114,-0.04081697913812089,0.08336823455483559,-0.01999923080236413,-0.06149113908428927,-0.04226473238879185,0.04221651374490228,-0.01759322723983912,-0.02563323604489154,-0.0374420518638341,-0.07444275012190643,-0.03122416263206751,-0.03279324805194091,-0.02482880926707857,-0.05472333121001652,-0.003806330800049667,-0.02093808697934116,-0.02823691513770796,0.232237076458351,-0.07183835605461526,0.002830276000804402,0.03892190830309587,-0.0121360349082244,-0.05266736573317578,-0.04344661151510579,-0.03272031292367684,-0.05613907712013649,-0.01419701496309704,-0.01390078259017925,0.1516288368862889,-0.03149354029082837,-0.03197434743019066,-0.03415333124750899,-0.01398999849095893,-0.01248572311995713,-0.01268088343573543,0.04208112193286992,-0.003897039468631458,-0.02783534131781613,-0.004504088448131103,-0.04001682226487205,0,-0.006598716517593874,-0.01624941657858452,-0.02052411529088315,0.1222479739420717,-0.03017063970074072,-0.01493948909230061,-0.004564626010411685,-0.01942240128544041,0.1244275989756759,-0.01080460680961355,-0.02168806741083295,0,-0.004878467408123079,-0.00721349410469037,-0.005503486572675543,-0.004479178189032231,0.08143758845678084,0.08103152468683485,-0.02862200641407232,-0.03852717594789894,0.1083590881043195,-0.03963556453369939,0.08520607682741521,-0.02252448803768954,-0.08178459976966566,-0.005496893577939867,-0.03472825617432104,-0.0387267275760354,-0.05255701694306465,-0.07958927402985276,0.09823166714575136,0.1324681429678051,-0.01204159775671964,0.02811655265702809,-0.04763341133185794,0.06486054781222417,0.05218712040863386,-0.008900822402466585,-0.02961410520040578,-0.01199752144188018,-0.01007168266674,-0.04409981729075622,-0.05225404746161003,-0.01990381749624711,-0.03020387952272356,-0.02127793150306952,0.09566998053469243,-0.01556229877203271,-0.02452224569659064,-0.02918619741614032,0.1273989635597842,0,-0.02301731854570008,-0.02987613054939213,-0.02263105580833154,0.1356673173306353,-0.05525433944594008,-0.01511803164811612,-0.001557554372632076,-0.02894144403734453,0.08611121548964362,-0.02487144676695011,0.1331170173547145,-0.01792200157459902,-0.01915894513600149,-0.009374490243108774,-0.002908393745529332,-0.01225883501481031,0.1210930036693083,-0.06613497568881933,0.1270070838385307,-0.03007872226622789,0.05019288582844551,-0.0186115775800774,-0.0351348052467254,0.1093685071303393,0.0747293606300532,-0.002533602746050559,-0.02677038298432248,-0.04409301400712154,-0.02544417862722947,0.1145420670623845,-0.0648335325658435,-0.04565652122368825,-0.008250111229722794,0.06492565099781095,0.1187414140049388,0.05432987855034308,-0.05473565974958589,-0.01336429585890447,-0.02524776807883943,-0.01556652978337036,-0.008097589050802882,-0.02745539413487533,-0.08878194972941268,0.07688939544668116,-0.05149466748577727,0.05312659520220756,-0.1126991904352498,0.09851923028008687,-0.05741340671246796,-0.0235761691752399,-0.07854843350052312,0.1425880184200011,-0.03950213184441669,-0.05099163421483484,-0.06061570514435218,0.05763063001819694,0.06405412365600339,-0.05046048236333073,0.2460585738701183,-0.04314474436781474,-0.050094621587472,-0.04635988118411759,-0.1250565088602708,0.1132075614385592,-0.02333291434631229,-0.01236911928204861,-0.0192886581122762,-0.04215967256657942,-0.05580083901213295,-0.02009606887702243,-0.01522211847039563,-0.02018463708839773,0.05305921657159413,-0.01976846320739155,-0.01952053737205017,-0.01148355055035681,0.08224515942954806,-0.007537642676134173,-0.013675422183427,-0.02331911603189497,-0.005499631871592097,0.07552854174790703,0.07243824935333083,-0.03381367365962538,-0.002577744615827786,-0.01804388840230338,-0.02147594295607745,-0.02942754554972741,0.06222587307837538,0.1771537035003582,-0.004311235707496374,-0.007554190520073504,-0.004256310458343473,-0.01038492147456708,-0.06862890086663397,-0.01520037641634729,-0.01072510755149141,-0.01345450570202875,-0.05897526295777394,-0.008127377569415312,-0.01256129173737189,-0.01293427796264896,-0.0281777453168466,-0.0005131036177242774,-0.00965297864616526,-0.03785213500364049,-0.04046911166289893,0.0619135236033424,0.1271890284661762,-0.01755778695309579,-0.002985561720487868,-0.01905924313621552,-0.02085160832539472,-0.02368022911849378,-0.03146219940922303,-0.001375419251508558,-0.01721206654577819,-0.008339853876224651,-0.001248784503153684,-0.01105781622144779,0.1650128619088108,-0.02023432066852583,-0.01952397878503443,-0.02092319746051634,0.1418521020456745,-0.008531981701583438,-0.01271342668670457,-0.003568423168019253,-0.03458726340274258,0,-0.001675725414536137,-0.0048745222066663,-0.006148225167509967,-0.0201317808708904,-0.0191563387964748,-0.01497493264016047,0,-0.01316909413416295,-0.005007196385226185,-0.007888691426102566,-0.01955659377642658,-0.01019336094547296,-0.00888430757536097,-0.02333132372181314,-0.003432283929880939,-0.01591705213515241,-0.09424150856257797,-0.01238242176152165,-0.03199237127954658,-0.0274802913191268,-0.08976481962295144,-0.0138207350510138,-0.009770895202304194,0.1607235116889668,-0.03194425869372023,-0.001514201538888495,-0.01199280275387811,0.2648676241424535,-0.03840743272387031,-0.0904956694151713,-0.05947293804277582,-0.01489077862025339,-0.002783975866176879,-0.01922838014181486,-0.02029043480882742,0.1130442128636189,-0.02929875680287456,-0.008884682035222934,-0.01707111515258756,-0.006268462390046822,-0.02313622011286285,-0.02472508452019172,-0.05653098643577419,-0.01521105342656599,-0.02438020519705598,-0.02061981168580285,-0.06838050383868562,-0.01174383490165288,-0.01478355793046188,-0.006714911934837032,0.1972685402406352,-0.0007194623441800498,-0.01989219592561344,-0.03198468865521348,-0.0436185654688785,-0.04090903775312243,-0.0543906026531997,-0.02381885524998653,-0.002991689542655439,-0.03670410253426585,-0.005102037868545777,-0.01375543579580737,0.1791235976513387,-0.001505172191127025,-0.01388182871758163,-0.01411839451322613,-0.00113068201319157,0.2446054737209685
