-0.01763663197441084,-0.0268061138365273,-0.04166028084403314,-0.04317823537626572,-0.06039605490842351,-0.05171138898484578,-0.005175117455345366,0.05878890588986786,0.1031266804983173,0.08924739930778738,0.02963967599053143,0.01637173596618987,-0.003201370463998977,0.0007563252091949632,0.01907995876528891,-0.02317783851128697,-0.01187461506735726,0.0236223923710332,0.01136678404268548,0.009910323872172838,0.03169355964346041,0.01528135351737828,0.002885302178227544,-0.03270762901507041,-0.008097320085159492,0.007943959873061675,0.02007071986179261,-0.01503792062713862,-0.01373999111666326,-0.005941492409288713,0.003739172303612735,-0.002817690774986179,0.03715352478595416,0.03382179780561727,0.01026341820260111,0.01802430074861328,0.01618000775726226,0.04860276171899984,0.04434542575517823,0.01080285060929042,-0.01846287968270847,0.03604684716753977,-0.01726266144479373,-0.01592213159809798,-0.004258761911845822,0.002469363113924579,0.0003941520483458159,-0.05063499147609396,0.05171000896254117,0.03371812630314622,0.0415172496676592,0.03336476924202161,0.04220145660027595,0.04180009099680609,0.03111068081697254,0.01064154073525949,0.04499201061422882,0.0006584815302784949,0.003090970721505666,-0.01655798662792943,-0.01991863888176858,-0.02832115112041423,3.715838437683364e-05,-0.05618805990308812,0.02995366672140015,0.01205061322868521,0.04250730449352251,0.03735181748535892,0.04484628491805371,0.01280173123553162,0.01457325875589945,0.03923261191105425,0.06160518813119544,0.06335251567226967,0.02165083832568948,-0.01802689532037347,-0.02273720077646128,-0.02937366983378455,-0.08421337256849769,-0.05471305972046097,-0.00908019794973461,0.01693575454022654,0.02379302811352508,0.02169933713534717,0.01700277415530133,0.01735057841292743,-4.598481435207063e-05,0.06000966515328408,0.06857841358312369,0.08386929768626621,0.03890546905769888,0.009617186403757036,0.003511165149269197,-0.02061557979912218,-0.02743740196079873,-0.04618564090107628,0.04050722862670224,0.03372559617629509,0.0190745765544703,0.001913303851547308,0.01139312276116463,0.01162780105707077,0.01651766945748917,0.05478358648416863,0.08589285678853978,0.07475776074163482,0.0525339199547321,0.02904756807526693,0.01890738837007316,-0.01100131757256885,-0.01086470239780094,0.02125757358075581,0.007269039527233018,0.01575153217277083,0.008926787048252376,0.01190724900917138,0.006167738199247115,-0.020072921484439,0.02254050950542376,0.02091925396280174,0.01249289212950045,0.05385610285368119,0.08353132547570687,0.06447658329309117,0.06595532083362315,0.04597410102521046,0.002559238782748815,-0.005307507079740237,-0.3321364096920415,-0.01216778291947968,0.001233775636876432,-0.01017857656904174,0.03161569963848671,0.006352942566553919,0.01759541245322423,-0.008200215058992861,-0.01634757821006534,-0.00949276717991164,-0.02518391709394262,0.004960941842219407,0.013470408223808,0.01776346424576999,0.01870677716532937,0.06865232047405241,0.03476767196374545,0.02104191610393575,-0.01508135010212847,-0.006835065860965626,-0.03888986114611888,0.001810527724951603,-0.02507558093069427,0.01569832338949346,0.01999546105725574,0.006841231743911957,0.03791215757427104,0.02997618655776315,0.04724944752512043,0.0302728964888292,0.05876110013683731,0.026037702581915,0.07907602286294861,-0.02172929747700979,-0.03545479778275626,-0.03880029679756345,-0.02795209824243067,-0.002140993884141478,0.00217679314767979,0.02067233031508246,-0.008444740306539147,0.04297391989602284,0.03708589668563322,0.03987349337625126,0.04221680684446744,0.04232652574437323,0.06163545319088827,0.05903592536794451,0.07501116498500053,-0.06243351084242414,-0.01235714981043797,-0.06539682177996144,-0.02177023809305384,-0.02099124466408215,-0.02467646652906316,0.01813310951424744,0.02043547009381927,0.02368380780114425,0.02457391211036696,0.03512511197022933,0.05987369133408332,0.07497187846112376,0.05034310492252606,0.06467799414518824,0.09194206047159964,-0.0425876851678235,-0.01743144342102836,-0.04281374682821477,-0.05114902127439894,-0.05651216473155906,-0.01553461240022442,0.003402391151719378,0.003610457633372803,0.01166037360724213,0.01956483205621449,-0.009972509725136292,0.02033491437864913,0.05145139228491507,0.04878435672755571,0.08131702165602819,0.1061192163140733,-0.07503456804669652,-0.03070447954031857,-0.04591052863129186,-0.01658970279879187,-0.06128319402856532,0.01049576399794337,0.009333618049338632,-0.01077682317588504,-0.0118824626196556,0.01303134343425516,0.007861785321281839,0.05036918274565982,0.03923302200243948,0.05850209765206645,0.02718374128290292,0.0680414438931984,-0.09279195663854013,-0.01457369982262625,-0.05437694792555565,-0.006980557292373143,-0.01843289159373925,-0.03501150855551619,-0.06104752700388934,-0.02316225791214514,0.006471331211662399,0.03174593408944111,0.05836445013073272,0.07037434757761744,0.04673587424725801,0.0522447147375153,0.05289117093892294,0.004682099037113354,-0.05158465638446015,-0.01086691710902302,0.01356859947365553,-0.02968270039439674,-0.07939640814476771,-0.1362086641888587,-0.1215128117095035,0.0005267696758388114,0.07461298664460075,0.1093655011699587,0.1083053445972054,0.0964827833273179,0.06776124030522103,0.06021236801414006,0.01925266572633465,-0.04485780949905165,-0.3209472334262209,-0.02342182027333442,-0.04233038752990738,-0.04932321565222866,-0.05655279662818501,-0.04701211041017684,-0.05307512380502288,-0.01876798325808646,0.05943358349808253,0.1127420017537205,0.1094614242897054,0.05363237896030759,0.0008239460895343606,-0.01447956494555715,-0.01256298398994261,-0.01730315502629213,-0.02990186449070957,-0.003591138290535653,-0.009366318268483633,-0.02743575359790322,-0.01785518543118219,-0.03268182935118146,-0.009530842711751107,-0.04592062470388573,-0.03429013109853835,0.01234698071432164,0.03519559089940754,0.001149713835830152,-0.005558895434052704,-0.003976176969061893,-0.008240250694694371,0.008648114122770612,-0.01614609155111478,-0.02591844410019253,-0.007151157734678348,-0.02429751063765705,0.006924962187441416,-0.002134106595864554,-0.0005712232074997325,-0.01171118658142863,-0.08770548745735333,-0.1059364776154992,-0.0122356823724869,0.01625844996170355,0.01121375847310105,0.02248121680907749,-0.003219910984943342,0.002945748267771088,0.02447616309172878,-0.004247790660104083,-0.007629015743920348,0.03268765939082739,-0.001427750697145295,0.03302724925394423,0.0269566025151733,-0.03227710430904295,-0.09940750264772676,-0.1227294753368437,-0.04861930926320007,0.008624712833366572,0.02692749140413781,0.01102020857812583,0.05014731004539615,0.02355185744230421,0.004076078436879573,0.03299688501896603,0.02138035069248911,-0.009420244177503057,0.03161733387486595,0.009125227844737124,0.007059554652694537,-0.04578772072558104,-0.02636341164002916,-0.1175729830195107,-0.07179502119367333,0.01821073264574145,0.002355443541963482,0.006372395927626299,0.044664784499207,0.03503550467263525,0.04445879311975632,0.0234162239674832,0.02087574757546191,0.01870251787889684,0.008377664212500769,0.0115912371342904,-0.001899074182428382,-0.04171663219447826,-0.04414299106756837,-0.09089236316251086,-0.02844238967117973,-0.03446945350105848,-0.004532749566934007,0.03140100047126077,-0.007672624179274955,0.0239198073037887,0.05487640484041955,0.02508455120957492,-0.002229215506778811,0.003166671319123098,0.01745314421476328,-0.02745195773837181,-0.0278957024147257,-0.006170576538348988,-0.01775477017100012,-0.06087588688943323,-0.02900131799577006,0.005286519973372624,-0.02684891034105353,-0.009686433626894714,0.01437932874761083,-0.009627305457492821,0.05850937460670043,-0.05042452651417565,-0.01608008403255427,0.006649214592549984,-0.01808408128016033,0.006915946290019404,0.006013407431060532,-0.03153468540190445,-0.09615804848711154,-0.05380939821519591,-0.002120187369334097,-0.01958552773493361,-0.02484918865048678,-0.04935171003922444,-0.001308134422685873,-0.02122024719711319,-0.00172377087325115,0.2389694971612922,-0.02371174259564155,-0.03387491777816755,0.02317781679430339,-0.05274867049234155,-0.0518860823387081,-0.05166791573526806,-0.06700099583905925,-0.07124191434155945,-0.004109727095031382,0.0163101460900732,0.02311846520108592,0.04589040907986396,0.03444975582767392,0.05140520508109132,0.02863921211647882,0.02907656297290783,-0.01416402545320209,-0.04710381501436796,-0.01297486469312878,-0.0216849413789828,-0.02847716555800244,-0.04493294846059866,-0.01100837192472914,-0.02722416230898002,-0.004405118996531101,0.02849216852170689,0.002775568039533167,0.04096693355326615,0.04676763711722257,0.04147532804482641,0.03334701887908582,0.03018887999343658,-0.04521623731642774,-0.002075339071029513,0.003934346720122918,-0.01908553325161723,-0.02729744877133312,-0.02458776977366564,-0.03060646753515893,-0.01416706292996812,0.01294324766859541,0.01868517169978415,-0.01349354158039414,0.01205576168861781,0.02357099591276126,0.0441122959150305,0.04777935780674637,0.08109068389209949,-0.04811109781849015,-0.02248965401012465,0.01464035851459691,-0.007481313356646263,-0.01479272121408395,-0.03467682392463519,0.001496220315255176,-0.0079095908361889,0.002211827321864811,0.005334698089073916,0.01257135421715958,0.02393156852459404,0.04604775104373812,0.02124040351276579,0.04361122000460885,0.06067806565980594,-0.02790445123360309,-0.02879498527033718,-0.01026810239705228,-0.01932113330581936,-0.01546335869484971,-0.01353598577120718,0.02973081372879798,0.005752013578295745,0.0407001251677238,0.03151893488146287,0.03945614193615037,0.06245630209451004,0.01645121086760935,0.036293615093223,0.03167081618732333,0.05449006688511927,-0.029680391996421,-0.002580339285157136,-0.01317541979865196,-0.01529233580632526,0.003735941063255415,0.00610436763730239,0.01268714643749672,0.02171970711601611,0.02052243406408316,0.03627436047573225,0.04057738792876613,0.07037028207073323,0.03182806659180396,0.05654727547751139,0.01894388382098498,0.0001632907095693834,-0.02144186604798678,-0.04991637471958226,-0.005360071959920237,-0.02954867805008686,-0.008419604381404698,0.03321309970835529,0.01940358741883584,0.006455419482021487,0.01034461318143137,0.03501268147323158,0.04792892555684546,0.03628177288289907,0.04569724769370407,0.02793902144344617,0.04598513894189664,0.03879840346134446,-0.01579608873977835,0.0169782072299721,-0.04907354062038945,-0.03189472816365451,-0.003296754579331051,0.009863699724678057,0.01955920811453295,0.02595827582001957,0.0251624900827302,0.04404083436491833,0.02670438627493117,0.008311975801208443,0.0565580019123282,0.05352224655566411,0.04576042925790325,0.04762700565210148,-0.1621887658544022,-0.05958052275471788,-0.0361930882012975,-0.02127113761257135,-0.03869817167960566,-0.01408848157462921,0.02534530532667147,0.060249253970415,0.1014337848220605,0.108222889415362,0.08930328078861852,0.03370506392598509,-0.02318936397688384,-0.03413731845580244,-0.03709085426965844,-0.03173275966768568,-0.04137206709575775,-0.03582797628408332,0.003574688268034557,0.01583399187140547,0.01494424103154929,0.02953281277981383,0.04513502387149611,0.05018463917366128,0.06755430655297109,0.07175371536933582,0.05895946961957201,0.0005349059156686676,-0.00754420080166656,-0.001426185859635298,-0.007689188476365413,0.01517923711151567,-0.03253211393276986,0.001391528073319197,-0.02377055272782283,0.006814919553261965,0.02571768732375509,0.00959061494387491,0.04271392261809955,0.0402623754990943,0.04325926483827595,0.03499522202472479,0.03263320298205702,0.02702528769959001,-0.003070053699150095,0.01603857829526461,-0.004634757356600157,0.01967721371503359,-0.002577067221968802,-0.0004798168598839031,0.02199948005556442,0.02698444089287659,0.0246984268995326,0.02950205498156799,0.02614292719566933,0.02903926824305023,0.00513535360897586,0.01004900347438763,-0.03266646901879558,0.008404077926792732,0.04742188743732832,0.01229700873296649,0.03045005211696582,0.02891376604022232,0.03756963644024465,0.001637988473420509,0.008751579082018294,0.01856581273789014,0.03589879108209217,0.02910790402677532,0.01446809851958328,0.02190140926865867,0.01698505365568581,0.003254025999998847,-0.05221143070886609,0.005541926702015068,0.01567889680620373,0.02672645947998474,0.04736520759892818,0.01451171648169554,0.03116131958619158,0.00417173280708528,0.009448568458507197,0.01078063415793161,0.02633601177909797,0.0141636739793891,0.02427936750127557,0.009870002150083114,0.02250298437227721,-0.002400038972920088,-0.06768258316598989,-0.01571738324839702,-0.003188676143192148,0.01138388270069377,0.01266932109307944,0.04252299926327784,0.05051647347050905,0.006500581569883844,-0.0005248721209088565,0.01661295781697288,-0.00409800747084654,0.02283942644117592,0.01122608620737354,0.01799921465350196,0.03282359661599632,-0.05257950655219298,-0.02111399762182258,-0.01002329452978424,-0.002638420283083565,-0.01297761512688207,0.01254478531786132,0.01517307709558728,0.03501861563422318,0.01594996162782215,-0.014225488505793,0.008092177714889523,0.04104349809527449,0.03607711271531988,0.033286573125485,0.03789299337145714,-0.04930884083180453,-0.07382702925101915,-0.01510603799834168,0.005909794058276551,-0.009656107988307482,-0.005347731951112006,-0.01522948203442528,-0.007604361796037614,0.06733319820964954,-0.1845187122563118,-0.06303060176859902,-0.001851904311347828,-0.006986290146662098,0.007216178625390798,-0.01147668225098255,0.01047105323765686,0.008169081070314013,-0.02081808367398201,0.05201085886170811,0.009251241236109686,-0.0004343010087235126,-0.01718206381995291,-0.03333258259426714,-0.0570489729832087,-0.08656940341482607,-0.09298985050783901,0.01735727543028252,0.01768151243633855,-0.007456697266328809,-0.01238753118354474,0.005808334074048814,-0.01784361866828574,-0.0003614459719260839,0.03103234708663863,0.03380148131563954,0.03473049182144209,0.01748046807888345,-0.003384888086387614,-0.02319088758657944,-0.09127214267337813,-0.04984052681610295,-0.05539018266118548,0.03039244322115973,0.04020663747871751,0.01715980456353777,0.0194325022751618,0.009986967993902311,-0.01648596572685712,0.01221879417949879,0.03859829312368326,0.02504094901918971,0.0215737281325698,0.03575620907758948,0.0006072460068103633,-0.01845455822013397,-0.06715397506049162,-0.05536898772566645,-0.04378346291614044,0.06904077945077368,0.0138472924711881,0.04013528249297149,0.04882853680288613,0.01330954604207035,-0.03156279051231337,0.005900619436286521,0.03631563822186484,0.02098020265458491,0.02839145568781377,-0.001749189824892728,0.03355040784067263,-0.007832964069150662,0.002098769487141128,-0.03503829481471498,-0.05491597858142641,0.105760084689082,0.06185100845277443,0.04444113766767706,0.03021759842395184,0.009037852586469249,-0.02069598242024851,-0.01894827283878099,0.01660610135227546,0.005536852866696541,0.02931460907522236,0.02831236245737366,-0.01402929577626508,0.0003883706468529257,-0.01481069060323303,-0.01297217099922528,-0.03138566423752892,0.07763076803229399,0.08134997568246619,0.03968277369103981,0.01602963590589233,-0.02967218344002907,-0.08290087624261019,-0.04073929015325622,0.005930958142006738,0.02199863798143335,-0.004635059641697057,-0.003779980621924864,0.006273205338577123,-0.0344275757317268,-0.02619853377671249,-0.008519745826798592,-0.05899087054803698,0.1017090975011391,0.06498499653686969,0.09456234116869365,0.05958917585934513,0.0252827448134167,-0.07365843484976313,-0.03494846733554526,-0.05758824623436588,-0.01602666398874672,-0.03974768538943693,-0.01629604418138095,-0.03170413191703085,-0.05108508332585762,-0.0416644015334466,-0.02501709005415249,-0.0728567247751158,0.07229786039898495,0.08979441211168113,0.06002721099181454,0.06669065574558737,0.01642948171461377,0.03168231992863642,-0.06470453620576211,-0.02263625806196459,-0.02508553207748679,-0.08344497798936959,-0.05850918073990169,-0.05856313174310946,-0.02616750002605127,-0.0530410866954821,-0.06636223041635582,-0.05286506614544527,0.03114073142111314,-0.02284863983668268,0.02730146881044286,-0.003613340164274548,0.03922081264560624,0.024243714529032,-0.004302605073405937,-0.01564145501088328,-0.08910265587126261,-0.05256833366303756,-0.02069838996910824,0.0105870922320197,0.006435935680276411,-0.008794034216915323,0.008091225729030571,0.004519299061863116,0.01551044779810303,-0.01726494862053217,0.0237204718873699,0.04046934528094349,0.0168734940745969,0.02439580007109525,0.02091765884123708,0.006953291727113549,-0.02304258608572355,-0.05492892725580024,-0.0578321445976119,-0.0195819269977166,-0.001772751838146893,-0.01287361722187275,-0.00858601212794303,0.03276199439397389,-0.007308470129373458,0.03407862100054433,0.02172197933406571,0.03068604535225023,0.05255113016869779,0.03381376384628187,0.02757290058820604,-0.03189762870507569,-0.01719953820832074,0.004070801329941965,-0.0331066569103414,-0.02779971045712338,-0.0219612426466592,0.01133630536437503,-0.002739824132443127,-0.004266308813297077,0.02108438519773395,0.03420183615431911,0.03557162332798072,0.02910222695773683,0.05132325966369919,0.03358799357395995,0.02231939517027834,-0.0005438899030171916,-0.006094750481172021,-0.02394738148249063,0.008602511701254346,-0.03245903048578783,-0.01695016359774184,0.005430542667893282,0.005387316001934928,0.009510039660685634,0.04013831451356838,0.03786798554430303,0.009129444665502801,0.03681636740244662,0.02375521121211751,0.04348012565426464,0.02114713059638057,0.01218197092927755,-0.005612692243072148,-0.001129061175912204,0.018400950308032,-0.009439126587315435,-0.003669211453908789,-0.009901120968349041,0.008286081784371463,0.004691860077263736,0.03942874729373489,0.009015661090660813,0.01881798190983319,0.02135931766912958,0.03056443123401853,0.03927500967331085,0.03514488012561784,0.0200349103494169,0.0001509219782395859,0.04055148554886396,0.03307193225961345,0.008739797440510127,0.01226627423456974,-0.004788336905003037,-0.00654435541319731,-0.02301847003260089,-0.01705637818834739,0.0497531195920656,0.000405626185487317,0.01336812500550357,0.02957533609664465,0.001679124135965952,0.03178155315762811,0.0432791988703136,0.02247822588597701,0.04328941579941794,0.02810757548747564,0.02891760477431247,0.0009584420749479046,-0.01054184100408397,0.004593947053862218,-0.005693923470355146,-0.01149086871582685,0.01845938631705046,0.04820786674473423,0.03199300362839494,0.00424387134627718,0.003724430629406434,0.01972550367964925,0.03646966291384926,0.004125456312305756,0.04000406369996431,0.02892387622618307,0.03460092242447528,0.02249321526804763,0.02439983522430849,0.02052442774058065,0.001688579115614883,-0.0004629227279233316,-0.07194666389459642,0.02630886138536945,-0.005389671089048914,0.008914656982749711,0.01734941929729264,0.02691807662098202,-0.03868550512638051,-0.01474432655039885,0.01694449177686762,-0.01542268323091967,-0.01368584946506255,-0.02903743364220591,-0.006385787947017821,0.02547810360002804,0.04349045029996274,0.04841900859296745,0.01891267365618919,0.0164070834324618,-0.009537461544144024,0.002998906927054474,-0.03136383264175219,-0.02155425623695559,-0.01440170672028945,-0.005067937335318394,0.00443561130456176,-0.004854034237632129,0.003507512882964291,0.02247000666625339,0.05574419590941315,0.05181695560959992,0.05867686354602197,0.01017657262747493,0.03886623027124421,-0.006202316273154413,-0.002596412861363008,-0.02681218089389788,-0.04473303279220008,-0.02006608620040596,-0.02438377665783277,0.003383850419861975,0.01065372022009912,0.0003984815143588953,0.02846425417163434,0.04418110653592683,0.05880568140085896,0.03478093897347419,0.0309883572907651,0.05048651791869854,0.008047704988291967,-0.008269741664006746,-0.001253650226382017,-0.005362596952726562,-0.03292975485666521,-0.04675689317158791,-0.04488997092203698,-0.01861381536813637,0.012814724188274,0.01002018228054403,-0.005686420520627205,0.01472370104739642,0.02210092658628875,0.03490734036204288,0.01632054387883236,-0.01035095062918321,-0.08926531084497009,-0.01399334631570341,-0.03717774324094259,-0.03116228504791055,-0.04153879171945085,-0.0416182973839587,-0.02577066311842927,-0.02663776260088868,-0.004181242510329895,-0.01821806501629176,-0.003385739124397174,0.0005005526150996111,-0.001521188688406362,0.009079082607230624,-0.06627276996479761,-0.0913512225196072,-0.1315201296709134,-0.02276944658140884,-0.01398986294206342,-0.03902646590473303,-0.05408507893876432,-0.04361191219064716,-0.04170990864980441,-0.01300407317593051,-0.02690990676382387,0.01554126560371069,0.01525988655284175,0.02796753614236855,0.03344894223873296,0.005860080253564695,0.02578151664262508,0.02488763955649382,0.08388102795620445,-0.03567240453601715,-0.01336332732434772,-0.02828674869814349,-0.03868812792321753,-0.05610709745663377,-0.06253384527612985,-0.01184218509087252,0.02278691695509397,0.02360549819512809,0.0170812895407399,0.04425221796138123,0.03702376736756863,0.02984964854383187,0.05586801170387952,0.03807046502896547,0.07141634583304074,0.03289211585618512,-0.00375821972430171,0.005369283368505767,-0.02152906945720486,-0.02423322563853162,-0.03841881156367243,-0.06316455854273813,-0.01686671938242104,0.02713194620298522,0.01582089015373578,0.03616222114954087,0.05550794366270092,0.06239573480702122,0.05838376142802165,0.06305048983159785,0.06798867664811629,0.0700845798813875,0.0207718716350127,0.0164655342745176,-0.01165688857768153,-0.02226121906370497,-0.05471188276777943,-0.1244491320804369,-0.06857590667946072,-0.03795274619252544,-0.1101596841153422,-0.08502287827045492,-0.02443320255786013,-0.01649052566385773,-0.002437475193654121,0.006795794721322497,-0.002761916061813309,0.02195955360371649,0.03533191137712902,-0.01688032404464302,-0.05053333572895936,-0.04010423021942449,-0.05946512152532634,-0.09973175272963024,-0.05703755260519519,-0.05433228787515841,-0.07679799721014022,-0.0508121542047486,0.01217795722795462,0.008215972892705932,-0.02659727549272395,0.02550557395664039,-0.03160308624962072,0.01091694985774305,0.03072171923617503,-0.01483292640548498,-0.02150958809205981,-0.1207757493331452,-0.08596554020584536,-0.04352418764161438,-0.02136143637837639,-0.05828664745557755,-0.03481179753230633,-0.05415068586684865,-0.01488677635119604,0.0009887823750777207,-0.01754614588855091,0.0124152508494721,-0.01625445459856718,0.004220344872968169,0.01014436745068199,-0.00323725830496559,-0.07318577330455563,-0.09444376548489128,-0.04999585756728812,-0.008459313195666581,-0.04440851881082977,-0.05171625156432116,-0.03292662434778527,-0.05169109829826428,-0.02434078097454916,-0.000853082583583373,0.01655262454695774,0.01006228484158618,-0.002885235665738084,-0.03335276328874956,0.01457465528805308,-0.007537360529011092,-0.01410874363390277,-0.09862516781371174,-0.05541050064965395,-0.03472052006400421,-0.05280033080479174,-0.03640731422221305,-0.03437612585082463,-0.02754072918024331,-0.008162919590872758,-0.004866314386416276,-0.0001017293706309839,0.01850573358316924,0.009387436218861048,0.007195769273235292,-0.003631029201476728,-0.00508641605457747,-0.01868428312946877,-0.09340237588732329,-0.05708993707757121,-0.04057156699085384,-0.04872241108694224,-0.04972032859053555,-0.03857480434765582,-0.0113932717922586,-0.01771112127826651,-0.03302857631060727,-0.01064624543905644,-0.00974097737228604,0.01647291719323726,-0.001611344874789516,-0.008926641548055664,-0.0176505193913086,-0.03833132337102951,-0.1054256655052324,-0.02799605778720997,-0.02910577578662433,-0.08853585433489931,-0.0560295986396669,-0.04370154849608442,-0.06992477973216524,-0.04476163882797319,-0.00914680320520188,-0.03086968667139803,-0.009937671368891208,0.008875748079969308,0.01275082808859348,0.02906152414172518,-0.02102936920778806,-0.0608446777790109,-0.05521769107364677,-0.02787053151338611,-0.06223691623838938,-0.05683860432436358,-0.1009906269110546,-0.00790006311737978,-0.06403198303824643,-0.06348001233350356,-0.01108292738555616,-0.02756380285157715,0.01043399419330457,0.00440709751649023,0.04703921801103298,0.8950748509237503,0.01469936264493512,0.01213470966406024,-0.02800632051025408,-0.02447445721631598,-0.01782160883881127,-0.01991417544150186,-0.03621033774499306,-0.04025833822618013,-0.01899589002199988,-0.01843833405805111,-0.01195816392992519,0.0002220620151896958,0.01432550745660671,0.001117283038670653,0.005024220934507225,0.01112472057682535,-0.006954824900638191,-0.03022291804746537,-0.04006782024612085,-0.03137413427665949,-0.0237988013483904,-0.02107989684637231,-0.02673980828017907,-0.03385774720450961,-0.03249960449741646,-0.03245032671543743,-0.01050326615106109,-0.01461919869603964,0.004288933358804037,0.01633845341072132,0.01893527127492187,-0.008735719833250475,0.0130340556880391,-0.008002010007463509,-0.02718903788191605,-0.01905287975482085,-0.01845199800043817,-0.02844904025704213,-0.02946571762599633,-0.05430482016616392,-0.04726379514131821,-0.05817777196759141,-0.02518530076030108,0.0024068059301818,0.02571341720651384,0.0210074624208075,0.02835452273554695,0.04698264310541046,0.01562748486405313,-0.01429289418119882,-0.04832017630236672,-0.03219172858371958,-0.01039857519640294,-0.002256832585922207,0.02471769725725336,-0.00366800409887559,-0.01685572860759019,-0.01011705069967222,-0.025616377962,-0.02263292600823655,-0.01733474549628085,0.01919945842347107,0.05401522646873461,0.07152624918405524,-0.01478443642702436,-0.0370464838732478,-0.04424185507614813,-0.0253997976837749,-0.02136877901782725,0.02136182086717175,0.001894882888865948,0.01712935447290462,0.01102654815246996,0.002180778899925674,0.00528885269151666,-0.001652142546459119,0.002267701578300191,0.01335401068166584,0.08512874813465159,0.07718341497917625,-0.003232071207040993,-0.03862260468196634,-0.0488886366110647,-0.01066870811571798,-0.01316838104075175,0.003682730304795319,0.004870880247760176,-0.002709869466293427,0.004935601516198243,0.01878767024004012,0.006517970512966834,0.02087413945128434,0.02338192822615541,0.01502372670512157,0.02991164847983411,0.03636451184214287,-0.0004849127813419261,-0.04519840438508867,-0.02797187988104505,0.00113703532819558,-0.007836602064385611,0.00234073754468981,-0.001606932504811015,0.01160289239685882,0.0128186148885478,0.01097063420511274,0.00637865833158872,0.02649745231435417,0.03733775323834834,0.005012574836598555,0.0386988880961778,0.03876048311433981,0.02338927319188654,-0.01435819029719701,-0.01990433585853588,-0.0120899371794593,-0.026604839810459,0.0110664118784835,0.008089412110762915,0.003176519369386277,0.0009588681899209255,0.01857426230776374,0.02676274220850742,0.02262840810964777,0.027035125768727,0.026211861448783,0.02900969216209853,0.02018427709373699,0.1089586366588822,0.03234092606424587,-0.01859158487379809,0.03043253013941704,0.02770076173943774,0.006215511245661289,0.02624125116519909,0.03707043053390358,0.0002399168448803518,0.01877491683834648,0.03458978302396917,0.008849395350178818,-0.005999585913054209,0.06331739743795298,0.05019274909728988,0.07024633030716461,0.03327498355024681,0.01835643499592001,-0.01008909493835954,-0.02810145741560161,-0.0151188652079195,-0.01046222391220462,0.009794143781571814,0.007937467787810504,0.06929232254155755,0.04679755390590222,0.05851879403994147,0.04620719104364526,0.04754191573778901,0.04809137393644449,0.04082171204527411,0.02340750089271855,0.06674036548660026,-0.009535052276160702,-0.002130994380837827,-0.02649321224502646,-0.01264887849871912,-0.03838440569884827,0.0003914603874256,0.03833978244747376,0.03550879121363126,0.08102127259100031,0.05409536923657374,0.04421781465977276,0.05646610398102382,0.03296680270423741,0.02433669787305297,0.01784814113916292,0.03033474231421098,-0.01836693511523164,-0.02605284472784834,-0.002318990958238667,-0.05369558171388183,-0.0408175999645774,-0.006620785757634766,0.02919831168430728,0.001245115657139554,0.01466392240750285,0.04474889455682914,0.02411227613115725,0.05561779292662205,0.02698361571531708,0.02656046599435044,0.01025228872714269,-0.01193150988871669,-0.0446927138646367,-0.03187115118460671,-0.05351700176365229,-0.01372345535388189,0.0009053937843868322,-0.01754660084480631,-0.008006794892808316,-0.005298402498068104,0.003342153225478148,0.02146766236513204,0.01866050765547911,0.04871264328985567,0.03419469282609782,0.028232388663454,0.0332632241374743,-0.02101599358014041,-0.00308473496469459,-0.05756356157674621,-0.04627954817051219,0.007148285155198647,-0.01794285019850995,0.0001891506669711096,0.00250609206599187,-0.0002007053625850372,0.004113640074903243,-0.006764005134854836,0.02624941612640767,-0.00237389963823711,0.02459881805023961,0.04092288613232654,0.03089619809320525,-0.0003217939909161528,-0.04355203152131323,-0.0362239160588033,-0.0191487497606255,-0.06097655146802506,-0.03099061872269916,0.00149177010452769,0.007339112967047223,-9.947736050096682e-05,-0.007414127226943863,-0.001232470039578422,-0.01913953767704455,-0.01762011760145092,-0.002538842402619337,-0.005508398475273387,0.03338098280301452,0.01972155007897415,-0.08552203836832152,-0.02643968393367042,-0.02868112733961489,-0.04694178697918489,-0.0706596984200093,-0.008164008341010527,-0.01499330569617614,-0.01482258186662578,-0.06088494797295078,-0.04973385259818709,-0.02456071763115256,-0.02140651124633693,0.01726273557283449,0.03918485079458994,0.04110327197190324,0.03338343446787879,-0.1969547517771489,0.06039144295947581,0.01544809028768229,0.02134158074792708,0.007208784376807186,-0.03743584825608797,-0.04423143228950385,-0.06639690996592221,-0.03422626992879966,-0.03974490053688687,-0.004853036978825528,-0.03833805522974983,0.01017675422734145,0.01086165739775524,0.03580265459210129,0.04066623986557857,0.05695508376309205,0.009255335659938141,-0.005643728016330909,0.01324206103194596,-0.01852379588488121,-0.0105609522984903,-0.01227773598484307,-0.02703878661140487,-0.02980773566973675,-0.02867080238470798,-0.04592100927546226,-0.05276267099220642,-0.01547864678072381,-0.003800141977309126,0.01198178647219467,0.01335776585327603,0.01552828129639018,0.019001801353517,-0.001366993158467603,0.00739125672514878,0.02297574490821483,-0.01430212631480099,-0.01891689347069932,-0.01826503110261926,-0.04037459234416681,-0.03155686020571912,-0.04360876546179255,-0.04107492699500513,-0.002725106469198594,0.008843479901727675,-0.02342954802127467,0.01132385750279856,0.01017689911242744,-0.01564692768860342,-0.00269418305881436,0.01919330728748064,0.02500801206413041,0.01019059494260244,0.02578555685288509,-0.01331644753352851,-0.009534897364397554,-0.004977574910922994,-0.03311913114663481,-0.001495453615536973,0.001439990606809197,0.03904238462843084,0.01002114263215076,-0.01326974164651692,0.001004942028387211,-0.02108286457541404,-0.006371875484934304,0.008315747227762354,0.01763562819666143,0.009235288024642551,0.002149119330626312,0.002236852965341253,-0.002615650441327531,-0.02978755318213662,-0.01019836434235206,0.001435736138462032,-0.01588046490691436,0.01952705663862544,0.001497573308432872,0.0141959158876622,0.03027369666766208,-0.02341949451553619,-0.01561084011829119,-0.008424080485409449,-0.008211216230325372,-0.01528880064613476,-0.01039189542810559,-0.01979863861851324,-0.05310697306606683,-0.05454510688843122,-0.05010604787846007,-0.04147504001868176,-0.01683326480406602,-0.03586757621733186,-0.003442439016305738,0.006554739551084824,0.01760814849246712,-0.05129168660726486,-0.008604881126147074,-0.0179760672498229,-0.02717523958643717,0.007489412635203569,0.008765054533581843,-0.06188283469515589,-0.09391721498962093,-0.09743557676775434,-0.09933612159771844,-0.05204919792456061,-0.05790412771415877,-0.03805908123842002,-0.0002980114391052523,0.01103259301311324,0.02533336615738972,-0.04575662179232085,-0.01277352747657869,-0.04351049049521037,-0.0536663216239972,-0.08494382981550737,-0.1320865670811751,-0.1115339843841629,-0.07928140797475094,-0.07000271854590277,-0.0204898787797801,-0.006026132290525027,-0.03269923190536829,-0.04341716116989133,-0.04190183113157749,-0.008409552593818908,0.02378402082873384,0.5093320775113851,-0.02092659185314538,-0.01968955591398797,-0.007722662992788082,0.00254839116972774,0.03226279779033672,0.04065057126636731,0.09159185861977746,0.0440337021007002,0.05402230338977252,0.0497537152977565,0.0339241397544263,0.02214863076298169,0.001818380603873561,0.01340312287240365,-0.01102361915627018,-0.007911449859232674,-0.02065829922390445,-0.01678375746180589,0.0008336122971166986,0.007735095595103044,0.03073363890839875,0.04377977607792086,0.05245227249843219,0.05333524184593121,0.03441932535911206,-0.006907013555072759,-0.05263189859824764,-0.04838431781945386,-0.007769432724188201,-0.01580595627915614,-0.01473084923240957,-0.01957305898283703,-0.0166368317953246,-0.0154545575310621,0.003925918821073831,-0.003696295858645315,0.0244915151218319,0.03684091874108696,0.06496402468107319,0.09056717084569779,0.02023030718963761,-0.06458110007553428,-0.07912071623861457,-0.0847500145169551,-0.0709500378243805,-0.0380128448995583,-0.008639214822296156,-0.01886253132266475,-0.01638987041466109,-0.02889740588773686,-0.01677222923205137,-0.01210635502477621,0.003578913626061545,0.0002348526543916168,0.04782139731314769,0.05741976201893294,0.08011253341765771,0.0191426709905864,-0.01084356881223166,-0.02907573390914894,-0.05169140039730236,-0.04238155149180806,-0.02285791261826496,-0.02193476787022026,-0.03383777394365882,-0.02102720730074496,-0.03019794290684956,-0.02888809496596751,-0.01788070625517857,0.03130805815293471,0.03794350910561655,0.06539170057758129,0.08160967464526497,0.02551817743961835,-0.001443709187862799,-0.02308835623976177,-0.04419423557258925,-0.04387937086557046,-0.01169542233810555,-0.02275432662136514,-0.02933141118517828,-0.02955213894238552,-0.04327306880566566,-0.003886744360732354,0.02499461068200576,0.02036455791750991,0.06045075303802896,0.06791728420611899,0.0377374763283377,-0.03493317597455898,-0.06461740616332032,-0.04966434641651471,-0.008146952450250424,-0.02263805808032826,-0.02058903787516829,-0.02164661209083639,-0.03023869331554409,-0.02063013382740602,-0.02220651489210361,0.0392129656484874,0.01820181334587282,0.04154936863682514,0.05267298704704686,0.07808725372710283,0.04802963012241998,-0.007399960617235382,-0.04243978391913137,-0.05387450027849832,-0.01199293434505963,-0.01380345135411897,-0.02922624210185922,-0.02733262222509564,-0.01545533153325066,0.0003723062465136745,-0.006396951676075151,0.02489399496642402,0.009037888456848711,0.01677573433049901,0.06382720480448589,0.07894619281178498,0.05307114260693308,0.04134358528550171,0.02316433412594619,0.04394526060090111,-0.01419803279063165,-0.01854007464535112,-0.02763723149570882,-0.02075663830396127,-0.4122981346406115,-0.02372705469253129,-0.02422985704429848,0.02704056514366343,0.005619362015168791,0.01339629889921066,0.03443448492428351,0.04149084944636128,0.04084503723917737,0.02978656367921378,0.03223613469930107,0.0429779553253352,0.02196314084003908,0.03974422509982795,0.01006050806303238,-0.01604121426533124,0.03652388924899242,0.0105526671049413,-0.003513587620940728,-0.02317086575250725,0.01253155108307688,0.006513078502893691,0.01293247539341635,0.01341591377480002,0.06357912167089166,0.06136374677290856,0.04303868700761695,0.0149435779572734,-0.004570842960874694,-0.008098985293949649,-0.01549631610762682,-0.003354853440664887,-0.01437646478306828,0.009354901857952007,0.01054311767234309,0.009866792418385284,-0.009130735154264309,0.008952190279039245,-0.0009611470012543861,0.00932689660332753,0.02223250713637214,0.03105831695971155,0.02173221328815997,-0.006914815525179452,-0.03061142880448774,-0.0326608667484083,-0.02449561475986005,-0.04157186956196697,-0.06042957060786006,-0.005927173789372038,0.006873561273677613,-0.01988449556299779,0.02418842533818131,0.002104393405713256,0.01004713280481874,-0.007360998312002341,-0.0109762934772983,-0.004968242595648804,-0.02101144289076895,-0.04864817204039402,-0.09502140036639253,-0.130617074484439,-0.1920566991275382,-0.1501260655358052,-0.1070531267300741,-0.0008433601614680157,0.02326870340357703,0.03231330486509388,0.005305611722341923,0.01660237107712749,0.003634432840097113,-0.005695769924048447,-0.04752222357349589,-0.06652061159070963,-0.0732038876627293,-0.1038226677263631,-0.08812180130262891,-0.05692018331471935,-0.06475156918873522,-0.1233990047139594,-0.08985426843258673,-0.008675768144685568,-0.02758138789353545,0.002714789132816056,0.003987999955718224,-0.01139001817874481,0.0208388122131615,0.00883961176750574,-0.01631594804560114,-0.01840310095363592,-0.001328139294611453,0.02140583351475674,-0.005900377313031883,-0.01706419370227694,-0.001677674352869649,-0.01940593360502906,-0.06253558895039316,-0.05545527236516353,-0.04932882458782625,-0.02921788267095146,-0.0355099752297388,0.00123951603749906,0.007993851646276454,0.01863242790524638,0.06178076486636746,0.06581728719982273,0.05365943228034837,0.006852588566946243,0.002002203350091947,0.04162455322268389,0.008727334458768991,0.01170228747296609,-0.001122489699017289,-0.03732971027674558,-0.00529860766019866,-0.002857271016797286,0.04875915802110449,0.02819044165338843,0.03894294099534475,0.04697811826604741,0.06224904136223813,0.03511354730495277,0.04037768889971933,0.08130674503315428,0.06038643525376988,0.01635842544142723,0.03211582028538666,0.006565385521693388,0.01225920083162257,-0.01043692514546623,-0.007010832707200731,-0.04262909758854545,-0.01528432314872939,-0.01558517656355257,0.009580649671633966,-0.005396456971640807,-0.01948205771147857,0.05745767923621545,0.06581118324797909,0.06340186849897385,0.02565792178279471,0.01265792024986027,-0.006153426010874965,0.002055503346391412,-0.006085429778119566,-0.02413449342432261,-0.01465492616291462,0.05162813360007024,-0.01902460633728772,0.02996217622000501,0.02697879823464649,0.000437479784945687,0.02095764177639793,-0.008737486121361996,-0.009316838035842694,0.02160550669472859,0.00282977253504961,-0.002151006183069194,0.006566408321142431,0.007567920382857871,0.01898690893670501,0.04998391593811859,-0.0103769780243118,0.006508845044114268,0.02299668478957613,0.004925355168672108,0.02594910238158573,0.03508338113266608,0.00451891367246795,-0.03528602872013738,-0.02467077190231735,-0.01959643634193205,0.01601286975558602,0.02713519134479543,0.007948005093104147,0.01907606729492848,0.01609296632621885,0.03689995348700339,0.03283617145324654,0.01182394165123927,0.03563104109908002,0.0410893147088016,0.0322069217915019,0.04308336779250461,-0.002677981305084012,-0.03999603711552208,-0.09136029074782358,-0.009091354485819575,0.01634616911854644,0.01827650668952783,0.031039556533971,0.02646526869120917,0.04202971702901715,0.04888198263548258,0.002173120183812782,0.03354324417856045,0.03248181231229411,0.03815977045898007,0.04765046496742975,0.04238910605590082,0.009048750161316373,-0.08035236708980109,-0.06104697024064724,-0.02169047043880204,0.01360023379238355,-0.00212242663218487,0.01901422002528892,0.03907299950603924,0.01789311476614807,0.03182560691892177,0.02515812257951987,-0.03048437669964175,0.0347450192789626,0.003475887043761635,0.02229885057099092,0.0375389006024382,0.02377403225489079,0.005342770415575394,-0.07426166054476364,-0.01250598738875801,0.02814657410096764,0.01838297654012816,0.002181939073212953,0.01464960021566397,0.02947665278766531,0.03516464798837775,0.00962496048886323,0.03226252413958326,0.0006687920460563232,0.001776832104598739,0.003104206408621291,0.01377669866315456,0.0345036369118642,0.0323111574632058,0.01616111022172575,0.01104235397079673,0.01154300610765543,0.01611174371347922,0.01816705859884863,-0.00461501299436437,0.006207904649595404,0.02762221104336273,-0.01323697185126405,-0.03647617173753796,-0.047602705515374,-0.01577729701163404,0.01052007996709785,0.05003271928991258,0.08448400508518285,0.1181656822677932,0.1146591399474954,0.04768720029214777,0.01322444971100248,-0.02848148653024855,-0.009603396331491518,-0.05200746056939071,-0.04651822701207033,-0.02994627387733119,-0.1809434680141789,0.03178701325203753,0.03313226684516435,0.06022198289857245,0.05717543023397958,0.01052662272139204,0.01984946342898273,-0.01816193127300353,0.01526669580940742,0.01285895328816098,-0.0265796935367477,-0.006292643424314967,-0.02246300311529608,-0.02590534163333642,-0.04255123556030901,-0.03008127836575428,-0.04431488237864419,0.0629472055805096,0.05470512671709392,0.03797076277355942,0.07538959310079707,0.01027430499126812,0.03076596934220218,0.02018405369170809,0.01000601494744489,0.02794400105255201,0.04991520051423096,0.0005743264356136125,-0.008893486601178658,-0.02214943385821031,-0.02453267408804963,-0.06112864813863889,-0.0503199701336984,0.1040113610628642,0.06265901149720075,0.05531641376762345,0.04451133534090726,0.04063625648149877,0.03077678480973175,0.05884646517910457,0.0332993242473573,0.03219551589780647,-0.004603974826422893,0.01050865928686715,-0.006476336586142121,-0.0355458353153615,-0.03387733148572905,-0.01553383773601364,-0.07809195982384552,0.106149258674005,0.0669372283138394,0.06776837591642314,0.04798071065637713,0.03070984809708177,0.0336153641569221,0.02991412271667131,0.04184356525635385,0.02182406151180515,0.01968901035640557,0.01164947163619378,-0.04227414330123977,-0.004203163241693062,-0.03362381455055485,-0.0471538508795965,-0.04899697869261181,0.1194818164244097,0.05709878863124526,0.05038219984520276,0.05464231874139627,0.02419433249516365,0.01010407101116238,0.005140302203515001,-0.0005595411267588937,0.004054913546188295,-0.0002666890229187344,-0.03493890860982555,-0.0265790195994761,-0.01746358643475722,-0.03132706938798071,-0.046115097090362,-0.03692210786701765,0.1146980339210287,0.06982737577787809,0.069800452662879,0.05071947562089702,0.06095315713616783,0.03074790068877411,0.02447222633398592,0.01011711831041556,-0.01307420349102338,-0.0235494843602788,-0.05002421066492805,-0.02237776335161498,-0.05482438616647286,-0.0767277195928381,-0.02390954120493693,-0.04672537999241428,0.0577869684625115,0.0405761033995072,0.05877856451995009,0.04752465656079757,0.05657394396152182,0.05683465197668706,0.01685507222687594,0.03849721466086332,-0.03392339073666906,-0.05446689194940766,-0.09701578006699656,-0.06239874699092494,-0.05013476375318027,-0.05834037521549321,-0.07880709556055443,-0.09588639538325285,0.008289273743123481,0.01228887393100921,0.04205227066470894,0.07128142210359344,0.07120894023533747,0.07191769756638426,0.07685461479652227,-0.02144777657756152,-0.0303139470013566,-0.06002619864861435,-0.08860389837258489,-0.09112175273855205,-0.08768022857670928,-0.05641263073920174,-0.03262512342784363,-0.06389364228760833,-0.2732609262485952,-0.01020816203887054,0.01923097411063475,-0.002524372102756809,0.04548316897827435,0.02101717776341965,0.0187712861816508,0.01384374181401,-0.002799128332232198,-0.04088025519881554,-0.0392933698837068,-0.007253727352162769,-0.02616356766917837,-0.009373097950563028,-0.01573222064022168,0.006847234700253419,0.01389283098111799,0.001200211277130115,0.01512322669418247,0.03576816697783408,0.04542865294493703,0.04449112301022039,0.03465430543882055,0.02202539682514416,-0.00769873139109163,-0.02348671974597933,-0.01714985632984438,-0.02644117517652021,-0.03467920249352786,-0.03085585606043338,-0.008023237160589548,-0.00689190355366971,-0.01128361371091021,0.0427471399949768,0.06468302602383612,0.0395661614232494,0.04162434059680778,0.07129340189477093,0.006733969235640453,-0.001911797425178042,0.008205602201258724,-0.01555813652992414,-0.01866276198370458,-0.001710122523949437,-0.003073711683729082,0.01162060241596659,0.001604670831023834,-0.01747250077408116,-0.007243930185924966,0.05105344864958968,0.03512791461324396,0.0570499631456271,0.0567573391265782,0.03680374262997486,0.03562644036903117,0.01179934244036756,0.002577489156964864,0.005384337031756365,0.01719857918677841,-0.002876106648891397,0.001160454307376468,0.002735219642400383,-0.01709227882671886,-0.008047978261014676,-0.02307831266484704,0.05613367764483736,0.05421750742632765,0.03844593719432832,0.04260089649065869,0.04942111131525549,0.03316278840250634,0.02874813790976903,0.01465090692312577,0.009693758930053883,0.01155344993392621,0.0082754811404825,0.01354949326050434,0.007315218599477318,-0.001831205549629837,-0.003244883025619242,-0.01224526020685125,0.02467776301385884,0.03535432108137467,0.02174815630528375,0.04073336683725032,0.01056322662553837,-0.006772288931264466,0.003818890188241599,0.001506659662344618,0.01416862859542171,0.03053418178050706,0.003954717479014977,-0.004188673277136792,-0.00362332342078556,0.003869401535299418,-0.02395592975382642,-0.01062990044516644,0.04034065876437716,0.05069054826355233,0.03318722521452721,0.02745578358195331,-0.01288782584332888,-0.00398640600802031,-0.01992770592803715,0.005702343177493536,0.002294368647346722,0.01108994294229988,0.01684382244039303,0.00832224910246227,-0.02716278570384976,-0.004975203884387607,-0.01115336756615824,-0.009363729558185176,0.009405979326636031,0.02129560135467248,0.008490348902825705,0.002125732760852324,-0.03234841340864331,-0.0095248297972643,0.01851485866103585,0.02263406024033972,0.0008213911999627014,0.01465806689541447,-0.02556948168541408,-0.004163751367140442,0.02393726642934985,0.009654180581697178,0.02779247397696395,-0.002279808111842796,-0.1596197636825201,0.06577696453783738,-0.005889103007071041,0.04846897813693059,0.003200286745404863,0.0176367775485442,0.03988226213182273,0.04464243137554151,0.05017135439230554,0.05358779009076394,0.02505978945748171,0.03096459078237701,-0.0007627926772302302,0.002045627427101064,-0.01033868628128478,-0.01938309419281924,-0.03880594972387996,0.0253801253111183,0.01536449585290425,0.01905620472832157,0.02541266495837022,-0.0007728740850674843,0.0274113592918821,0.02864068538251669,0.07097015296575494,0.06522160540289643,0.04992795196530045,0.03122530232246533,-0.005009425745519435,-0.02106904635676656,-0.03299599831502728,-0.03715042977120184,-0.02873049548151231,-0.008060753173733295,-0.03044750695793717,0.01419474408127827,0.02574272905479317,0.01221455235809342,0.01419707739116395,0.009140420771641343,0.01144843186448643,0.02923925405675037,0.04626629678226309,0.01350738600282733,-0.01895148994380643,-0.009718775782473972,-0.04156665454203078,-0.03372194615280506,-0.04758264298026812,0.02829741533315749,0.02213342610152718,-0.003785537303294731,0.01275537222913018,0.01860197863989242,-0.003142214823076652,-0.03762199273770288,-0.007484025664618296,-0.0008879391821309017,0.01221161282148778,0.01123204688423792,-0.01768267194815796,-0.02599173512209657,-0.01317637479387917,-0.005822988725764248,-0.009936164161240298,0.03735788850305723,0.0264949852462173,0.01356441650188097,0.01970076524940305,0.04622298411332653,-0.00907751643320394,-0.02557270046462096,-0.06098314398783172,-0.02137981793467248,-0.02568408860846744,0.02204845036339595,0.005367721621385594,-0.02087594946326393,0.008070559011266062,-0.005446386386266996,-0.0341186808834953,0.03848234877298897,0.01940769028869561,0.01827692210282123,0.02228146890730036,0.01868996075139493,0.02249675300544621,-0.03142898415676495,-0.04999028982772029,-0.07689666335284458,-0.04866480056078079,-0.0325379604991689,-0.07636020298801648,-0.05328282318277651,-0.05376437533880592,-0.01429726005534585,-0.03864544933706613,0.01888886077788614,-0.004364043410360886,0.01903187329880794,0.002863604074823717,0.005701621033000578,-0.01057284201987481,-0.03254459774398899,-0.107920068962714,-0.1090022915948431,-0.1011317694105247,-0.08674590623645453,-0.08353197444671812,-0.06212534929536743,-0.08711326961782148,-0.08371090630942396,-0.06895192703923642,0.03157206378801629,-0.00960901063553155,-0.0105265800180396,-0.01676387696688271,0.01302418615557393,0.008137436137554773,0.01842461383723513,-0.06852976065932628,-0.1174500315938326,-0.1415065347267362,-0.2088712761908436,-0.1466607342355976,-0.08831147923644525,-0.08329809541948556,-0.09139228577919317,-0.08746475554133831,0.2114295749231658,-0.04448981364346872,0.000379294806482081,-0.01555241589943904,0.009465589107549832,-0.01197643802174891,0.03273447387857806,0.02527588867086352,-0.007070148537531898,-0.08582312856441822,-0.1215534149581223,-0.08568699720616568,0.006790997066318032,0.003751371462076142,0.0197812586516562,-0.02212516695156423,0.07923132393081631,-0.01340991558102748,-0.003434228321235965,-0.0102202174711086,0.01639786426751184,0.01621343584338675,0.03308118636819719,0.01432775546797822,-0.008176353998428422,-0.03232799594070526,-0.05374112730893213,-0.07403181717953514,-0.01146477506521887,0.007840707174515651,0.000969477153548095,0.03272282463639131,0.006742999710707118,0.001929133455161056,0.01584118205221173,0.0217117199691901,0.008064704340769431,0.03408055558059388,0.02272912697942503,0.009497803078036805,0.005323290982170464,-0.009091540692109875,-0.0633471488844923,-0.03357987383503831,0.00105556700920117,0.005759799010472976,0.03122846675638598,0.02325585392178501,0.02850951017395261,0.0125430268324548,0.02875586459818984,0.01421206093545994,0.005426739228989015,0.031949752323575,-0.002087506599607118,-0.02241285794969937,0.005818242116214254,-0.003233984571447324,-0.03576993174064543,-0.04230312470904547,0.007427670769692534,0.02484199159764549,0.02297089690558507,0.006693312304443502,0.03204660962427187,0.01310861648601511,0.006374479283874658,0.03548623146979141,0.01123895381397374,0.003270321963554462,-0.03033747190031991,-0.01485841595366239,-0.02525427511141925,0.004333545748753574,-0.02720526309608864,0.01277054068479845,0.03692570773340905,0.02761079787957044,0.001249443695827187,0.02407748240520844,-0.005197869674698829,0.0004685858305215763,0.009369566374347825,-0.006584221862298914,0.0185068687399126,-0.02462802853026683,-0.04226666689632279,-0.01853830224886507,-0.0009462701488377217,-0.004577279009770275,0.02104124090162719,0.0488443198203841,0.01241764693499706,0.0280874421287028,0.008116259339412676,-0.005247137293411215,-0.01031822598011509,0.04519010881762664,0.004157554943260476,-0.0006387778416929694,0.01080222469533635,0.01313197749398319,-0.07597929585318117,-0.04736507575375001,-0.0393240326229897,0.03809800539276209,0.05588090371377839,0.03160994944269634,0.03551086419910347,0.0081315481620487,0.01738172600840504,0.007691281263357715,-0.01526759976329724,0.02183635013763829,0.02099458044867005,0.04190384657044572,0.0299545543442361,0.03261590809068989,-0.07516767360293004,-0.1617610085272571,-0.01360513930342401,0.05858291421283351,0.07895444903415932,0.07518371403507593,0.07320018373786628,0.02642961574968567,-0.00149845994750201,0.004630689052067085,0.003799623477926038,0.09188840967221699,0.002712565104993328,0.02133641139074163,-0.003040685529549796,-0.034231405012514,-0.01212272037292332,-0.004540147911888209,-0.02820675290742353,-0.01258475582176716,-0.02558944584353563,-0.03052903880358661,-0.03537866083336887,-0.03090589796043892,-0.06154408731741297,-0.03800470041527228,-0.02666598896109606,0.00602827624759896,-0.03093933725186766,-0.02752158028317992,-0.01055974246671375,0.006884789897329632,0.002955698033203656,-0.003169008172226564,0.008302199023098531,-0.01064324743697983,-0.0001240955761893767,-0.009143537822526915,-0.01786044139896469,-0.03269876778096434,-0.01797817170785941,-0.05531206506782526,3.427358704152951e-05,-0.0587308136458994,-0.03901086990398814,0.006214860630251931,-0.002084792370057178,0.01556280881557344,0.02098266381577968,0.00873898198132776,-0.00303813478615728,0.007648418969278309,0.0006457208743267687,0.01450365530087786,-0.01571183351977372,-0.01237195276373172,-0.02611216879178794,0.003170878256925405,-0.02914477791109133,-0.01680079085114066,-0.02286290869390365,0.01706921693824308,0.02086557088104639,0.01368866648841748,0.03859684072012421,0.01683600473119308,0.002821099497057488,-0.007391885546408308,0.00518403052464122,-0.01924141091875913,0.001093802474008815,-0.009849906740822515,0.009688316622335455,0.007381538081442755,0.01578636942912914,0.02806216220548696,-0.03880980463288757,0.007041026089025873,0.01925098913458201,0.01680141375165441,-0.002890699285365116,0.02246550316302133,0.01200486633162059,-0.01285889879777944,0.004451803936238529,0.01270572531258466,-0.004669101170510811,0.002489421189665253,0.004059903677456887,0.02489860525175876,0.03478875349802985,-0.009694497203622442,-9.022120255230556e-05,-0.009176952152855454,0.01673740960610038,0.0005950937470897857,0.02237764615484595,0.02020563097168496,-0.002103968558403477,0.01029902840122717,0.005520075035302815,-0.004341713744860096,-0.01836989076821157,-0.009972485112409578,-0.01563077943603324,0.01110926879537816,0.01277145760398074,0.01344715843230542,-0.01974458903337202,0.01311331671028822,-0.005204304820007796,0.0113166564379202,0.01489424053078227,0.007876101490118442,0.03218716242737041,-0.009824964428093419,0.01470094223657359,-0.009308218326488229,-0.0271997153542478,-0.03416293396225747,0.01923720085395604,-0.01572319840380249,0.01306947180015835,0.03918233960484897,0.07128846831510993,-0.002964061370559494,-9.935178469039781e-05,-0.02674403528337339,-0.01817670712865284,-0.007410253650234581,0.009797195137755003,0.01821207808859118,-0.01951045137427726,-0.05399171577558046,-0.05534462326464711,-0.02654839188394745,0.0007599652087925371,0.02102654337956902,0.04712667160425918,0.04756500884712019,0.2964612649307279,-0.02741269262700205,-0.02045802649941428,-0.0401264055094186,-0.03076104353839375,0.01201947004730921,0.04631656672215805,0.05033173834447326,0.04343665080662534,0.08156945461252789,0.04479647108718379,0.008589323463676805,-0.005826344650824578,0.009194604543220193,-0.006817545028946714,-0.0418181553784828,0.01317946980771474,-0.04812017368979604,0.002616139181663047,-0.01335800608735135,-0.02190267640744124,-0.03089457070123839,-0.02159074428261561,-0.007717287205864243,-0.003207063234956199,0.007885167124243806,0.0009130432744759724,0.01339316345790322,-0.02069844248965369,-0.00790176305885088,0.01846263318277096,-0.008310970153203631,0.00798980765279962,-0.06570802402506108,-0.0817801295239701,-0.07511463924128078,-0.07184861617643248,-0.08094043019841152,-0.07318660227161253,-0.08721000908795759,-0.07599458367058519,-0.09675769080103801,0.003626271670504526,0.0116476714624567,0.00347565709244416,0.02804853195342685,0.006804982902572702,-0.0002988366698416949,0.001880059180786658,-0.0729531846596799,-0.08624048271154774,-0.09349301207026352,-0.06761292029458434,-0.0880718018084584,-0.07384599297433822,-0.05086981580628109,-0.05692582714575227,-0.03055696719413972,-0.02941187434047897,-0.01292831077081278,-0.0008854728654294534,-0.00852842912620113,0.02340178885634735,0.03613337636340869,0.05189301633826095,-0.07782437792746048,-0.0769551605599065,-0.06473837573982805,-0.05241524747043536,-0.05031130504238952,-0.03404696411706971,0.0188403292526141,0.02542712944152318,0.0100427810227582,0.007883242625926773,0.01140370792102904,0.01532789592592542,0.004918098078174516,-0.0148327852440719,0.0257739480025618,0.07024318008938005,-0.02630863847697793,-0.02474926623450313,-0.01606738368470067,-0.03659268797620602,-0.01748197381680536,-0.002175045145095317,0.0002607695405565253,0.03418895093373245,0.06058482536119746,0.04888174504917454,0.001493618368454749,0.02520332348146782,0.03168333244021077,0.02561290551792584,-0.03617452054243506,0.02471028591839067,0.001362352450258062,0.01442680704881458,-0.03406047729731248,0.001245726401209767,-0.02608520261678359,0.02439824629931499,0.001505731753024996,0.04678594953210121,0.0301053880708449,0.05466900841731082,0.05812892068034958,0.06137110067233283,0.02877563433170425,0.03738634790052391,0.02035412568963653,-0.04087854177349075,0.0145856689426486,-0.0412769463576602,0.01303870258437911,0.01725502480334317,0.03905364928652204,0.06623584953585293,0.03947353502972126,0.0123686148817663,0.03914770511325266,0.02358863895432866,0.03228009693725284,0.03265303119392625,0.03231284033512489,0.00643929928731171,-0.01201911196394776,-0.04150700387689134,0.04305634938356107,0.002478791558294681,0.02577006700683993,-0.002472174989625543,-0.01596339961870501,0.01869168652144036,0.05457959001703412,0.0660790894348554,0.03420361627518476,-0.003868685586354241,-0.01335879852858288,-0.03486881070773867,-0.02043969752297999,-0.04072960653779023,0.001751151701865857,-0.02105651067168288,-0.04350342679463987,-0.01026637697793796,-0.02391161191020522,-0.0005880062988023898,-0.02176425476162642,0.00275419940753709,0.02390266069747756,0.01218506567919563,-0.0003756531870841165,-0.01337278103128608,0.00449438944564954,0.007553619480489786,0.002128322858229478,-0.006850091387060598,0.006676095793194678,-0.003444034140477386,-0.005595292443044496,-0.04031548139842177,-0.05580395043471595,-0.03571161961172622,-0.01218370615570209,-0.03172640748033926,-0.01462915816461731,-0.02830538135424476,0.0001995095769495903,0.008051099718604066,0.01522385378681758,0.01889612293371828,0.01978711088412636,0.03575876275781457,-0.02262805677209899,-0.002928931580924343,-0.004617842546212535,-0.04239880508147149,-0.06279050224357537,-0.07253747773446555,-0.07936923728410968,-0.08658244616256015,-0.05082901996522395,-0.03963347466607613,-0.0368666078613029,-0.03456557930189756,0.01794566974108285,0.02407102072648975,0.005958289997708813,0.0001212058088501873,0.02355736218334843,0.006736464202086429,0.001518942760919146,-0.04452954816231197,-0.04955657337177335,-0.04221505703369062,-0.03519694195422689,-0.03758958348677634,-0.04464038974957425,-0.05347188868805595,-0.04299820206644493,-0.04444369715194343,0.008986811544244499,-0.0001599435388253682,0.03720649220777141,0.00522647489689955,0.03643434055450596,0.02806685586518924,0.002709452743270668,-0.009067098998305321,0.001528903322805283,-0.0200561760608908,0.009270512917480957,-0.01310187954987187,0.016654886204099,-0.00633330658012678,0.00599548863029396,-0.005688266486655442,-0.03663705211385214,0.001359185301119683,0.00794726453588746,0.02385612070055754,0.0034698119004368,0.004339171980922094,0.002285901155974851,0.01184751296613669,-0.001874991525751944,0.004566125205981008,0.02154607329776765,0.01111544311036588,0.02626582865117095,0.01862413972584185,0.03654996981402322,0.0005581858234786506,-0.006418267338576185,0.001496307386156287,-0.005360879624988889,0.00358597680639591,0.02606189912536231,0.007539473130408559,-0.01347527678214275,0.04522597450746349,0.01423043061537874,0.04827747791066444,0.04051232844576403,0.07654526847458991,0.03101264733213108,0.02819540818139283,0.02539450148652039,-0.01130679879990845,-0.02926737493320441,-0.007032336900913774,-0.01468581026787703,-0.0106166296818291,-0.01540470820129019,0.01694740136787838,-0.002668063107980356,0.1049669355369354,-0.001982016226940822,-0.008397502921925344,-0.01005081934439374,-0.02717009786779961,0.006366662157244507,-0.007035292392649423,0.0309367957478001,0.05332452320332152,0.03343514056722438,0.03551648637372598,-0.025690069229635,0.02085121138616433,-0.0500476177390244,-0.02928933166752457,0.005438468328928118,-0.009133854637348598,-0.003456579135604795,-0.01562575885662364,-0.01856793428335336,-0.04274878563998894,-0.07442157929227348,-0.07841357253006762,-0.07295689512043618,-0.03133695645975629,0.001876542288039061,-0.00977972552848206,0.01221474015660285,0.02523031149247994,0.02436650989462501,0.01771519371445157,-0.0139169711290512,-0.008210639495084712,-0.009263315138600833,-0.01297440869440814,-0.005959599940537311,-0.01851769076511505,-0.02500282988835953,-0.05959749374561476,-0.03553281270880909,-0.007036516180532287,0.05156796907933909,0.06079104642831994,0.03688094668671353,0.007650145922451452,-0.001743436276738275,0.0111822597354318,-0.01774710863984745,-0.008691465430897428,-0.01170206482651885,-0.008433026374776951,-0.02723293325813654,-0.03707833753953292,-0.05954429541341238,-0.0395726977371972,-0.02574145853723,0.07098331636170571,0.07998562594935073,0.07755281329444892,0.02657643182429803,0.00619807545206385,0.003151814617640279,-0.02878560463270081,-0.02323389189953138,-0.007791096678825785,-0.01569220464711725,-0.004892524269162443,-0.02335777929839826,-0.01159401556514404,-0.07379551915673131,-0.05838900435110231,-0.01704018744834715,0.07661815462949614,0.08891678159749077,0.03308835810103253,0.006096017083880715,-0.02241542730084429,-0.01062670272904575,-0.03861024721285186,-0.02538493332078145,-0.01989834941496736,-0.01618469332528739,-0.02219873991480487,-0.01758166256374198,-0.03048144536030937,-0.02536780190778718,-0.08137074405076698,-0.07862896722390929,-0.05305049956666644,0.0415060958342161,0.04150973543891809,0.02501699267355939,-0.002591645717325365,-0.001035325459287254,-0.01176942549461731,-0.005934796668029135,-0.0166521015530972,-0.01392388008818253,-0.007830296907786442,-0.02233688073827219,-0.03840604244701815,-0.05355061528545901,-0.01437351836907054,0.02629575464471576,-0.00957107171881918,0.001335852281484294,0.01895895522815996,0.04466853028429102,0.05626170911028005,0.03298980803878721,0.01146981559184004,-0.001380926282253717,-0.01134285878342768,-0.01096890950899256,-0.01624590623787425,-0.01986029229426224,-0.003335212724485767,0.02293140980048713,0.09095461780498748,0.1667034969446967,0.1270801959399503,0.05749097803264552,0.01594189877467819,-0.03428014115614778,-0.0200893501910064,-0.05365512836839594,-0.03753397033537122,-0.02079918197079103,-0.005107312254570478,-0.2669772250125111,0.03807873633782563,0.04213202261830434,0.06345183345389965,0.03169679378901982,0.04965516106965585,0.01257087868959844,-0.01166697044619338,-0.09554456807098613,-0.1120102796189821,-0.04660777692619685,0.050381925597952,0.00929792129691193,0.06235459849636769,0.02508465227399955,-0.01309176426677957,-0.02902164774547203,-0.0218186749971227,-0.01689775602311862,0.02005216402414415,0.02611215633847304,0.01900166118621441,0.04797954871158393,0.01632985626728448,-0.001058314080076035,-0.02902057003447449,-0.03681349741135144,-0.002013992280364392,-0.007061917458930643,0.006919221078724399,-0.01285617781048226,-0.005270421421694614,-0.02323099995030049,-0.01205229429772011,-0.02897693112504272,0.01654266248186665,0.01461258511940329,0.001075066535064369,-0.000947805487763259,0.04125270237432518,0.08212341978453781,0.02215353073158392,0.006903768875860609,-0.02492978840335604,-0.02692704784484855,-0.04318975748338787,-0.008036732605909733,-0.01731755202000489,-0.04140061317948933,-0.02735615873365187,-0.01494377372873008,-0.02243401838504383,0.01828206050811191,-0.003600720153277211,0.01201060565060801,0.04613348011686297,0.05358264504734022,0.05768255912394426,0.02369857599855942,-0.0007805447466757557,-0.03332800326646776,-0.03153072286489882,0.000507506412162452,-0.004768998329651508,-0.03078008568269836,-0.02081958837235581,-0.009160160012925437,-0.02577435564286843,-0.02143635952410602,-0.009182411652423653,0.04858141692299055,0.02101223483840935,0.02069655807564647,0.06650293702200752,0.06014069559099175,-0.03048668227928195,-0.03968784283390828,-0.03420720150820168,-0.03830491617820435,-0.01793122912966144,-0.04431214253088643,-0.01151184436782121,-0.001760064608508555,0.01503970144295374,0.00624889728641434,0.02840499143219262,-0.00835451097182602,0.03299062360286042,0.005526979258473684,0.03238620867992473,0.02350519596652496,0.01295851620981053,0.01458545734815697,-0.02406537432954477,-0.007275734472963116,-0.0283846896012818,-0.02199321808963129,-0.01795328750315995,0.02217179770813977,0.008221357676445433,0.04992562520588921,0.04425684081558589,0.009113973994013508,-0.00792419118138004,-0.03851393473342788,0.02998260019866905,0.01356459098844342,0.003663791654182566,-0.004793973654833023,-0.01837195130935572,-0.02197906462516203,-0.02175851261842709,0.002992907318256733,-0.02774328827760575,-0.01530157895635222,0.009474463251152065,-0.03953282819367973,0.003957176074714969,-0.00703350434611906,-0.06265643645303338,-0.01718814515982197,-0.0404783402967454,-0.02123984990640376,0.01374766213189738,0.00306151240970725,-0.01834542358293513,0.01854768812086113,0.03188103281227769,-0.03690110323731007,-0.09296447119361009,0.04624589364247072,0.03447957302025902,0.009851971962881701,0.06142149586274424,0.04038898415881075,0.01764793095977693,-0.03947110635148694,-0.1062007224411663,-0.1300695966897804,-0.07813108907502656,-0.02417321400362625,0.004771044263719835,0.008486854738916466,-0.006795509927396982,0.01717172928277586,0.03578093631274545,0.01637617227562144,0.01338521532694053,0.02949404282198905,0.004733118722796992,0.01346890875266461,0.01017246162899494,-0.01941719624897127,-0.03567388842765876,-0.06237000687547132,-0.08477074836177945,-0.01047397104253433,-0.01484261157816491,-0.01127016619975602,-0.004927735978753228,0.01514672430014502,0.03280868908439107,0.0008594551736963149,0.04886723030671556,0.01222544688976314,0.04204815144825819,0.01540512577463094,0.02929021436344317,-0.009345036976940582,-0.02716431115169987,-0.02977311877023114,-0.04627673077143368,-0.03289950510609029,-0.03009931621117274,-0.02617122057842248,-0.0123665969892854,-0.0108436500819263,0.01360296750184458,-0.05417401097632732,0.008928587065231499,0.01869486327914106,0.04386372476749088,0.03281628939959281,0.01745143112056939,0.003796495019147152,-0.01880419029601405,-0.0414818748028707,-0.003223297393359131,-0.03594191465054203,-0.0415767509690413,-0.0364528691324813,-0.01271049269806,-0.0136069746730492,0.04476007130225785,-0.02882319223876716,-3.089624795347483e-06,0.00670485058141594,0.02224281430803924,0.01812720944287191,0.02226072077058057,0.005645557689980812,0.02668927739461861,-0.01524484949387203,-0.02491564441916133,-0.02477390669342321,-0.01086039782715635,-0.02407420184099667,-0.03358341713811899,0.00925942673468314,0.00865848568172496,-0.002822023418348064,0.002928289398907979,0.0334809456278816,0.01338610569683744,0.04020423600379573,0.03357819750401031,0.0396311809025417,0.004479021499883686,0.03254132931505153,-0.01231777092408016,-0.03840011578843666,-0.02257057609293083,-0.02044591000026381,-0.02712702201111672,-0.01852619268981743,-0.01671860300786603,0.02675602734161313,0.01522105068127684,0.02894961419924756,0.01112088791471492,0.03159762690550972,0.02831903790413693,0.04182017030179464,-0.01684964846994893,0.01918776523809995,0.01622725345747942,-0.02190558653772861,-0.02585424445667682,-0.01370127226477963,-0.01731075129520051,-0.01453445419179351,0.01834184508552988,-0.002539127353538218,0.04425658361807533,0.0309849899710572,0.02903474143503359,0.004342436984917469,0.002797897861399681,0.03175479680446413,0.01189345342535066,0.01213175039572344,-0.006418144233830469,-0.008963932165095483,-0.02406323409791433,-0.01071096974348185,-0.01536087550529384,0.007083975323967848,0.01847875730804948,0.06444355589452865,0.01656247678952638,0.03728662212333155,-0.02343200666689755,0.01470249883249186,0.02365537642904379,0.007918645429538875,-0.05197909277558633,-0.04143303224663832,-0.07721335889807909,-0.07499215260327169,-0.03344359108341316,-0.01606348623148495,-0.003456025277973297,-0.03226262107957692,0.03103543372866086,-0.0219510992446776,0.01879547308753709,0.03019188811740191,0.04180833072913335,0.02140237207280203,0.02646349314532606,-0.008197994709751088,-0.01921395863495247,-0.04803060637789992,0.01002146085847254,-0.02983378302312041,0.03072394024442862,0.02677419847170829,-0.007383420108986197,-0.01327289065015922,-0.01683838745481233,0.004139475354657542,-0.01464978970325163,0.01175098055196579,0.01137614195279243,0.01690687848602453,0.02176058847457769,0.0003927703111768583,-0.04811914470822291,0.02609373297795501,0.0172974603215783,0.02071613925398485,0.01980355530181176,0.01307521381482117,-0.02084239732109766,0.01212964117901615,-0.006084279661722022,-0.001600353360954088,-0.0002838000004945573,-0.0114744217030124,0.03224166238317682,-0.007148374795342872,0.03236457928779087,0.01071064351586361,0.01359651086800466,0.03796300163675249,0.03171755896817893,-0.0001000953479425899,0.04236142772997673,0.01680348830728375,-0.004729716743125908,0.02203275425445544,-0.004785906522519516,-0.01887397661375111,-0.02482103730712517,0.006624027763118628,0.01253937811213067,0.01211910181942285,0.03079645314265347,0.01140215864900801,0.04451457716018385,0.02221804566299235,0.002988271056960385,-0.007579416008885846,0.0146173929559198,0.01211585276486092,0.006499035964905142,0.02086801120757364,-0.02730810263333015,0.009884600492288287,-0.04379560643327637,0.02381685623484987,-0.002910191961789677,-0.01015074670022236,0.01577164524320609,0.01874009973512135,0.04751982188284307,0.05218306700169464,-0.009490167691902366,-0.02246510813928013,0.0171034425543264,-0.02817264459193551,0.02684200465269956,-0.001079552106409077,-0.01248019980789868,-0.01702818674980856,-0.04387480658269782,-0.01942242107835212,0.004928403080703617,0.0123498136989801,0.001257413060346296,0.0165434675579802,0.02616008179971033,0.01990999518202022,-0.02773447324528729,0.006313163482471393,-0.0008927279903339331,0.03607654403647348,0.008207947960107329,0.01866062085396062,-0.01889808199349789,-0.04641890814638392,-0.04516566922106829,-0.03746663123085767,-0.03949105227529662,-0.01644266474490303,-0.01321168626948574,0.00787869367203215,-0.02085970231966415,-0.03081479042882063,-0.04081255751744586,0.0142437407854367,0.039943522302691,0.03092427757326193,0.02380308676133085,-0.01069433320806216,-0.0142715403709178,0.006299255548278398,-0.0006130130607355293,0.06230816136884766,-0.1290982273197495,0.05638276468091591,-0.1013865945267509,0.06289337317639442,-0.1422007038332849,0.0314344043865225,0.08187945691173201,0.03882296818803484,-0.0234382860561902,0.0299053659992623,-0.1579936849875406,0.03459585243884623,0.06546971759298678,0.0185180849139901,0.071780681710058,-0.1137279512560089,0.03868591385633328,-0.07472276511364824,-0.1181569726267569,0.1642097319411786,-0.1251293993079008,0.1501724764464122,-0.07955582287231383,0.2736780333072784,-0.1153265790186534,-0.1426233531577712,0.01361081411009181,-0.08636634280089132,0.06133058483904777,-0.01770135993177058,0.0313745075781092,0.1518448400342391,0.02330549557954538,0.01252975730981773,-0.03257875985339899,0.001960475842173232,-0.02938674256234833,-0.05513988806270041,-0.154465609939755,-0.06892224811737724,0.05792940710343523,-0.08264116865135657,-0.07042316209651824,0.06865272286906829,0.01086509061554972,-0.003984839595894093,-0.1206267240465149,0.02665998463189356,0.03257523349255709,0.3390357409871158,0.03318554382364716,-0.204211437665429,-0.1152097111908424,0.09832647533746083,-0.1124074732420987,-0.07010453653736187,-0.07350550205536292,-0.1072333716897802,0.09679610048370688,0.06853633579800703,-0.02130508142886467,0.07089903674285525,0.09335439272770943,0.03547824117341607,-0.07550893992089178,-0.09178346431559807,0.0214181537790534,-0.04943414073511583,0.1282916775161896,-0.1060239705762897,0.06384153988844256,-0.04008672804736717,-0.06779227937382791,0.1112353492849277,-0.06215378811321968,-0.0595827428398383,0.07372129393922726,0.177700238694077,0.1131816016859352,-0.0422540996168062,-0.03084607351029397,-0.1060927876754662,-0.03333326625081204,-0.02909692515967015,-0.02292098451456783,-0.04977889088615278,0,-0.02692205045956224,-0.04400447189627599,0.1008781712093718,-0.07373098459150045,0.04722501912965874,-0.04913851006908882,-0.008604027802950413,0.127967344529527,-0.02900165555671618,-0.03489148887559636,-0.07906587935067677,-0.01931620565329541,-0.02189333104198442,-0.01602377920943573,-0.01896690749091559,-0.02291906174327786,0.135897432847165,-0.03203948799748978,0.1320344943518144,-0.03144076868511233,0.1094308975251142,-0.02947398946999333,-0.03868990560817796,-0.03839896211113658,0.1943338847269646,-0.0003172508710184266,-0.01878072670014256,0.1834219420678583,-0.04890491198690382,0.1120317576831316,-0.07812335652682895,-0.05059448792254082,-0.01386859353179578,-0.06208225564590546,-0.03599626282423758,-0.02174757636130294,-0.08643413646960485,-0.02414588266583806,-0.02554776331703774,-0.01263706595427537,-0.01159795408849271,-0.02374233798383419,0.1029325774587321,-0.02308306531732623,-0.03307510830409225,0.1232035440939739,0.1362555839774803,-0.05372952328361279,-0.02765243317099957,-0.03012025890024156,0.09116764026532102,-0.003137013387935808,-0.02099215662355993,-0.03512670406856209,-0.03650523155802968,0.1227694299465915,-0.0684592659418238,-0.03880951068394189,-0.005283197860263926,-0.03836742339053881,-0.02104071661050672,-0.02544955546796337,-0.05413367512680803,-0.006350730790210625,-0.01099789145657708,-0.0229152638912301,-0.01838375774918102,-0.06351846348634643,-0.1827882664200013,-0.1123072129983186,0.02414065005691192,0.01753096216549937,-0.08281841589723243,0.06939019090974136,-0.007592850459433491,0.02832548574684279,-0.04290396614864057,0.115444733312346,0.1133965302551698,0.1317475291756539,0.0202389801113166,-0.03713445163517291,-0.1944925839433106,-0.01237258720093788,-0.05061197796040064,-0.01968942302761433,0.007231834643473736,0.1247139792252816,-0.1046886157926791,0.1408680552308314,-0.09443517166371479,-0.06071830614833282,-0.06343425543609736,0.02554706846610964,0.0699841136727241,-0.04581482044598001,-0.04977363036520191,-0.02612531166507353,-0.1016538945529879,0.1870883318212009,-0.05530089732441686,-0.03136028596336504,0.1313187083777476,-0.004394159071794674,-0.03838244105346133,-0.02986453396971162,0.09287324074495518,-0.07478752001460508,-0.08933550483809888,-0.05610167983046885,-0.01188189854581414,-0.0452456929665366,0.1397386226715893,0.1426733157468708,0.1405147119618164,-0.00774135970818954,-0.01976765013768198,-0.01044149793991883,-0.01707200595373184,-0.01580482539546946,-0.09507824460667179,-0.0449851328379704,-0.03731221310182752,0.1150033827598601,-0.09190173761655426,-0.0239117802420874,0.1126265185849545,-0.05150110706701752,0.04289377925473908,-0.0128788946857553,-0.03729971475997456,-0.0343402496960406,-0.0395119380223444,0.2094361883099224,0.07122696082866083,-0.05739695964729775,-0.01011153828232058,-0.03472376897034068,-0.0478986326661313,-0.04486104018235109,0.1264343467629207,-0.01933425677480301,-0.009475869470447779,-0.02075348399571647,-0.02604012374104774,-0.04168555841547315,-0.0504660633692145,-0.0412471004433255,0.1414007216362227,-0.01559680234171371,-0.09625033905189211,-0.02134611813152211,0.1444426199304659,-0.03205545149372677,-0.03754776604107277,-0.001667843981879508,-0.02931158207712791,-0.02280038902695256,-0.04736003872407275,-0.09796510019723453,-0.07979555433474726,0.2031260034528311,-0.009497869120282764,-0.0462189286459622,0.1595116968614121,0.1090748006605601,-0.06072387756081274,-0.0131370717323296,-0.01420515415974101,-0.01779188570119046,-0.01191016674626852,-0.02245561669076734,-0.1329450742470348,0.04583033977068255,0.03457843263570651,0.08570449187292183,-0.1576908865919324,0.1231064746437909,0.05042295088961167,0.07288347011518811,0.03811730857544754,-0.01038401260420925,0.1549651631268142,0.1813221500316122,0.01195482985430135,0.05066217357301297,-0.05806276063762261,-0.1198473561811357,-0.05280856147478155,0.1343950984472828,-0.07576683557352211,0.1613076860680498,0.01107161435050211,0.1127231723857084,-0.05729071891115015,0.1905652336329435,-0.05253159437913836,0.1139690933626676,-0.007505049021200793,-0.01297217720345227,-0.00572285845323163,-0.004403753576123568,0.1300426420556822,-0.00587871193096535,-0.0008951562634266957,0,-0.007251970667263573,-0.008619576959116236,-0.00341930754167161,-0.006599251619824173,-0.006296518568012268,-0.01197412718721826,0.137582252535301,-0.002828454066081497,0,-0.001136191477546619,-0.001980004980932008,-0.004630089794097295,-0.02442020085119223,-0.004133835547585274,-0.004701420285587827,0,-0.00708241898313646,-0.002776896898242397,0.1027412847394023,-0.04328997863786101,0.1719697205176997,-0.03037437523132763,0.06775121122383135,-0.02889561989275338,-0.03994705150715969,-0.01785471375042632,-0.06408866632315763,-0.007087743070747505,-0.05053752899459764,-0.03142728476738297,-0.04589499901895702,-0.06543005253831405,0.07063419487160597,-0.03356834195216826,-0.01896616340197614,0.116935586536513,-0.05208076313075267,-0.03317551191949844,-0.08344644822519105,-0.02133598464811343,-0.02076322379846696,-0.02321770559915005,-0.01192587749387518,-0.03358408176358701,0.1166949650245091,0.1704445926384793,0.09831442890844336,-0.05921591387484949,-0.05776581582539764,-0.06866239838165897,0.06188864016341446,-0.05493383664181877,0.09734126656893725,-0.01402274593985666,-0.05671366859937856,0.117626564719536,-0.07909651194455201,-0.1050423596432798,0.0125840529452704,0.09273583772718899,-0.026275745397268,-0.07749039020509592,0.09933692338465988,-0.04423622054566338,0.1261391260843983,-0.02197493014423909,0.1013175961052489,-0.03406270204645526,0.1616692311555795,0.1107257762627712,-0.1112218740607989,-0.03906035687395602,-0.04568510924979853,-0.03619038329745814,0.0226567401137182,-0.04303784123240443,-0.05050452645276386,-0.03016553766123182,-0.06163024886742566,0,-0.03523382174649885,-0.04919584363648648,0.04789076536468181,-0.0796347980413849,0.08791723442560306,-0.05494155556744939,-0.01556856063708104,0.09021690761961901,-0.04233224237634266,-0.065897564926495,0.09030317902025201,-0.02600999450642843,-0.03779811015920204,-0.02435558324604174,0.117057994082658,-0.05447285516674001,0.09288597813248016,-0.08394638870078459,-0.07979929886293936,-0.07454760173493295,0.08736240964614667,-0.0622700779859903,-0.05801579535594129,-0.03947072474792584,0.2395882353587582,-0.01303416422154727,0.09711253916609,0.07987154219882661,-0.0822764805594004,0.008301525306001622,0.09066219079120415,-0.1237662856394168,-0.01625031037921587,0.07123893837699551,-0.04975289059451254,-0.05701701557247683,0.09682020939105168,-0.04508313711894944,-0.0491694195810156,-0.03066822314151089,-0.03707410877316555,-0.03760828813628372,-0.1617484204393909,0.01433674644308817,0.09750273220371021,0.09150819495051959,-0.05416344900496839,0.137822641943504,0.02539733822349126,0.0479524361077754,0.06386247103810272,-0.0214420967906246,-0.07181576415048897,0.08924139268504296,-0.1325644577583734,-0.003219020134876321,-0.0527633579103595,0.0300617293229826,-0.02146977378280906,0.1303912977425086,-0.07678305742287389,-0.06198929188835935,-0.1486181704303606,-0.05315120462652623,0.1044735710888365,-0.02889493022655574,-0.08700193535671859,-0.05638717475444217,0.06144700491990746,-0.02189713538141691,-0.03304353823746409,-0.04992742138608788,-0.09050802026297346,-0.04041972574385129,-0.04723006519161873,-0.03027762789425716,-0.07313452308479233,-0.00486720493961162,-0.02972356336131257,-0.03466206517975483,0.2571384528731854,-0.09728288777904223,-0.006068468546484436,0.05737022318778965,-0.0150814229173437,-0.07493189005907748,-0.05649333323600986,-0.04659881568717996,-0.06359622104644827,-0.02562449545675645,-0.02328346456294074,0.2133254797819371,-0.03279072927607714,-0.0368801494909725,-0.04375878691591469,-0.02503520964366126,-0.01845963333133293,-0.01730916172821607,0.05610419115439712,-0.00902984864398276,-0.02347015088229133,-0.007973138278797537,-0.05783192470074285,0,-0.006680183797913441,-0.02816055895967558,-0.02248059517106892,0.1430140248183811,-0.03742671190726762,-0.01915764243981135,-0.006226690094534154,-0.02437141265200312,0.1681579390124759,-0.01171579846139151,-0.02435503955999967,-0.0008895690634416266,-0.005113714887485741,-0.0103267629771411,-0.00418475559044996,-0.009210677724641583,0.1021732983142791,0.09806936224324757,-0.04016191046027974,-0.06320749823525232,0.1306314808002643,-0.05463310896729807,0.1064836382217105,-0.03639805604243894,-0.08531521366281435,-0.008939738469213599,-0.03815613070037355,-0.0495126671053016,-0.07310365316575572,-0.1040914870531308,0.1168724708825518,0.1705942191074759,-0.02002919124643505,0.04424020067341045,-0.06688510388127485,0.08674153877586864,0.07802629790142418,-0.009739858742531965,-0.03284441808088556,-0.0175781372344349,-0.008411215727859859,-0.0520814570781208,-0.05651950825511457,-0.03849004088124911,-0.03381383226861497,-0.02650951651003147,0.1122594673860966,-0.02022080921048038,-0.02811589422588225,-0.02732055251363195,0.1574140100002407,0,-0.02056575649551967,-0.04661663936103614,-0.03481548439089523,0.1580112738790698,-0.05755757679101418,-0.0230450682110636,-0.004213148792707898,-0.0304236909177502,0.1216387308784723,-0.02181254129527591,0.1631150624463412,-0.01436772808009025,-0.02179503012912902,-0.01617131973856458,-0.005932025293360952,-0.01752120644294425,0.1408814724220024,-0.07697623815024435,0.1508682380408697,-0.04484036329897073,0.06214427113920627,-0.02034088202460156,-0.03250121416174628,0.1408918526484849,0.09317669501344472,-0.007091745279045989,-0.02624630738342064,-0.03683794055516552,-0.03326259486330225,0.1280826618986118,-0.07615421426220226,-0.06107754773691856,-0.008050746564242558,0.0809104290661294,0.1431500925438508,0.08356058224700799,-0.0684909462585355,-0.02346857224019512,-0.03762114399219624,-0.02341347943938695,-0.00602740765323752,-0.02664671359871172,-0.116178950966863,0.09499114159631457,-0.07943761497159078,0.08209621979186496,-0.1373575610474705,0.133685207502897,-0.06660827468423172,-0.03268095288592199,-0.1025385222792143,0.1919128511511621,-0.05114162997679573,-0.06321107351438536,-0.06892785691973605,0.05567369046695449,0.07335722845486463,-0.05953301483626602,0.3029393983503804,-0.05826749278060325,-0.06269648353897297,-0.0508974056442608,-0.1281932737163118,0.1504365016962802,-0.03106461967957426,-0.01493009390612742,-0.03110497066596908,-0.05147582955404882,-0.06526694832699517,-0.0306830602033677,-0.01609895868880038,-0.02936215110180075,0.0719306011969764,-0.0131226726931741,-0.03342915293710507,-0.01309227382026845,0.11956811370433,-0.0207314429460439,-0.0257292687732965,-0.03357138720198512,-0.01082400673273554,0.09555939275518714,0.1006062720903172,-0.05102097112213931,-0.003436359449023228,-0.01737671841351125,-0.02630150140863519,-0.03865579144473792,0.06800686920669471,0.2432836892469714,-0.007976613553385678,-0.01273149965666249,-0.006642184962711697,-0.01280563991926418,-0.07957752179932798,-0.01523693650805117,-0.0103522280497537,-0.01117226624466074,-0.08676645821946509,-0.007289691343205839,-0.02905932714155814,-0.01742401014656116,-0.03055128090389093,-0.001692226398576376,-0.01286397266636505,-0.04772993914383532,-0.05919147223712978,0.08235343172649279,0.1299921095785825,-0.0120992574117372,-0.007346872345384142,-0.03434359617849687,-0.0217867946980824,-0.03646290322691959,-0.05105212225176822,-0.001090311512479481,-0.02651694059104099,-0.01192608388265678,-0.003981737491191907,-0.01398129237186009,0.1944697684981443,-0.02616669769004489,-0.03166139965290361,-0.01984576055783311,0.168003085030758,-0.007941855766948292,-0.01127261318584878,-0.006151905354044796,-0.03927754016222617,0,-0.003168525224441377,-0.0107854207232616,-0.009659689803881696,-0.027694696376418,-0.02252986906516224,-0.02333306484131643,-0.0003337603724301926,-0.01504096097888782,-0.003577678490313796,-0.01800951659295155,-0.02093527736680697,-0.007715971426763645,-0.01434309888480092,-0.03328669953700056,-0.00266943154451977,-0.02048006825139131,-0.1227289958899679,-0.01633145895040673,-0.03800517944400335,-0.02948310436196907,-0.114803964701651,-0.01806986516122625,-0.01161358349489874,0.195684960403851,-0.03390255418099533,-0.003569696107770961,-0.01286496509732721,0.3034279647584822,-0.04812270675779172,-0.1155909001174877,-0.07804463574969411,-0.01917582119916002,-0.002346012528759731,-0.02287480618491304,-0.03206863914307967,0.1448135092266631,-0.02434600875295547,-0.008199661864669326,-0.02508226634578043,-0.01098591207283488,-0.02155939828125096,-0.04339077541315697,-0.05732604927377626,-0.0266396218583134,-0.02914344066801369,-0.02576044574428537,-0.073512066588864,-0.01621333456620091,-0.0268240210455343,-0.01565484141662612,0.2309797128402761,-0.000637550797613729,-0.01873943072702123,-0.03684823786535128,-0.0448117797261939,-0.05277954033851239,-0.06008388166020538,-0.03868838337041055,-0.002221430158610298,-0.04015010099370755,-0.007063586483602642,-0.01308264963704221,0.2091963926615686,-0.001114717299077886,-0.01897669143358863,-0.01344621444320633,-0.007411704812591503,0.3016671813644202
