-0.0160145669992773,-0.02498563573962386,-0.04840126380497405,-0.03282248542407049,-0.05950268091282192,-0.05327056616720281,-0.01053753415953649,0.05640711518276341,0.100734183422525,0.08407200337848347,0.03015092224525815,0.01857744985247084,0.000147889836664946,0.003027740816187332,0.02066525804844296,-0.0189904296587246,-0.01024233679494252,0.02339781090898709,0.01498922317564458,0.01515571126127785,0.03244744112565993,0.02003710438534555,0.005289670753181548,-0.03346777403581206,-0.01347670296246076,0.005580816386387704,0.01944244854918725,-0.01360294629242804,-0.02127377220051095,-0.003014637957844815,0.00359222674220121,0.002859461670867643,0.0340853839141093,0.03540642271964791,0.01005077692876148,0.01173702491741093,0.009850799905485328,0.05059941906381588,0.03498668559556974,0.01619496500090697,-0.0172257021859533,0.03392240939433128,-0.01659412630799072,-0.01645980868535691,-8.285237564369315e-05,0.0003382203761327498,-0.00145747982715483,-0.04541809532691801,0.05002176163069096,0.0275683894256551,0.03793524487713593,0.03021288371964726,0.04923349146280428,0.03794246558768325,0.02705649496049555,0.007464234374336467,0.03898177328722875,0.001913931722476129,0.002234759223539257,-0.01694624603212943,-0.01739607454404786,-0.03081954151032677,0.001577900666734777,-0.05705267325596182,0.0251188789123108,0.002389752269485478,0.04222379680361818,0.02979592979526281,0.04456512347651091,0.02013832296643654,0.01497988345757651,0.03650044261931939,0.06086478277749792,0.05933138062625882,0.01845138305625045,-0.01935349775600127,-0.02561327154652156,-0.03117257938069661,-0.0775964850074141,-0.05542132681659845,-0.005743165039033546,0.02269152122858122,0.02352978583475209,0.02583097512098687,0.01011351894332658,0.01587438037532003,0.002711699604560749,0.05632894838511613,0.06834822898948624,0.0836271739795163,0.0336931042171999,0.002901149548240837,0.005978061571854455,-0.01691916144022138,-0.03200727650923555,-0.04306528297025816,0.02560481008213767,0.02993401323936376,0.01323833717827791,0.0003375122695466474,0.01342031905473566,0.004342575011453247,0.01639710968374935,0.05158447593451429,0.07744096487893222,0.07176393607811865,0.05183712320330124,0.03076174114060991,0.008873448179804934,-0.01125154370470659,-0.0103816728881205,0.02285619586113339,0.00524431986308193,0.01693953244846124,0.0134255251730908,0.01149695230761037,0.003468865023411148,-0.01903969982911935,0.01651935348844394,0.02026310106336172,0.00739971178292953,0.04691631346204805,0.07943210078753711,0.06825315374397402,0.06391202027522892,0.03728176374625707,0.008888685107725202,-0.00885826315848199,-0.3117017981606617,-0.01313288324577879,-0.005332598797394047,0.006006391102115955,0.02593166388098102,0.01356058908692153,0.0124669074543225,-0.01012966301300717,-0.01148251227576986,-0.009956419497963059,-0.02384314251076014,0.0001230558367495536,0.01665101850753379,0.01469616093604393,0.02259835601590938,0.06213557051508527,0.02590884088540898,0.01605176999551904,-0.01281766078370543,-0.008203128067594191,-0.03776592048058138,0.0005451530722986783,-0.03043918979853998,0.02063153957298372,0.0129202287044218,0.008923663375700421,0.02886157202272277,0.0302434678894594,0.03659998922700993,0.03524276113521566,0.05651175659558601,0.02859002864236146,0.07398396537620938,-0.02326169486180538,-0.03273066769553796,-0.0441080351993063,-0.020828892661875,0.005984786011643772,-0.002675709635674976,0.01589875786861274,-0.01169374437630574,0.0330504399610435,0.03533438905924412,0.04019743463598011,0.03455046024385487,0.042553144720384,0.0635096555266208,0.05858909163650442,0.06906307546867135,-0.05214296223373023,-0.01970403864006808,-0.06813426082550739,-0.01621284510326363,-0.02626053134404122,-0.02689291345326535,0.01833051190129308,0.02167122501643111,0.01843367983106483,0.02269109391452779,0.03445822320299528,0.05198113372052816,0.06209871420632389,0.05197444690006724,0.05495319736786279,0.09248455845856433,-0.03626402972072712,-0.01546866750569366,-0.03264020335708971,-0.04403260930194925,-0.0538074045291065,-0.02011983949523555,0.00597850788876901,-0.005248857445454175,0.01344905751223644,0.01352085095081746,-0.01698936283204434,0.02203394980319938,0.05543358283866126,0.03783151434345874,0.06983731055181432,0.1037676776514005,-0.07628932642265041,-0.02789576897222611,-0.04181511523510559,-0.01733063083907008,-0.04977233653325909,0.006063182157833318,0.001715928717407591,-0.01485256596606096,-0.007616277908959073,0.02034154712701307,0.01021264132339465,0.0440055185466879,0.03049907744113089,0.05905187958997333,0.02374012238214767,0.05830689418478472,-0.08277394093234582,-0.02135248187843541,-0.05325540608585115,-0.008392675792739836,-0.02765085035127568,-0.03054781665115667,-0.05499404575976793,-0.02150548573848498,0.01362391423998755,0.02270531695526479,0.05376108360411433,0.05739100437115841,0.04214483855235098,0.04832525594853055,0.04808686847746633,0.007184065203565196,-0.04772637980498941,-0.01777229011376339,0.008978751379633295,-0.02629105299804267,-0.07685887647396961,-0.1232262324202674,-0.1151169140190083,-0.008386800807785776,0.072199746392295,0.0975132596998744,0.1057417706035868,0.08750868934231566,0.0595403590341148,0.0530135367027784,0.01681329635561343,-0.04714687642034831,-0.2700559790240686,-0.02128165926336919,-0.03650623069893811,-0.05212935916870617,-0.05686079534213279,-0.04933725913484882,-0.05334572020999292,-0.005436335367655963,0.05910121993461528,0.1161215815757656,0.1075955922062018,0.05888771008594845,-0.003036372754339098,-0.01784062895569727,-0.01464764178156856,-0.01813821361916218,-0.02755211608787653,-0.01841339744551535,-0.009869491382338528,-0.0400906267650213,-0.02146067102213454,-0.02055719302708565,-0.006986633469982331,-0.03959546883860442,-0.02846869818917159,0.01214379485129232,0.03224084686382209,0.0005253514030284305,-0.004869507813912035,-0.005455128652359386,-0.008267681757691566,0.01482809720163479,-0.01441683444763172,-0.02230343977694624,-0.00457162152105751,-0.02080902039278187,-0.002385186507972959,-0.00120757736372491,0.001436011762221074,-0.01761664541913679,-0.07934516123102961,-0.100377301644436,-0.01635365937330686,0.01424412958640521,0.009072246498663745,0.01444720984181898,-0.002995694561422063,0.00198866661708539,0.01848029303331078,-0.004374093002177069,-0.002771169642369469,0.033113660991374,-0.004142517024258079,0.0364583001038367,0.03021352741250153,-0.03580939980697043,-0.1031701101678021,-0.11311859495618,-0.03845160451043004,0.006195523177879134,0.01765126913750687,0.01650989757240353,0.04630765138294633,0.02387678239040762,-0.0008085151795166217,0.03006890229247856,0.01858171323451907,-0.005567050583032567,0.02743976886380498,0.008501852502363945,0.007319644907232203,-0.03674063918248047,-0.0369241475355568,-0.1129180248898287,-0.06812788392549157,0.01620242604262337,0.01010888595589636,0.0113399615517538,0.04344814537016584,0.04023476726454096,0.04371815365828932,0.02111582632088393,0.02295465699227336,0.02278651868200056,0.009751002410990811,0.01043710156696262,0.001844699567659494,-0.04692091042552628,-0.03033759744597633,-0.08570959353576996,-0.029026520221276,-0.02704340468045267,-0.01130202723578475,0.0344012814694289,-0.0003472077925866508,0.01941624846891435,0.05635445610648424,0.01915035981803182,0.0007247107672267341,0.0003700045309371117,0.01504980629724357,-0.02122285130901667,-0.0294248231342808,-0.01260353190820712,-0.01775930620421162,-0.05979970234684814,-0.02761586443066596,0.005048038673481502,-0.01536065625226033,-0.01099232978444466,0.01679901658312234,-0.003506030565932051,0.06474819811081091,-0.04789594223493665,-0.01235161168249747,0.004749344266271468,-0.01627186370058937,0.002849437551186316,0.005638955953419207,-0.0351729772416836,-0.09490777777098716,-0.05522290928481102,-0.000441513677250174,-0.02536395526119247,-0.02320087556356617,-0.04506897490592243,0.01138217669752171,-0.01177132984606416,0.0004726637465856795,0.2010372959354661,-0.01332694748609904,-0.0208838180676841,0.01064620747133159,-0.04586527320973151,-0.05298154285743027,-0.05004511995889764,-0.07099789581441907,-0.07319978210987083,-0.01186858060666933,0.01763976401655432,0.03081640993373448,0.03940424156848105,0.04451663780275369,0.04239419367117812,0.03216657335841094,0.02355652020445687,-0.01647534433135721,-0.04329001372932466,-0.01178711986070491,-0.02210217420300408,-0.03671698680375911,-0.03899731873504497,-0.00953609292555594,-0.02892286783303607,0.002664863295679138,0.03194178705784263,-0.0006106674407065376,0.04248997677243333,0.04183491540061503,0.04570602118482928,0.0331980849808569,0.02589784158427357,-0.04259870204733501,-0.007782538888853518,-0.005110793506335494,-0.01543097020958727,-0.02644599886519217,-0.02611066134911005,-0.02639286784454543,-0.01718087688271359,0.01566149429172813,0.01842357105165342,-0.01114561586713701,0.0121956637984496,0.01484583277501994,0.04263587074122713,0.04330880382799464,0.07255825994703197,-0.03900689440935438,-0.0261724801371759,0.008277888468616873,-0.01258605940160465,-0.01442981038054155,-0.0405485859232889,-0.002533752500452367,-0.01093091061619575,-0.0009365738346854987,0.01139933294217273,0.01409546478738092,0.01650400658652253,0.05055717741488603,0.02388710183806163,0.04267467478065655,0.06087985736420846,-0.02182011550035274,-0.02340960916236703,-0.0109183399665491,-0.01730813193924889,-0.01823683598245217,-0.01455527352124206,0.03183695564088929,0.001397735486875259,0.03741954996579722,0.02615090983209633,0.04088311922561664,0.05565000345445253,0.01133297155504703,0.03534830204731256,0.0321986525935468,0.05063758443778982,-0.0251561954849583,-0.0005181155353199628,-0.01070653688742268,-0.0182397653988975,0.01031041389624303,-0.001641712192256424,0.008659748544268495,0.02442901785350618,0.02173300578437016,0.03346555040778059,0.03550907213560983,0.07342265119051561,0.03285141160797705,0.04911363805037714,0.02618270684661053,0.006415594989555948,-0.0157979945978026,-0.05331847186953048,-0.007267743737760322,-0.02585442305209324,-0.01481760622509284,0.03219375290860727,0.01862146866701965,0.009198178606600528,-0.0005068392659526,0.03489169208744852,0.04625490129349207,0.03156293891873378,0.04754709919007094,0.02714531272898621,0.03744892031174507,0.0294051788456678,-0.01290908281601916,0.01127229761971254,-0.05167282683940652,-0.03550415473529984,0.0008385646232424791,0.009670704335698067,0.02422661719209184,0.02856447017773085,0.0240692859759299,0.03178521158529266,0.02445247612902915,0.007419374815913817,0.04637441646661351,0.05136883668737177,0.04989919310898374,0.04524153143772277,-0.1477963717930764,-0.06038265496145261,-0.03614040113400265,-0.02178887551371518,-0.0362244317021312,-0.02026493227800336,0.02878639121455371,0.05750797154545709,0.1020797504564248,0.1073678160417293,0.08882234849260529,0.02380522089157123,-0.01471636029961928,-0.03542963364971106,-0.03241317717321894,-0.03643723908114747,-0.04295148659328153,-0.02580743246910513,0.0008573187788029036,0.01765774409000314,0.0145270870385971,0.02446728671952424,0.04276507438316721,0.05044609393969505,0.06600027709427236,0.070137866819483,0.05772169653949277,0.001528193338186171,-0.006528435086414264,-0.003514616468830313,-0.01135205880283817,0.02275423851378366,-0.03121423877991463,-0.004939572440418526,-0.02978884682959359,0.004561564632277079,0.03200903984275696,0.008810514419373538,0.04555502103410185,0.03371433076732501,0.04153741987702343,0.03530496855802296,0.03249879207210842,0.0248144536230141,0.000271415201434048,0.01570307422571167,-0.0002872356919937629,0.01507842168129435,-0.003466044002645542,-0.00561415428675042,0.02503826557355911,0.02761613879563199,0.02203929878243237,0.03191605122479337,0.024589736125986,0.03344592168418457,0.003552586772397154,0.01086261693851806,-0.0391381672144921,0.009724615306054387,0.05159879327597286,0.01202870287028526,0.03127700380933353,0.0249573652346336,0.03690206874452524,-0.003692402972780591,0.01317386233506611,0.01273530700058001,0.03661708320951788,0.02432595504557836,0.02166523064810303,0.01661486755346045,0.02613804739384116,0.002195006958944803,-0.05215043213215027,0.008577712576940269,0.01160033355654639,0.02658688178538866,0.04039521788478345,0.01376016362397973,0.03862899080478629,0.004468996071499908,0.003954494366201457,0.01170551821983055,0.02787620331290382,0.01481250537338237,0.0236071405730396,0.009807093710616549,0.02409189215385705,-0.004258500303204598,-0.06328394862981181,-0.01471135992007366,-0.007020044775261541,0.007898291050349122,0.02054023928127767,0.04436371279900386,0.05463129443160163,0.01115704463608205,-0.004587126063771667,0.02090131162402791,-0.003218801301601867,0.02266127344367792,0.01027272566723846,0.02100599407876069,0.03042316634177751,-0.05538610500831909,-0.023206218350658,-0.01092830541711246,-0.002879323903575221,-0.0146692821495232,0.005044120445147337,0.02031860534445731,0.03484014883378494,0.0252769288242052,-0.01435053710682061,0.004747516044156594,0.0414758338508762,0.03354417555516678,0.02680228502510827,0.03647163142714591,-0.05379121467423328,-0.06776738888851928,-0.01981909841000737,-0.002739965763595164,-0.008069637743578653,-0.002563514784129277,-0.01127997115148989,-0.002404092522254198,0.05568124570791431,-0.1981807516401967,-0.03859668220723508,-0.006006903584042099,-0.00166953820115548,0.009446694816161047,-0.0113084932508697,0.01333138946924377,0.002042099959689447,-0.01729513733540268,0.05498591288048352,0.01135565378923667,-0.01252466541046751,-0.007861898510082722,-0.03224371035420009,-0.05727772441806785,-0.07737237795461319,-0.08025235508224561,0.01501385887393231,0.009043674427576552,-0.002693330599026069,-0.008546642802288125,0.008243515882706016,-0.01161269119301504,-0.0004339842717142924,0.03323724252600576,0.03618749834783513,0.02920963688427343,0.02161952061038291,-0.00219800445389802,-0.03314321032366609,-0.07924250057070475,-0.0517933753420702,-0.04268813211318753,0.0214614491813842,0.04145522692898394,0.02142173874856394,0.01811239000633992,0.005784151699817092,-0.008638053907609151,0.01585688491516633,0.0346991899146467,0.02678018463543213,0.01992900743130786,0.03173425386501504,0.0005750608405807358,-0.01657148218621228,-0.06714960167395721,-0.04833913813214517,-0.04380820152793528,0.06490285409371455,0.01520249627619118,0.04281830521118145,0.04799792980237896,0.01637568022435827,-0.02946856472793036,0.008502465853674718,0.03214076417050424,0.02195077745009548,0.02927317132594557,0.001287228286420385,0.02523147719407331,-0.001872530507076077,-0.006943050344370157,-0.03360659317446572,-0.04844307056177265,0.1049785788829615,0.05574758934040332,0.03897746305020342,0.03452081153975909,0.01651234955740772,-0.01904348889916727,-0.01692299681701941,0.01487671068438144,0.00375393747452094,0.02906876009623446,0.02828713855960229,-0.01231608008262813,-0.005274486875191699,-0.01255291460808798,-0.003968818157744287,-0.03632088232538185,0.0822662950492036,0.0692908584978421,0.04796409677914134,0.01849764121349793,-0.03312233255756598,-0.07610774337463334,-0.04266392372565063,0.01132536166755486,0.01824594257860736,-0.005326370624791119,0.003641167171929493,0.00198301094080566,-0.03425433813634993,-0.02135569392438423,-0.005183378458272554,-0.05413946765547849,0.08704650297758412,0.06681861028052627,0.08299572352977717,0.05983773337814259,0.0256211797166806,-0.06056427428007316,-0.04242714533765059,-0.05508184995377006,-0.02149419825262484,-0.03234415439526538,-0.02599414891916148,-0.03455790678911379,-0.0455760969524801,-0.03615343679499809,-0.02840716083142926,-0.06738136754195712,0.06343015691781263,0.08881074077588165,0.05802209019086384,0.0635161893947498,0.01467849960558613,0.01455871255820793,-0.0530338297494282,-0.0216055571418713,-0.02434705262527024,-0.07403249042343006,-0.05403616613353191,-0.05198010812705715,-0.03426677525834451,-0.04941867183113388,-0.06248241430069652,-0.04380706483135261,0.01464642031128846,-0.02433292854216607,0.02531034206177079,-0.0004477440941610295,0.03584436701576359,0.02593335177225925,-0.01388562948458837,-0.01713744657379134,-0.0806334898381732,-0.04326354142081979,-0.02243014130121093,0.0148645163156221,0.008622387221773794,-0.02302551397317764,0.005236318748413992,0.007690572891290075,0.01002345570403425,-0.007520941167810978,0.02201859741428527,0.0440254585524148,0.006846796275512793,0.02250765136476993,0.03138953990763439,0.002410350089308072,-0.01774799603733557,-0.05790000706267368,-0.0512979303809754,-0.01484195592627592,-0.00738933525684432,-0.007455871327304417,-0.007246520779515799,0.03041311474957694,-0.01307521665190949,0.03389398597347712,0.02443514139687201,0.03136035751768122,0.05238370912831796,0.03593381153277486,0.02177268864521313,-0.02821931292020551,-0.01782144811588469,0.0003493654982350043,-0.0276267412200278,-0.01955696228718503,-0.01924852387615915,0.01172426820089084,-0.007511849428972464,-0.005983874983097838,0.02896852249538495,0.0278828785646868,0.0323091427079626,0.02800715319180874,0.05214592478069272,0.0265852212916306,0.02407121074910278,-0.001599212005305857,-0.002593463939337942,-0.02540622969254362,0.007061369597660112,-0.0336406828653568,-0.006562142596641756,0.002433358062693532,0.009551397995765562,0.009479028498727464,0.03006590128519005,0.04075980779272161,0.01673099583005367,0.02830565267941835,0.02172347879648818,0.04006784478197362,0.02509994034067459,0.01276964419256177,-0.009400040809667377,-0.009012820000568574,0.02330543909500246,-0.009859395084449244,-0.007125269901951196,-0.007490195653221756,0.007694807013866946,0.0027104739354124,0.03645363040106518,0.01584775699773934,0.01689219989569014,0.02077032857829094,0.02927385123250477,0.03648630721011616,0.0311772026366443,0.02309541699109415,-0.003658324064707649,0.04264389315150674,0.03066594817461753,0.005385957532046752,0.01153723949002654,-0.004419117807927937,-0.006335995432339738,-0.0161445286244591,-0.01607556625141454,0.04511422430831494,0.007922618119725441,0.01661733777292815,0.0272720651263779,0.0005490535347588633,0.03284190358205573,0.04316252730111803,0.02463413218445556,0.0437621634022867,0.02988013091956799,0.02374144670886438,0.005489495003700589,-0.006920501769465922,0.006770109683598292,-0.01383085925876856,-0.01747135439704344,0.0166598989595516,0.03573349159059828,0.02291894311108539,0.01399060189479914,0.0021063399505445,0.02390275440848319,0.03488908307742638,0.001732834769563552,0.03328661318707107,0.0346015828442366,0.03613333500639821,0.01720361636067857,0.02225764708745381,0.01831177255371452,-0.00344327194999267,0.0009259102568927501,-0.08040102222097524,0.03052235250395417,-0.0097353697205024,0.008267322821053484,0.02118093682139561,0.01666069177471618,-0.02194386658607206,-0.01418585061692914,0.01815853693931769,-0.01707567101408868,-0.01770850111414858,-0.0281057979652969,-0.005090017280479564,0.02722890086604765,0.04456671929398442,0.0452189684377652,0.01811198135328257,0.01688210894730165,-0.007219054869308962,-0.00421422681336512,-0.02923447449909137,-0.0186146907164674,-0.00854957083199057,0.0007006266979361365,0.0001498097681920219,-0.01106568263408655,0.004618711130009126,0.02659323083392217,0.05188015416071422,0.05037316055372558,0.05265867698170607,0.01879032895352661,0.03891731426375045,-0.008782017999069249,9.68473538463758e-05,-0.0180147366782084,-0.04746390613039189,-0.01650942313362273,-0.02674242620146213,0.01600772455078028,0.007084754348490056,-0.006304691842588636,0.02937473923346332,0.03790925570117926,0.0570454428870141,0.03195310076789672,0.03339205026646733,0.0492231257048918,0.004315534430261826,-0.01796675940568955,-0.01242161793598482,-0.002752877348209897,-0.02846227352366346,-0.04616209815326498,-0.04631549230358857,-0.01808371287532433,0.01825996532871395,0.005438571410833177,-0.001761148770252664,0.01825912632359558,0.01430308282702727,0.03482399731528656,0.01768339023731307,-0.009603959043448771,-0.08236418825672662,-0.01157804289297871,-0.02850924875699902,-0.02443792507423442,-0.04054353792692929,-0.0371420298560054,-0.028219027464234,-0.02884253467051991,-0.008849042024825437,-0.01172709572677631,-0.007959885585712366,-0.0006505058060946014,0.001151029825299152,0.00260482487671183,-0.06667802242073226,-0.08477699485721289,-0.1119511668245959,-0.0146813248827495,-0.004866014050598461,-0.02769249594836311,-0.05655369331896618,-0.03690548918749689,-0.04078811264103727,-0.01688818810938022,-0.02156198297520506,0.00711879835748975,0.01450238984288758,0.02758368232992642,0.03435647855852132,0.005739662339870997,0.03187768403207077,0.02007483549293444,0.06413413574119024,-0.03663252996218883,-0.01498038730944111,-0.01879922625966825,-0.03722012053785515,-0.05443503237198762,-0.06125066546986675,-0.01731015380462595,0.02448233603029861,0.02638617887721623,0.02376392191287681,0.04038826858543568,0.04038730472542716,0.02437021751521798,0.04995053041282591,0.03098342004233134,0.07231725268110818,0.02690717502183249,-0.003027606682581495,0.009761016323071374,-0.02055274585610636,-0.02994079655168212,-0.04203401160157771,-0.06082494304529132,-0.01564275623499633,0.02297912169467163,0.01472958091159321,0.04325698209195034,0.04966787841208771,0.06145053116119217,0.05513667553323895,0.04861730028649012,0.07271985642279984,0.06136846564261154,0.01505296998365332,0.0185295935164826,-0.005421053823861967,-0.02569145778787065,-0.05153218478715779,-0.1146684175716993,-0.06425134450061788,-0.04302919140199066,-0.09461917507350293,-0.07544015072340324,-0.02385096421755575,-0.01935329299030606,-0.006408917827022248,0.009136176539950415,-0.003069119460555769,0.02423921888983053,0.0323165449339485,-0.01287256142589636,-0.03620643862889932,-0.04031532507529639,-0.06414552411161466,-0.1019576488897549,-0.05139574122922853,-0.05567061693067372,-0.0699670865536865,-0.03769530355035326,0.01511805459518694,0.01359238443699082,-0.01923033341571578,0.02827354780744772,-0.02483512047056434,0.008557800187986898,0.03885790329023889,-0.01734922771203028,-0.02202328746728607,-0.1144749052784341,-0.0829495995053896,-0.0497421550678909,-0.02300220676113249,-0.04977502558441621,-0.0297262906048773,-0.04296023163448333,-0.01008913119663122,0.001579055823661881,-0.011719727729503,0.009304863032556898,-0.01558810543362549,0.006333057059529279,0.009662316703424649,-0.003982226760748231,-0.06803106495958644,-0.08517959460058423,-0.05379052592565196,-0.004262956502353689,-0.04226973248296267,-0.04648739138583111,-0.02237879844317624,-0.04945455407686219,-0.02174760587234655,0.009920886235465441,0.01709800921857536,0.008402269542877787,0.002422622012483045,-0.03057552119965016,0.01864300753067318,-0.001399399007875621,-0.01179359178402653,-0.09170595504872277,-0.05503493994280765,-0.0417503466073201,-0.04958193771381679,-0.03420202477363701,-0.02816000960157267,-0.02045502224860296,-0.001838046047236895,0.00310345143989365,0.004741302229446025,0.0176802710770801,0.01007529630299697,0.01108296788205236,0.001768226965823529,-0.003966394824926141,-0.01614225933714614,-0.08703574270414804,-0.04782144756182791,-0.04349535834722486,-0.04782858322872537,-0.04699439722838848,-0.03165950876066582,-0.009910519163555814,-0.01331337444481785,-0.02114100997834108,-0.01554898859408761,-0.005010429304381958,0.01209416452188465,0.005724490082643983,0.0005606291221146091,-0.01745426481173699,-0.04014918485007762,-0.09453240037266462,-0.02645213305824108,-0.02580341321718174,-0.0811273152909003,-0.0481336569236093,-0.03508772128741254,-0.05412330250325493,-0.04260072617759143,-0.01450768059500571,-0.01586237064987353,-0.0009054123362137072,0.008183244173404609,0.007782227270452133,0.02541490624238768,-0.02084853536507687,-0.05357787586651352,-0.05032225289543856,-0.02391646514733312,-0.05688602763231367,-0.05666998585405347,-0.09074123577197152,-0.01887364193253657,-0.04709289931947848,-0.05700463244285076,-0.009359607957735668,-0.0197320464848438,0.01429944799666678,-0.0007858451374023433,0.0438635605166595,0.8020599045718843,0.01571201164141876,0.007524958390184671,-0.0206152613072714,-0.01793073147679155,-0.01377271716359279,-0.01874625035796567,-0.02657506490790967,-0.03476526303404984,-0.02296502282994623,-0.01368721667973618,-0.01201508911352763,-0.006705690867929791,0.009365135293624306,-0.0002956591513852891,0.005059088968501179,0.009675818991395921,-0.008666153953947589,-0.03116753897757902,-0.03496272781450832,-0.03106964549842317,-0.02227437634011333,-0.01756865618949125,-0.018296375832475,-0.03043981503971785,-0.0259236113358853,-0.02517297118556922,-0.01055061790892396,-0.01955118331246653,0.002825462032817202,0.0118846511377992,0.01231225522879793,-0.004042178248729804,0.01376567657449577,-0.01453889141696984,-0.02510193754948578,-0.01784140741193262,-0.01872644606156324,-0.02498004553975642,-0.01987082568340259,-0.04403285033729695,-0.04010453672473342,-0.04922820914605396,-0.02622226326990471,-0.005966128843438983,0.01998663715831235,0.01908611270903518,0.03092721802357166,0.0380404960013464,0.0114781209821604,-0.01417148583892509,-0.03832275936979056,-0.02276933293734605,-0.01506311164229649,-0.002013724374787395,0.02075619545912162,-0.008822570676357935,-0.01690068740167342,-0.009787315205887114,-0.02278891912619716,-0.01549037099242072,-0.00864280484316962,0.01692604423293119,0.0503970734244609,0.06430573743153585,-0.0127423723809252,-0.03283215831789948,-0.03614213052457121,-0.02089361146590728,-0.01626358981015615,0.01946369651308107,0.01077089951445977,0.02274613622796427,0.01363309230398531,0.0008391722231313199,0.001195903980728286,-0.00545770885355444,0.0008274695687562597,0.01655471310737651,0.08045407136225971,0.07676107367153617,0.004246837714004098,-0.03012557224099564,-0.04086490002277979,-0.00907618130278811,-0.008545960939105106,0.003306140279442253,-1.363986765314109e-05,-0.002639922067050177,0.002802755858105892,0.01740580059073013,0.01420194486648593,0.02040273484645728,0.01887180961141212,0.01702875163618947,0.02513724159404889,0.03273735075050087,-0.008407071010584443,-0.04215711356378336,-0.0284072366168284,-0.001318857121705059,-0.001935275762062347,0.004206987862027898,0.001681559920563962,0.016802794859907,0.0157444270534236,0.01342153447088676,0.004089181548932625,0.03055876637343079,0.03876396204726639,0.01068217410440519,0.03138528618067367,0.03120299910474656,0.01705796727037057,-0.006517474042463004,-0.01708517713353631,-0.01093354254980113,-0.0239698213538753,0.007190777919522268,0.004613801814133056,0.0006276164435796426,0.001760895867181303,0.01595797515276788,0.02652032173889812,0.02115720099035199,0.02621226126968117,0.02239506874972921,0.02029331569588082,0.01199608091065999,0.09827682603524045,0.03238580355951146,-0.01060436050853454,0.02565253989798377,0.03523976726272773,0.005196157855508799,0.02358046124822335,0.03520356367378387,-0.003997192108934781,0.01251283500579746,0.03567433117172926,0.007674009171264477,-0.00526196203478965,0.05937059646229293,0.05143675000608901,0.05677375210136746,0.03009780380630345,0.01829926382625786,-0.005903039930579161,-0.03017811231264122,-0.01685006300693302,-0.009238105231844691,-0.002032079161642659,0.01131388264864908,0.06390424888078157,0.04353370517321744,0.05725366664374455,0.04344429358546335,0.04364971961051046,0.04534227344060068,0.03804389979576209,0.02551138903313166,0.06064717854950391,-0.00429046621949943,-0.009310574384750735,-0.0197438789264979,-0.01561971264432182,-0.03916424856968214,-0.001121050089531873,0.03536344878899222,0.0294803224023532,0.07621226859976436,0.05195293520588509,0.04497022973571831,0.05814832497266348,0.03423834547499253,0.01697260960251239,0.01214461073529108,0.02969600085533383,-0.01702532169407491,-0.02441187017352337,-0.001325023694216045,-0.0546740738841469,-0.0317705426334287,-0.007404195116265484,0.03401459426554296,0.001314016210937455,0.01030445911419969,0.0432173786630395,0.02468737450202704,0.05200644773530647,0.02725338118861104,0.01923187114187741,0.009883289276640525,-0.01043009036700845,-0.04358799039866082,-0.0307040194896082,-0.04959030718313386,-0.01072899033349629,-0.00382412414747603,-0.0131180633405392,-0.008746671780494064,-0.009895722819548888,0.004399509845981603,0.01468075190699614,0.0200799440975183,0.04204957315447538,0.03371508368163621,0.03376879272463017,0.02576506691535334,-0.02017871748931136,-0.01164979505767638,-0.05580895186316715,-0.04633485179809908,0.00505371745397775,-0.0238662757399311,0.001509951093834133,0.009281726081360155,-0.0002976241251066631,0.009195137255722491,-0.004706194965578116,0.02173316317000457,-0.001641285527153521,0.02616889263951295,0.03491195388124157,0.03513866096839868,-0.009230845930505705,-0.04372315596634332,-0.03534752943724501,-0.01582507146437964,-0.0578914954046818,-0.02850984239108378,-0.001740755871543693,-0.001775147567055617,-0.01088829690679621,-0.004525458251947952,-0.00438335636370021,-0.01608693789874549,-0.01669306655035098,-0.009839121434942694,-0.007563820705007345,0.0279532917134524,0.01746481289035009,-0.06766945782495051,-0.02768558001319426,-0.03515301026287138,-0.04253123834619587,-0.06693602536316022,-0.01412963586687307,-0.01412125281827629,-0.01315581089284425,-0.06477881981840287,-0.0576731375208872,-0.0249566551221272,-0.02072890973614043,0.01031900097118109,0.04107255781212588,0.04342579935755467,0.02794120130937353,-0.1695515596506462,0.05979495981188101,0.00702916905254652,0.01895529245357361,0.006507044329521186,-0.03221277841723236,-0.04269020968922884,-0.0672745505039391,-0.03400618184899205,-0.03613936316466373,0.001953255429824688,-0.02906506517540289,0.01423179407749646,0.0198060442982669,0.02867149946493476,0.03544464759383208,0.04903118031312995,0.01231672844945239,-0.01164988017711355,0.02135060214675225,-0.006855078738507769,-0.01800235202244227,-0.006875658717562879,-0.02065916901736817,-0.02844780793809654,-0.02701559338036317,-0.03878335840605981,-0.0533819192234435,-0.005455152036547373,-0.004563817616829008,0.01316258994821841,0.004579052438192876,0.02139555047423366,0.01782719384454222,0.007507775710434802,0.0003576064474858142,0.0244565235909609,-0.01032716655195659,-0.02267085190126201,-0.01043550236176306,-0.03935183637640971,-0.02700531159205995,-0.04129420073741061,-0.03862476348428905,0.0003996682334870976,0.01274847336027604,-0.02745413117886802,0.00966669591753927,0.01720292516812708,-0.01455954333694333,-0.001019557175697029,0.01678793146336716,0.02639346173160174,0.01305772734199767,0.02896658712763436,-0.009413654045344793,-0.0075694061415246,0.003461241015931303,-0.03004095733720145,0.001244932371087858,0.003621426379350691,0.03762801969424334,0.007244103711363886,-0.006413847058286209,0.007263983534254235,-0.02291950364334414,-0.002483238796543203,0.005446394957441277,0.02025421349175049,0.008923426801629362,0.006181484772842073,0.001356265070571173,0.004288735814286606,-0.02661531984988543,-0.01519827175809993,0.007838566423424219,-0.01209351979701724,0.02171693426487514,0.003285250237394568,0.01825137117617751,0.03106778301635854,-0.0212921083158826,-0.01110551949556167,-0.003746028410594747,-0.008655681156882705,-0.01035008836802938,-0.008484957468826928,-0.01827430832218337,-0.0637921768769082,-0.06147274447056063,-0.0512138801657864,-0.03931963420771847,-0.01123638740893134,-0.02428540954073092,-0.002494078413263161,0.0006404959843773886,0.02060831167549298,-0.04368347416343737,-0.006051473997034649,-0.01776613199866421,-0.02332655683885242,0.01387769059494369,-0.0004296499548738965,-0.05175607096997591,-0.07209337336031731,-0.09578483434983157,-0.0871994759099879,-0.04056552602278691,-0.05537774207310661,-0.03377761271103984,0.001370101626127333,0.01548798622348262,0.01930775141727007,-0.04191779484877976,-0.01186996828916972,-0.05391975827223604,-0.04795868175899493,-0.07537738416090707,-0.1055625746675806,-0.09034823752842525,-0.05994652382959349,-0.05015227718237583,-0.01832131177042375,-0.0123044366995349,-0.03470391176376683,-0.02899659815242115,-0.03400239849718045,-0.009906247620090985,0.02285457920544251,0.4415442606610447,-0.01925925205727535,-0.01377017826574804,-0.009563487641607664,-0.00432206721487785,0.03614023519889796,0.04037749112386946,0.08325989754141722,0.03452438497764667,0.04675711707296614,0.04387015351392816,0.03427605450482153,0.01372002177295233,0.003034805846776154,0.008095724639511422,-0.0175121750677267,-0.01027738428815603,-0.01788449225893977,-0.01227669079931634,-0.003433003266011268,0.006421770934650775,0.02495742707718827,0.04177879694024421,0.04127686322247891,0.04711285297848179,0.02969016110097216,-0.007939036989752285,-0.05299799386792393,-0.04944853942702406,-0.009285828204365281,-0.01525427320259883,-0.01091272623508711,-0.01808733177244007,-0.01543606114964958,-0.01577728014154367,0.002430171068104296,-0.008982508701390694,0.03584797182760613,0.03327174728820771,0.05642346966753575,0.07675939098377021,0.01275879849172343,-0.07552675396440026,-0.09195421861282015,-0.08162722750580353,-0.06088168045433023,-0.03044386444771346,-0.008104125012471413,-0.01734878172102599,-0.0179879419872795,-0.03043900610236029,-0.02028723365878854,-0.01180642040911957,0.006015207843567866,0.003838223283429156,0.03779700524391525,0.05684685592910288,0.07789679970082515,0.02268840332568137,-0.005230508196452256,-0.03860173123180488,-0.05436247024948866,-0.03830225684333941,-0.0214182352434086,-0.02061461190405308,-0.03076240512981461,-0.02499438987046436,-0.03312905353450049,-0.03124593187712116,-0.02466419655022559,0.02193573441057597,0.02794716252204124,0.06660046004098356,0.07833915343402674,0.022552037365871,-0.001369007300412373,-0.02185447949717367,-0.04338529691619843,-0.03858645032479315,-0.0149447098773295,-0.02232580707253598,-0.02566188836787888,-0.03039104361385414,-0.04359345738840499,-0.01078435824054309,0.02265713629711603,0.02614766635370767,0.05638381889955792,0.06577993313877661,0.02686826784559582,-0.03900866405926889,-0.06129572150823148,-0.04745203103960445,-0.01892254115969978,-0.01885427146176611,-0.02039144115160194,-0.02365239731098816,-0.02634076082344775,-0.02000088012966163,-0.01427179512131476,0.04138223345987807,0.02174768978802366,0.03118155423684473,0.05349187602815349,0.07363199744582997,0.03697913146044435,-0.009972550627896284,-0.04379924541616513,-0.0496653421706249,-0.01371882005429868,-0.01816050439904864,-0.03021980177165577,-0.02826761560266441,-0.01802015492949665,-0.007613959636452154,-0.001942860638441528,0.01918699416568061,0.00516118728345788,0.01938997752867343,0.059416485337214,0.06851771105019126,0.04608601420528966,0.04482736825664842,0.02260489018468021,0.03682758124423791,-0.02688905519964114,-0.02087604754937265,-0.01851652566888722,-0.01713267932169385,-0.3346511207412375,-0.01412735948015311,-0.0156668546724183,0.03337419671798631,-0.003994491693797161,0.008332451323757532,0.03457125550651247,0.04185818172795738,0.03357320266977361,0.02583637726260073,0.02430159574458019,0.0416237969522457,0.02616701703128139,0.03849957215498633,0.01088925191743784,-0.01948792004250731,0.02458740946356863,0.007432985548616542,-0.007679574583128388,-0.01473252840544477,0.008932492961655826,-0.001927942769836114,0.01917689604923477,0.007011923274955513,0.06055824789485133,0.05676721815789337,0.04057474406972247,0.01623281242066672,-0.004614806674421829,-0.009409443703056195,-0.0106867385661974,-0.01614647389776908,-0.01709018778418989,0.002379690646777054,0.009530901065803534,0.006118389949682242,0.0002625653918579345,0.005393829892109259,-0.006044761705946279,0.01134652401213285,0.01869618200661752,0.03010936722081404,0.01878510498370325,-0.00615951222838193,-0.03172336808244072,-0.03837259776557247,-0.0289591548047335,-0.04715472359916764,-0.05682465007556674,-0.01061489277678755,0.005738891079486381,-0.01973432407326674,0.01787470977212513,0.008958540205948448,0.01729857321432581,-0.0135172118992997,-0.01015796360834716,-0.005756778840099813,-0.0188156459159777,-0.04751746711392715,-0.09803360956922975,-0.1259367983205467,-0.1698238719039109,-0.1268523442287006,-0.09483246603176307,-0.008534065495218375,0.02500434868151407,0.0259246954416281,0.004275597385175926,0.009325394635308317,0.007133000725489263,-0.004193323731034231,-0.05255685613221543,-0.06892823301992727,-0.07367283262214082,-0.1012325822706304,-0.07759368668454666,-0.06257149182870515,-0.06910254187828568,-0.1054532155971152,-0.08086071232787007,-0.012333045106652,-0.03062849498340619,-0.007744642931905207,0.003076466398308241,-0.006501696735026537,0.01528890256950775,0.010754758817481,-0.01635810224679627,-0.02376223324363758,-0.000714421446067894,0.01691495999800312,-0.004615168380766217,-0.01409564911908537,-0.01366662511353767,-0.03046590580034512,-0.05628975031949325,-0.03947248992458158,-0.04782440979591088,-0.0304103870743659,-0.02737394381452107,0.0001745356417087548,0.009757575912725625,0.02112703631629415,0.05777648996252931,0.06491930634577144,0.05237792188379841,0.006649039721625228,-0.003422235729007993,0.04215467090063341,0.008854403565021998,0.00727227910837719,-0.004737965650557581,-0.02939683334213915,-0.0002607363322327477,0.005751668028741301,0.04640893584045132,0.02318471370731952,0.03728514683865249,0.0398366674680845,0.06312134679417844,0.03536783781271335,0.03545558767419154,0.07894206091162617,0.05877680213366509,0.01994709939588904,0.03736935051607985,0.002904658000187569,0.01371973773671856,0.003744081343931865,-0.007349782998835568,-0.04315559677420695,-0.01768821655780878,-0.02045146001884047,0.01249892173217862,-0.01207828221762256,-0.01438230172075931,0.05222919629136008,0.06190032254053033,0.05786277486334391,0.02710833642890439,0.01565785958676266,-0.005152076481065601,-0.002244290553367493,-0.003713927524672504,-0.02580874435919708,-0.01274420568897692,0.0380557593903398,-0.01757960889840017,0.02999837289554248,0.02562390779289354,0.0004156552478367186,0.02206132763760735,-0.007485368490480004,-0.01377122850500218,0.01711705905954268,-7.006750838545033e-05,0.0002193018005288806,0.001969468458686213,0.01401382837938838,0.02458786365306743,0.04458441475827857,-0.01134898623925269,0.0159707419271704,0.01606497012141572,0.007501262602338623,0.02112127664328039,0.03801429577313079,-0.003497472550220607,-0.03792083424495168,-0.02512390306935057,-0.0152027397065159,0.019091771749277,0.02709996292048499,0.01082750200383017,0.01333312002088947,0.02511978873290468,0.03558730927980865,0.02339910501886006,0.02245052094859897,0.03551509980859777,0.03922085695233891,0.03359627209327414,0.04281298972834316,-0.001272654614939756,-0.04306456331237918,-0.08603990556514431,-0.01093063976203548,0.01121589369724541,0.01846568949733995,0.02889928077992519,0.02424218418715891,0.03373969355510534,0.04437566443940499,0.004519529397227676,0.0329529839501958,0.03482325939126689,0.03091270697692509,0.04407261916747029,0.04008236084953995,0.006013350113498828,-0.07477755585677485,-0.05484917945117092,-0.02247461368381171,0.009491990416069754,-0.006800068677107078,0.02468409776603166,0.039706717445112,0.01047196555637582,0.03024240602138659,0.01780348343880021,-0.03545322182724692,0.03075187605424366,0.01080194259015332,0.01808908034494622,0.03832684755035353,0.02124972050251573,0.00678939460298646,-0.06898036161023302,-0.01879149293159805,0.02898858695184652,0.01143100179776247,-0.002388136619443977,0.01648838975933687,0.03051405745188183,0.03273047115123898,0.01442303485314881,0.03791570733501738,0.002227161338345252,0.001945607642429579,-0.0008312577917745788,0.01280662259314406,0.03045630213274576,0.0250897099374619,0.01763692351686428,0.007569860020170761,0.01114304246278274,0.01885789574253549,0.01452674164605953,-0.006554163680913878,0.004994527077517445,0.02382315086895268,-0.0157795782308599,-0.02877886959635526,-0.04622301266199413,-0.02471001508123312,0.01535423472493484,0.0416410821077639,0.07725901197615989,0.1227173001821896,0.1162528611239612,0.04770325254678538,0.003380412079499638,-0.02750651837215596,-0.01174619363699214,-0.0596059425422802,-0.05795330968653791,-0.02992395803327906,-0.1650567795447261,0.02580558088272657,0.03760946102590904,0.05484020769985172,0.04918204888495315,0.01322526788234037,0.010572612931683,-0.01814032513206252,0.01612536796099875,0.009552388458502143,-0.02978768583636112,-0.01180335589796421,-0.02185467473582634,-0.02613791191146945,-0.03925504418557176,-0.03041415761978432,-0.03015330533046878,0.05250100004579464,0.04983336677230273,0.03433052234510636,0.07511159757566115,0.01767166844675717,0.02526306415646253,0.008064905739901726,0.01636712609487096,0.03436629866188958,0.03945882685315088,-0.001982445889747492,-0.004664947906153597,-0.01834342524170521,-0.01738392456982621,-0.06139095536759871,-0.04666490531539805,0.09550702148984985,0.05825600193411394,0.04769518761470722,0.04362906080774741,0.04176126812036097,0.03999891051866453,0.0591401385110677,0.03031574772469938,0.03084307120265264,-0.006552099948789293,0.007618251449005858,-0.01027925430719297,-0.04374289822791916,-0.02047496459225027,-0.01730250964028155,-0.06706409000331544,0.1039673461651213,0.06712771723258,0.05468743101766251,0.04032509200138863,0.02473739738589846,0.02621628006838178,0.03506027574517516,0.04159368340166982,0.03006582335440839,0.01286097483388065,0.002692067440867496,-0.03293448384858257,-0.008906967427402697,-0.03835387620416666,-0.0439458247448915,-0.05137341763200658,0.1086742675136289,0.05132277476664512,0.04124711751249881,0.04647341119439723,0.02130659622244186,0.01030301447219471,0.009435331232140368,-0.005335170463561132,-0.003797404708416509,0.009550264772231028,-0.03671935312176985,-0.02148231744686821,-0.02349941410957219,-0.03133634568227441,-0.04485673276280894,-0.03738869684489885,0.1065868942199704,0.06828898859499377,0.0560967892118194,0.04715167807485054,0.06343150889279088,0.02602289948271809,0.01973334065378609,0.01918246661410942,-0.01009106853670151,-0.01754026051615155,-0.05639905353444035,-0.03087858465103249,-0.04339020666703088,-0.06891888584989694,-0.02235390341397257,-0.05291683418706686,0.04961386839201819,0.04139800896440575,0.05460822304256789,0.04720978335786236,0.05072800083126154,0.0557098916600402,0.014388610341245,0.03005303336838411,-0.03547872504508521,-0.04902526422640525,-0.09424786402541137,-0.06510029853892943,-0.03766622406242891,-0.05421712952628419,-0.06693501871433209,-0.08602902547253848,0.0003103130133459721,0.004450510197560505,0.04293090359189073,0.06986153098552354,0.06503069059422989,0.07377741743716193,0.06697660807219741,-0.01930118053036389,-0.03389102065455943,-0.05619727973534953,-0.08269969837905221,-0.07801217261472349,-0.06683211743722672,-0.04798471486910041,-0.02996735432455118,-0.05549241103401816,-0.235146128947757,-0.009099736018218304,0.01593852301209258,0.001195608109925603,0.04642888557183231,0.02326355132719435,0.02901834775671634,0.0102253281002301,-0.01917213409119704,-0.0402014126057787,-0.03940466947888754,-0.009204130003261979,-0.03172091719771208,-0.008630701567014063,-0.0124776650284927,0.00733594361102735,0.01281772825999294,-0.001148575069548856,0.02231611148489335,0.02832177917660297,0.04366179730837045,0.04509094263847461,0.02557489673548251,0.01399458531540716,-0.007913823749573107,-0.02150830388841158,-0.0249660967243035,-0.02454469078766832,-0.0366618595051408,-0.02109973073767304,-0.01441841621080241,-0.01148736650937749,-0.007208152152444961,0.04682201494248706,0.07020959075867818,0.04096250064448186,0.03913954237163307,0.05851385799951667,0.004825885731937666,-0.01004950700955294,0.01419012184087602,-0.01816579551201,-0.01532824374713086,-0.003676610939575287,-0.006214225811534616,0.01024497334167016,-0.004594246834768144,-0.01181477162112054,-0.007719878131804278,0.05178850682517347,0.04362242899807395,0.05595135715022107,0.04685129630092361,0.03118152817737607,0.02873564248580031,0.01412231598993502,0.008474846530268908,0.0005640530993504751,0.01581108950898783,0.00884676668641558,-0.008020796825195381,0.004833658757491133,-0.01774030139983938,-0.002593617590626074,-0.01985321845792684,0.04793351478430943,0.04709887310082825,0.03024473355529711,0.04016543916016919,0.05496462442564364,0.02977759819004622,0.02730034098841077,0.01693147849884323,0.005485277418443349,0.01175577320705247,0.01447304782741789,0.005104055675760224,-0.001704216382023613,0.00450557948265206,0.002175073217917109,-0.02163939617873745,0.02590205615088407,0.0379332076491842,0.02118730385601195,0.03567406819625668,0.00512032058929764,-0.004745337532247156,0.005374372932916192,0.0009107077384829078,0.006991944133852395,0.03235514499427186,0.003028770499284168,-0.0006419571150472916,-0.002002300158111481,0.0004125322505851384,-0.02747847295042706,-0.01634314400688359,0.03421988397114192,0.04565374007103919,0.03247878135599051,0.01705947199185318,-0.01107966428518458,-0.005132347018208369,-0.01889088077929273,-0.001063127614130969,-0.0003261915077480126,0.007927692969838402,0.02423729947598785,0.009194777654396177,-0.02112190512587781,-0.005561422473004106,-0.01735467166554266,-0.0158871572938622,0.008602302917696668,0.01798717341318857,0.009712093727662158,-0.001173961511153272,-0.02208241342101685,-6.971108570241717e-05,0.01031789501410907,0.0178992344803613,0.006886133593153806,0.01739231884369049,-0.01414388817875721,-0.008718263471035829,0.014963988943171,0.004273174590211508,0.03101505495808304,0.002208034349922532,-0.1260545105007394,0.05211755858854695,-0.001520016604400523,0.03443853453980247,0.00866270260002743,0.01554913613686915,0.03704567335613746,0.0469755194547905,0.04754262849030532,0.04771358683767919,0.02989334642805179,0.02859176827366235,0.004776249335678201,-0.001200831886822407,-0.01482933293903556,-0.02009309191541058,-0.0335559793280684,0.02315622293607077,0.0190304180583868,0.01143541886641086,0.02141694144917761,0.0003413046850659872,0.02870107959864585,0.02776413189366439,0.06980771383195133,0.06341733898672636,0.04981360074400173,0.02366009220401601,-0.001436609002501669,-0.01225180713445076,-0.02963696937187677,-0.03299051232875592,-0.02618101648844155,-0.01132595292763964,-0.03272255021946281,0.01943379954296623,0.02655833936338639,0.01360179337920076,0.01977952970899873,0.003861894660361814,0.01250163328075236,0.02900433599430175,0.04499938613486868,0.01167674914482165,-0.01627159918898377,-0.01209127810109973,-0.03943555008361413,-0.03760034660430584,-0.03299344340538966,0.02670052671117336,0.01820674132368163,-0.005475544203290331,0.008454725557119009,0.01985037124764097,-0.004508702003026767,-0.02742411348554614,-0.01078507107381595,-0.004133016796744533,0.005028958731335602,0.01287968322476643,-0.01929363622053503,-0.02742762745415184,-0.00982182949139645,-0.008387382230680411,-0.01272890576288197,0.03840817743111901,0.02381227062843565,0.01340706641820994,0.02489337328957651,0.04092703315404318,-0.005389223666057276,-0.0228858849173407,-0.05556671101338147,-0.02564215004867484,-0.02266889922823739,0.02234169367982872,0.008376499595451411,-0.02216221415966151,-8.920568372888513e-06,-0.00887306787145101,-0.03286121341939389,0.02856782302032853,0.0196253158661239,0.01183102561062247,0.01895209628952221,0.0220995780517639,0.02055996086427135,-0.02922765014186483,-0.04537872217239496,-0.06886761546785099,-0.04701811069139534,-0.03758894729374784,-0.07479606388088775,-0.0518774968517555,-0.04730093154344667,-0.02019084796554436,-0.03325980145307895,0.0222974186751029,-0.003684347816263298,0.01657078882649578,0.00635804438425709,0.004410366627284885,2.411700696547711e-05,-0.03615852109904259,-0.1030833394250123,-0.09838318401628696,-0.09553542061456577,-0.08520727885835515,-0.08465504529514677,-0.05732698521086192,-0.07254168134848805,-0.0724243415390316,-0.06084887559812988,0.03764356722065027,-0.008943998177830072,-0.006285252486984963,-0.01567675343448035,0.02157830013882754,0.002642095727260718,0.01645847560283405,-0.06881107976414745,-0.113971133295215,-0.1312112590675781,-0.1849050282493558,-0.1389988689164711,-0.08114971916221013,-0.07839981660930023,-0.07434839696711541,-0.07645235703114263,0.1916369261349761,-0.03777282853488766,-0.007118040618161273,-0.01272504804414717,0.008092197218608132,-0.008648807801957958,0.02848479555608029,0.02532699654475406,0.001239824481021296,-0.07706790334803233,-0.1154699518612471,-0.09224944500482928,0.005584613703412653,0.004677822144332238,0.01772823812561034,-0.009653238247783408,0.07388804780091861,-0.01592938450946884,0.012127694135566,-0.003247162800165643,0.0170546819490595,0.02314320745849974,0.03271353446569571,0.0180821767391621,-0.007592388611782415,-0.03368611160023622,-0.06610414127007547,-0.0703645401505161,-0.005134112499141818,0.006006955055005092,0.008767641233396102,0.02414845271360688,0.007542447804064826,-0.003816021213338229,0.01624215027927022,0.01941763518998889,0.01106565335037766,0.02335015414267558,0.0265676202217878,0.01139772430148682,0.00375940855134568,-0.006453767180798111,-0.05906897413783148,-0.03877846696071675,0.0005516608542803493,0.01029391094369366,0.02733875018975706,0.02142603655027259,0.01839025922155485,0.02190992568935533,0.02105742793578994,0.01571342072078168,0.001139952320784965,0.03248712846595399,-0.00885251750627879,-0.02498574608602656,0.0169350021034696,-0.01025135232201136,-0.02836977962443834,-0.04101459960609781,0.008787245274074228,0.02429509751076807,0.02695200912267719,0.002916794664173208,0.03193840682000533,0.01461900418257539,0.01062377165557437,0.02689497731305829,0.01275600808722318,0.004881743769806564,-0.02823211593084377,-0.01450912217864087,-0.02128771772543604,0.004904964939376454,-0.02734926231025826,0.01329945625557766,0.03639453301924543,0.02355658929412673,0.005085485818599036,0.01819966674430525,-0.002765602264580382,0.003416706751057677,0.0114949052244512,-0.001864028020244339,0.01567493791636728,-0.02887012319781613,-0.03736096482280806,-0.01995601120770892,0.003422023027740302,0.0002549149431662369,0.01117680565958575,0.04934065854249095,0.008393346833001645,0.02632812179339792,0.002048436399582464,-0.005673518106629603,-0.01526041886570767,0.04520533253094439,0.008576360796063441,0.003578971310752752,0.01029806509913449,0.008532192962296306,-0.06757156682745728,-0.04693417622647904,-0.03504874397021279,0.04252280773715531,0.0496757371444131,0.03542986765852508,0.03737955520652504,0.011217014727901,0.01261265350372328,0.004173499116752177,-0.01149608790942539,0.01904284704617641,0.03108554349080473,0.03820385809427475,0.02348685644863168,0.03444272154903018,-0.07550032126590392,-0.1379946398059258,-0.01931095005096829,0.04918460201965519,0.07887754238947825,0.07080101123935779,0.06356762659685658,0.02274400714544669,3.317279486493126e-06,0.000755331516523958,-0.004647570479835021,0.07844949659596463,-0.01164875833046064,0.01690568391816821,-0.001478382128369055,-0.02919761162641003,-0.005367740603876801,-0.004867681450150607,-0.02672990694445579,-0.01138865122391848,-0.02091876801976041,-0.03359094942104488,-0.03695892442868035,-0.02101403609844442,-0.05986103116715678,-0.037204130549286,-0.01621588062017618,-0.002257310956588235,-0.0228080830124985,-0.02258941364094845,-0.01516482046338356,0.01196416114335311,0.0008631994808554738,0.002710570616338848,0.003450294889459701,-0.004953753764058071,0.001162300052937966,-0.006236130173520727,-0.01884064464915631,-0.03857711479647195,-0.01832982368644252,-0.05453446255593895,0.0008621556832547408,-0.0574595172156729,-0.0367405679155509,0.003143104425744004,0.003709087129160804,0.01088990745710028,0.02278862966827756,0.009509386638357575,0.003579541301784943,0.00612527930607783,0.0009973380049813467,0.01941290319857842,-0.01403315248107797,-0.009884903031509877,-0.02519822489960734,0.0009142923151642578,-0.02757659851334212,-0.01927578771079438,-0.02265058511656607,0.01839692381146422,0.01227678608275882,0.01584551100854963,0.0394589501385245,0.01825001891499231,0.004850305216833662,-0.004655902294326868,0.008848474457623859,-0.02234169207610322,0.004396990492559334,-0.009720784091797104,0.01300224057107124,0.009329268781858613,0.01572904921774134,0.02231716345491553,-0.03649094772048195,0.004293671025202048,0.01881431802575716,0.01357939507685692,0.0002332106620972153,0.02323538994853849,0.01198149955522156,-0.01045676392982296,0.002395335627405626,0.01538396565564256,-0.005526356007257933,0.003592977622710482,0.008577760207334393,0.02521056705201683,0.03476783027258672,-0.0150865718582341,0.0006189973869829608,-0.00576128513279181,0.01713843277686035,0.004264158946318583,0.01716365410087526,0.01959094404292598,0.005135246165508207,0.0078969168739681,0.006562665730673155,-0.004852260106776933,-0.01541874552552139,-0.006989192698400397,-0.01420515602503221,0.002829047192741126,0.01464535052065517,0.01154129349409089,-0.01149371873984398,0.004837854938576572,-0.005958349244939195,0.01287231155719297,0.01565069061564024,0.006250945595633628,0.03668823380692766,-0.004291248211403274,0.008859595840035877,-0.009333707567414843,-0.02359975110275076,-0.03961008168777769,0.02036293969017895,-0.01712816643758179,0.01885977754510836,0.04054744013906265,0.05714832467783879,-0.004599496846349628,-0.0001016680122846039,-0.02590038168684904,-0.02205131651764142,-0.01508494184614805,0.01438345109221452,0.01521863755364422,-0.01196793461158005,-0.05347270851576741,-0.05722256868681007,-0.02794789004924783,-0.0009680064173059167,0.01886767275429697,0.06010039045609262,0.04047437735595623,0.2577529006822266,-0.03515805924415248,-0.01843051352632036,-0.0423071791631441,-0.02588446033213582,0.009293530730544602,0.04821594272090729,0.05119692905650473,0.04302944145006819,0.08110238219619254,0.04446367528167538,0.009295372666044003,-0.0007199060382893992,0.01064160947073064,-0.006700314453346107,-0.02785710501827269,0.0111539616892619,-0.04671123048667884,-0.005072389634785401,-0.01213613194164957,-0.03125655037808687,-0.02837014413316504,-0.02544079028385244,-0.01607692099279172,-0.007043051334385632,0.008996065455693283,-0.003666977575390041,0.0113762141550133,-0.02539727193193854,-0.01174501022131345,0.005004712987134266,-0.009047953997499431,0.004833044911449074,-0.06146865911581794,-0.08285032147699167,-0.07245971281705231,-0.07302808195692881,-0.07491321882549386,-0.07119565133782828,-0.08629144897024726,-0.0705902053696196,-0.0918787656535329,0.003365277038657798,0.01770238682442015,0.007843961335364441,0.02186906863864839,0.01575731587806457,0.004538041225804793,-0.007792897618443379,-0.07192660953706161,-0.08236813930750798,-0.08795026639777562,-0.0662504337933653,-0.1021682017359146,-0.06854701445537928,-0.06083574060929344,-0.06470908196697268,-0.03679334903326704,-0.0347818001144585,-0.009699675323292132,-0.002837896467991998,-0.006945997138238348,0.01472402041530014,0.03522733060207626,0.04817698389762005,-0.07600557685064768,-0.07979575672731672,-0.06025660636585332,-0.05585643876953617,-0.05189695459550785,-0.03316432296164525,0.01132120124220369,0.02863856597503579,0.008088247165583699,0.00903942874719605,0.006382697181810301,0.01647538718551471,0.007000234683214017,-0.007702931049426146,0.01273610361889319,0.05963027267617785,-0.02562576929484191,-0.02434403934481701,-0.02282982241135923,-0.02955499311228367,-0.01442891185243733,-0.002250109905982899,0.009943959979914777,0.02713206811347647,0.06226938806973134,0.05043691276539187,-0.002594889191838507,0.02912699278497512,0.02952715575302047,0.0282725014677995,-0.02280543512036562,0.02902370357931144,0.002990115224526865,0.01243748908358614,-0.02429195314947224,-0.005335832433366278,-0.01877766869976889,0.01738801391274028,0.003932379769232382,0.04132221435395568,0.02377920637830661,0.05945981697904962,0.06047885473021581,0.05611346619657573,0.02070240728375518,0.03667287001831126,0.01659250871588297,-0.03942651920235569,0.02327193244399247,-0.04089102403284889,0.01781620228953732,0.01867265542242069,0.03628024989722613,0.06547647699564633,0.02842310620021224,0.01607387651617584,0.03675066010567001,0.0207353214225101,0.02503326090570986,0.04199315895991035,0.03099108469118832,-0.001355905625960004,-0.01641092752668063,-0.03912324270729486,0.04025719019773064,-0.000577499532168737,0.01960079547381005,-0.002303074124131424,-0.008080171044581532,0.01713921630042483,0.0481513310024891,0.06906790898762441,0.03691777462205473,-0.005574547707077376,-0.01212534094010761,-0.03282206989296777,-0.0303859319347478,-0.03704231311745192,0.001179188183875975,-0.02193263599176293,-0.03240508059939227,-0.004086329585084396,-0.01504300089198356,0.001314294048368535,-0.02231956620319874,0.0025164381725347,0.02111322064726081,0.01440383112731923,0.003700220955396584,-0.01299911969141941,0.005652306185630169,0.009213288154523316,0.0007100326719005297,-0.002440964342799675,0.004965990297017161,-0.002096522598135535,-0.01272437666363149,-0.03042005936520325,-0.04819403385896855,-0.03205156748786954,-0.02119675259188064,-0.03149019609090731,-0.02166042006205779,-0.02655168381613296,0.005947883064941708,0.00608810625359504,0.01783547338524034,0.01484113900262988,0.01441843515215759,0.03310700196990742,-0.01505400320529678,-0.008833040603470631,-0.008862890113122851,-0.03537435290990866,-0.05907989828347751,-0.05597031281996121,-0.07050856670444157,-0.07009132749076501,-0.04744475577212472,-0.03683275418836354,-0.035845541856283,-0.02842793086571841,0.01998597993009836,0.02129547079529906,0.01178157301880788,0.002588967751956691,0.02448767680155071,0.007495298783259248,0.01595385330389775,-0.0373966558782038,-0.0438975945192162,-0.03523745972796198,-0.03332712004461637,-0.02930252260488717,-0.03963603865688914,-0.04744496958810287,-0.04632529409887622,-0.03613737400300353,0.003753116115443659,-0.002689324729652482,0.03893578526933464,0.004983068839119602,0.02685134413527586,0.03705636997509722,-0.001154076366565312,-0.01627800844369555,-0.01073694348318614,-0.02335814744020316,0.002314580924224404,-0.00701591801995654,0.01673255393688763,0.001351775964050891,0.007920225819854802,-0.008739037668972629,-0.02478562767742564,0.004966040781968793,0.01051765275636057,0.0278503632798874,-0.003713332077221566,0.006215069263002406,0.003332274033018531,0.0004029243856901788,-0.0004380576839414062,0.004798516077696236,0.02046070645423777,0.01037772790692221,0.01824802487535552,0.01701750383478966,0.03019840656976649,0.008346763543182567,-0.01476649117647761,0.003001676019882779,-0.008585915790603348,0.002767729899191902,0.02440306294069842,0.01786795068685448,-0.007132387920137098,0.03205491414575633,0.01782011502125555,0.04312235565726304,0.0383173779616906,0.06855448005309746,0.03190228281452015,0.02599303888122444,0.02746676583676464,-0.005677109892363637,-0.02549010101214157,-0.01226167360339878,-0.01705314977669925,-0.01062344665493967,-0.0167828538290117,0.01260971950431914,0.002107902630197439,0.09131090962820385,-0.00168477659784205,-0.01177768286855768,-0.01820398372977906,-0.02854975880157761,-0.0001179352288679082,-0.001893339888959277,0.03127088665429583,0.04778917871588979,0.01519529808976906,0.0369683484787508,-0.02323489314792933,0.02057939054455234,-0.0375454108955541,-0.02148250587497449,0.007374026268251547,-0.00529522280771542,-0.001763862814773475,-0.01669530409038491,-0.0191672412145453,-0.03890415000655514,-0.0685040104303391,-0.074479477881225,-0.07623840505162674,-0.03080427947824275,-0.003177118349680844,-0.00839571376769372,0.006783863562167022,0.03092660445119716,0.01553528482466937,0.007256859120568068,-0.01340997428526498,-0.005650248204827823,-0.008900026605230706,-0.01509377094457037,-0.002540083116096052,-0.01196199310180052,-0.02062878325427982,-0.05863694583803725,-0.03828190697172257,-0.01210614717986002,0.05125225019202446,0.05701340107024929,0.03354263211223434,-0.001288978032867404,-0.001570986113696008,0.0001951212371608291,-0.02023898562491286,-0.008270497915434267,-0.01305586941223942,-0.01235088490931696,-0.02397237678475366,-0.03259354347263407,-0.05466990322275971,-0.03871622306068584,-0.02716941059147035,0.06283055609692838,0.07392948886283378,0.06844589713001811,0.01714257915231875,0.008083332726369973,-0.003123499195275603,-0.0258287459674246,-0.02238032110222942,-0.007913166094900189,-0.01723585676376436,-0.006506311604461443,-0.02490907861298188,-0.01535538041220754,-0.06614386132306699,-0.06420416740754843,-0.02028866518948663,0.07873061198974794,0.08862178439222552,0.03558752416227687,0.0002798311429866308,-0.02473243626552693,-0.004023997393701268,-0.03474916728187773,-0.02481289645255482,-0.02243642617541011,-0.01639430817503394,-0.02031246107955111,-0.02314615505577761,-0.03247374041001553,-0.03225284795864331,-0.07677688680722528,-0.07075337056665275,-0.05190454020443801,0.02961837485883738,0.03671525994574971,0.0198463890245549,0.004436166965681085,0.001730713368165196,-0.01479706956981058,-0.006347318616929035,-0.01519405574253722,-0.009604590258787323,-0.006548410779775091,-0.02382121252087729,-0.03399412885943789,-0.04825142701074507,-0.01131252950540845,0.02190585457400786,-0.01509179415826624,0.004233402778887477,0.01407993179073675,0.03749857462997612,0.04794533788394208,0.01874823138594846,0.0022661908184084,-0.00491145776817589,-0.01077909189099937,-0.008607843776481024,-0.01494783323968935,-0.01649626678018393,-0.00190624785932591,0.02155965354607061,0.09070159632140548,0.1501095304526616,0.1215285038616663,0.06038445054635407,0.009774136308578768,-0.03169160909035997,-0.01821668041294591,-0.03861339164292852,-0.03346182845209791,-0.02166715436045418,-0.004020834906330666,-0.2137867418187603,0.02775857999147791,0.03842453580552623,0.05841591407069598,0.03061448877880792,0.0523340543931794,0.01285091035505634,-0.009480747304495721,-0.08725280412353278,-0.1134080160251889,-0.05309152777791901,0.05029447022440178,0.01314738697623689,0.05820159371478764,0.02615825379264592,-0.01845898221169493,-0.02600346187546726,-0.02090484501737372,-0.01586514011643421,0.01628707676548455,0.01816357955639378,0.02052042833113839,0.03163819785727549,0.01577011961973458,-0.001774577743815246,-0.03286883183718205,-0.03391341351402159,-0.008940590553080647,-0.003638700708215608,0.002995840957027379,-0.01304242380176649,-0.008085246419973154,-0.01926215804893045,-0.01060698836576911,-0.02705065425810068,0.01030681627176071,0.01051055955269902,-0.0006088245665996808,0.002726278689900803,0.04052664320383807,0.08647471200463841,0.02131303909074958,-0.0009008800363245296,-0.02527721044111393,-0.01523469507941585,-0.03809166428662087,-0.0008035494326104417,-0.006906510939663464,-0.03170597468599676,-0.01884858963328396,-0.01218276930995156,-0.01525042215604365,0.0178743213436474,-0.009937220073018591,0.00841478346359127,0.0464163366840686,0.05281585036688759,0.05178839919668429,0.02524818671319486,-0.008970578641196533,-0.02568330357455965,-0.03396427562216471,-0.0040964398171741,-0.0103373674077409,-0.0281253607341225,-0.01839974831840216,-0.01882469682604489,-0.02437940369649699,-0.01324508785054209,-0.01287183063667052,0.03991359469025989,0.01675905957222857,0.02139637956988202,0.0614969406322852,0.06316970679498016,-0.02592471637916484,-0.03701019297584099,-0.03007065002692215,-0.03288187589755425,-0.02092045819968823,-0.03437008349802807,-0.01328381856224507,-0.00199700844911097,0.01013896533654438,0.007781755822584888,0.02963229419399036,-0.004131290969387871,0.02638763978384938,0.0003494613438071668,0.03740712007508217,0.02651952806591765,0.01171233966578247,0.007586832308512518,-0.02141632312654723,-0.009640471358527216,-0.02189480626874996,-0.01627726500960115,-0.02331609414834073,0.01916289145818933,0.009343422741296266,0.03518948227761494,0.03649142635726797,0.01135629806993934,-0.01113380162056034,-0.04169676730777738,0.0253906568072807,0.01455812184916865,-0.001206808259813414,0.01009273229476023,-0.01659484052734179,-0.02224947293492123,-0.02338666591122373,-0.001592412053142938,-0.02543674535930746,-0.0109298558744472,0.01324051201108926,-0.03345983781188019,0.005140741781165371,-0.008808527768964732,-0.05115098668358237,-0.01501686569573016,-0.03707142499546626,-0.02184320569051585,0.0156216926501623,0.006017833371509086,-0.0182663110817609,0.01798569898346013,0.0221108226327344,-0.02612576510354658,-0.08019880070647413,0.04633754189713744,0.0395623803239538,0.01626335097008953,0.04719671839155247,0.03418209595980506,0.01634840894486402,-0.04952600924551446,-0.09096495818383672,-0.1102238717954953,-0.07731000463353876,-0.02081378746410314,-0.004225567066755863,0.006500058467677062,-0.01096007681263626,0.01766080152243349,0.03623828824580187,0.02265292394106628,0.01280078551301733,0.02729258013574887,0.01551133231285853,0.01259845989617822,0.006113108251360444,-0.0132407199077917,-0.03548304003198471,-0.05414187437977562,-0.0713444882074996,-0.003124350649775375,-0.01227851302995565,-0.01057286517028847,-0.005684143564956478,0.01517368528284032,0.02201677312643592,0.002574963365781546,0.04397090709964192,0.01308120399502694,0.04106523922737945,0.01095847312442217,0.03089913624914699,-0.01095038499715894,-0.02429262057364575,-0.03167067170588341,-0.04975714380261188,-0.02213436959155429,-0.02186133319542287,-0.01655500547199406,-0.01045919910698704,-0.004920007076847834,0.01538705775134703,-0.04906479448143138,0.01524892334164275,0.01483989767216965,0.04302863612204246,0.02745961747327505,0.01842805765935726,-0.0008628730668911234,-0.007767754134459484,-0.03088676292875873,-0.01587164451548581,-0.03197330450102862,-0.03994041198307859,-0.03517388146103542,-0.009328870528313601,-0.01835753441486638,0.03399361215076286,-0.0282075140363664,0.001269103853627983,0.009605446537511475,0.01638239182187409,0.02222772955412693,0.02277880954343861,0.01012378368173463,0.02142804509320939,-0.006521530920543182,-0.01506305222215333,-0.02642615512376461,-0.01456533111593356,-0.01657539984351234,-0.03048272070017261,0.009746205292692217,0.00857807398342254,-0.004366433483159386,0.006986780479160363,0.03467448196841199,0.02278335915574629,0.03143561759927417,0.03393817142766607,0.03213042239567521,0.00166186452060158,0.03177696484824821,-0.02235243928995288,-0.03300933444378309,-0.02666673591402486,-0.02542686798753249,-0.03090989941280234,-0.01427651148912411,-0.01318444386263035,0.02256297275045209,0.01154780526685058,0.02332082531686454,0.01285230431999717,0.03288116285906434,0.03330617848210337,0.04699059467246684,-0.01340761259422755,0.01941278560185677,0.01324397253133144,-0.01856526882341459,-0.01841240822720651,-0.01483163518110226,-0.0126301929896777,-0.006802404497453748,0.01117462548167316,-0.002213638679929396,0.03980729942958411,0.03949020734646453,0.02503207785569891,-0.002808073809363339,0.005713298862923002,0.0304481165290484,0.003211383970913266,0.0118280233578777,-0.001233036480347313,-0.009005720857119769,-0.02081531714134848,-0.01553990887641735,-0.0144752493781019,0.00172254692458842,0.01377624787878349,0.05702633769208443,0.01825901663906426,0.03519875900009076,-0.01331309855157802,0.01154768010261589,0.02173782096206148,0.003633164941721171,-0.04915030744141187,-0.04153032459657124,-0.07649750827555273,-0.07058356051660165,-0.02486345580824178,-0.02517280236931022,-0.00616814550864084,-0.02133084829477718,0.02283086105886357,-0.01382737864020529,0.01448320710806187,0.02052921814866854,0.03679150854882466,0.02191393925198927,0.0268132934421225,-0.004451024089884121,-0.01719944509428781,-0.04754210952106148,0.009510497901543038,-0.02452970869512869,0.03446965325440113,0.02137887660219106,0.005989526588948499,-0.01648542375629324,-0.01714474636473753,0.004528701180297289,-0.01093606698061721,0.0115361677482247,0.01499124733885506,0.01989349958621084,0.02327016442186799,-0.004737198689317278,-0.03694400283943376,0.02034373996499381,0.02431170972115438,0.01695248819559519,0.02590371623867777,0.01230868687802941,-0.019664145810854,0.01284506314759893,-0.01019028304154746,-0.003471558473315693,-0.001499978161082705,-0.01089272443757942,0.02366615083988311,-0.004218939341244352,0.02697178792080242,0.01519754937784543,0.02225754525395192,0.03266014487198655,0.02850382296040494,0.01411918078460516,0.03192664257544308,0.02412904982562093,-0.01029757615192391,0.01883834390917872,-0.01143307423561873,-0.02354258544659408,-0.02808644101733644,0.005823379912939362,0.02035092172394292,0.01445318628149645,0.02835278622195949,0.01240408497226931,0.03496799354316801,0.03115255523438809,-0.0007374982279419758,-0.01256892583457223,0.02143989423608303,0.005808123496370471,0.005269871593129408,0.0178877620525494,-0.03223700962063165,0.00419206525787625,-0.04385471345072203,0.01379790610225751,0.001263317978875799,-0.0150536485755997,0.007664391591010309,0.01579183114981864,0.04880991585078277,0.04055567351919513,-0.0006804609739185475,-0.01868135106402531,0.01393598654009654,-0.01572028796231302,0.02438768986732678,-0.002311000846988804,-0.01294932181820298,-0.01065099665427061,-0.03910330119958692,-0.01318485518404011,-0.0008257065217585996,0.01033410791374978,-0.003159700678033553,0.01389067455317382,0.02824373923648476,0.02394766677274004,-0.02226526912957362,-0.007813781426377614,-0.0007565373953091944,0.03309268809091388,0.006718424595302791,0.01402114495193841,-0.01144807930584034,-0.03160418617576399,-0.04049210271680947,-0.03251732695527552,-0.05041327828064253,-0.01825327590274155,-0.009831682785549856,0.004048119150006035,-0.02190910687952774,-0.02632502953482724,-0.04071524448365375,0.01055859052548024,0.03641568413924961,0.02691899567497344,0.02254364325392317,-0.0151176502679112,-0.009499243994050253,-0.001251906438305749,-0.006529450683337329,0.06374028246930279,-0.1171977859166186,0.0537179543538957,-0.09269414536264715,0.06822561135976667,-0.1245703479804941,0.0233983801219662,0.08262711645881177,0.04022145513310293,-0.02190815967429269,0.02861800366571171,-0.1422743168617743,0.03165381983286547,0.05745638001210075,0.02069362823703792,0.06117532608090873,-0.09187289056717468,0.03153373366534156,-0.06640025449264553,-0.1171973290443526,0.1614600057823688,-0.1187554638811452,0.1317527913677412,-0.08139147584855456,0.2316789363845901,-0.1136912552958136,-0.1385059297304665,0.00992423049297122,-0.07689258009441702,0.05826067036887134,-0.00945634130152986,0.03186806022148471,0.1512409999254654,0.02484634215802165,0.02178352081458404,-0.02936273700004333,0.004029110905787491,-0.04372139180120157,-0.05228006286386279,-0.1448756339849394,-0.07071974531518378,0.04696366348913467,-0.07705119835051052,-0.07202471825036567,0.07044803746399111,0.00405171371028053,0.002907014219237821,-0.104455547942031,0.03209482399981294,0.0184820888334284,0.3066314972076364,0.03581411282384358,-0.1883003007540609,-0.1014731416158063,0.09358534751561665,-0.1062528840579498,-0.07505214925220262,-0.06874625081006416,-0.09821628925584119,0.08781459112607937,0.0580028622432118,-0.01864727141415186,0.06042289444712227,0.07960735558851841,0.03705982422151324,-0.07511347171522864,-0.09554581871523093,0.01767487914642124,-0.04293557785985917,0.1197005701730564,-0.08330186353435159,0.06483025794436124,-0.04503963267180522,-0.06622748655204651,0.1056361860933442,-0.05199549486514433,-0.04683734068925182,0.06390812463378651,0.1723724259190983,0.09553281994479826,-0.04102532065250921,-0.02652961639389959,-0.1014409944658518,-0.03194428917283387,-0.02702507089838056,-0.01990487734213992,-0.04631244129833484,0,-0.0227083700175572,-0.04119425885292807,0.09463840700076054,-0.06834310861215614,0.04821659118159823,-0.03711858477155648,-0.006408786855993425,0.1149816480731641,-0.02384707139380611,-0.0314824556724935,-0.06409222915958315,-0.01940149056529735,-0.01980161969957166,-0.01499981917289968,-0.01415464596787068,-0.020865034261208,0.1271734620972935,-0.03248808774179316,0.1152618452303055,-0.02982099611770032,0.1056017873368961,-0.031514183581497,-0.03517723556739431,-0.03798905158189919,0.1764372292345673,-0.0008011998948054264,-0.01909050973075993,0.1616637760213503,-0.0465172030093743,0.1036954544082925,-0.07612169145786725,-0.04304782947554824,-0.01130131035372133,-0.05605854799986997,-0.03351239480617245,-0.02485521013852282,-0.07953739997070285,-0.01983627780570019,-0.02025367715542312,-0.01016007304375138,-0.01358674870642551,-0.02084458460820502,0.09095143531884781,-0.01764311150713319,-0.02970493274196607,0.1028552978101991,0.1268590001064054,-0.04979022976369881,-0.02814993236639309,-0.02740717483798559,0.09303478484768109,-0.002122295813981904,-0.01660581370736516,-0.03083149490528504,-0.03288065178689787,0.1189624099464101,-0.06652489665364847,-0.03485864134004737,-0.004716118582040008,-0.03776412721187735,-0.0232053086691473,-0.02583040161477029,-0.04847086515476472,-0.007214380466532153,-0.01061160140783751,-0.02091076477985635,-0.01725023390320468,-0.05527217724554195,-0.175171570494831,-0.09845257695605955,0.0169492699006805,0.01100500358129928,-0.08248577865424794,0.06430740582282927,-0.004828786529823694,0.02011521319717247,-0.0460187606354257,0.1006632281909518,0.1098754998586103,0.1275020320392919,0.01897077693424083,-0.03726020279199285,-0.1804585474318425,-0.01458832443252751,-0.04150866520616081,-0.02434205527624052,-0.00225150457244731,0.123691284534157,-0.1044865193707199,0.1338300858158624,-0.09557580436709537,-0.04917610290162853,-0.05435993829312015,0.01764897503910472,0.05676651195201095,-0.04330773527186862,-0.04027560242545252,-0.02286822576679626,-0.08921087350636142,0.1624547132594404,-0.05037636144187629,-0.02962949581120919,0.117654102412111,-0.003398951493507733,-0.03221237109639764,-0.03167623728625068,0.08162494754086534,-0.07766722275250219,-0.07465858502934271,-0.05312961453620751,-0.007648586195695825,-0.04089746594874684,0.1178352701305323,0.1295528938362592,0.136186508674102,-0.00744566109960949,-0.0148041182691532,-0.01423947600008354,-0.01023141494691557,-0.01918018063556205,-0.08388613181608198,-0.03871675319794608,-0.04355319864819576,0.09917169709441107,-0.09331693503539638,-0.02316613227052174,0.09822960463633382,-0.04084112353064991,0.03446781628400667,-0.00949592467551464,-0.03295965335602442,-0.03573229588948812,-0.0354395851828103,0.2047587996473995,0.0690942067769586,-0.04317966045583466,-0.009142073894634433,-0.0299022320532642,-0.05142345228014917,-0.04606322842555176,0.1143306836427705,-0.01723220031244018,-0.007706454640952363,-0.01598976884941997,-0.02377844706945586,-0.04232695884049043,-0.0474070606983294,-0.03472238563687929,0.1250393878910165,-0.009772866443833284,-0.09535220084128185,-0.02138247169206927,0.1315620981825829,-0.03085252468202351,-0.03441053037655709,-0.001628428163024332,-0.02527698315130661,-0.02067063633728768,-0.04334769465378787,-0.08110599415080486,-0.06553111294005076,0.1857183219837453,-0.01160706772190366,-0.04514283696486469,0.1512295286067734,0.09216790575386095,-0.05727041464876846,-0.01044996369744542,-0.01780598078737306,-0.01531654920533533,-0.01304148099802207,-0.02488070944323086,-0.1243869665637049,0.03586058577708289,0.02676700667343923,0.08205013578109623,-0.1475024896745833,0.1113540000155386,0.04005417502091709,0.05809672170559992,0.02854431552323722,-0.01050621504206609,0.1422605664626138,0.167528979665321,0.01495802614986264,0.04483692737407406,-0.05371152769116764,-0.1106639289205703,-0.04280201220220804,0.1274941694551057,-0.07176758854166583,0.1548678643555125,0.01148564962873993,0.09716993026694828,-0.049301175013008,0.1793972282675476,-0.05351245409409139,0.1032665250592109,-0.007118027773451011,-0.01246572315870536,-0.003108730005844796,-0.005087332037378873,0.114275567698753,-0.00548924792730084,-0.001229434196593862,0,-0.007532086164639104,-0.009451062176657232,-0.003071556480400602,-0.007998210970317601,-0.005199711224356656,-0.01418172823134445,0.1311478061516022,-0.003973852977830757,0,-0.001394929407189639,-0.0004418329949475368,-0.003791929472935658,-0.0148171860181003,-0.004591183631944974,-0.003899633575361214,0,-0.008754682147697819,-0.001640307567824583,0.09847341158267343,-0.03917290747777469,0.1535275360685767,-0.02577999725401071,0.05780639092346997,-0.02690215175230433,-0.04052423095559066,-0.01980706043544475,-0.05744019921303806,-0.007662818719458444,-0.03799678447534435,-0.03408720792543098,-0.03484768177783343,-0.06994226547784255,0.06538933398637047,-0.02968861867479076,-0.01358080442777612,0.1087462103647999,-0.03589355580088729,-0.02984644961392951,-0.07287015930022617,-0.01665319116927182,-0.02222140990428636,-0.02098924725833765,-0.01324152520294459,-0.03296417942572495,0.1115546667489456,0.1570469349122615,0.08518316862807108,-0.05231755400692192,-0.06034295945914674,-0.05785456395203147,0.04855287006586146,-0.05021517306359968,0.09002442551749924,-0.01291520974579958,-0.05444851388012629,0.1070936494950736,-0.07305294236104118,-0.1007177458638571,0.007164082352312273,0.07856257325123303,-0.02530836056582565,-0.07488375437203774,0.08624549231968721,-0.042633300879721,0.1174613897958099,-0.01720562674245097,0.09511883429478002,-0.0246097957861382,0.1409029913118262,0.1054129995081509,-0.09469029459040017,-0.033902225059215,-0.04243121107962518,-0.03090684378465471,0.02681780387148837,-0.03087428031214687,-0.03939075741391555,-0.01993629607827855,-0.06011316809361993,0,-0.03353854164808318,-0.04454941155049748,0.0364724579463141,-0.07104771701250159,0.0875849943000383,-0.04695562708691596,-0.01392409785929505,0.08710651686293208,-0.04115887094872196,-0.06291035236961433,0.08643043916900306,-0.02630625321236774,-0.03068708241244219,-0.02231736215240575,0.1020230610517834,-0.04709982111095881,0.08713360874002736,-0.07079575891647437,-0.07069489714159718,-0.0670770622056342,0.08207828495223352,-0.05263661110623025,-0.05555007502520957,-0.04111181147006438,0.2252918919920988,-0.01070979321609421,0.08736996154860917,0.05883248174764719,-0.07695162068742317,0.002366168690111444,0.08578226127423881,-0.1066786236324837,-0.01555178934815454,0.05975653972489639,-0.04323258148160243,-0.04747907027734508,0.09037396737556054,-0.04115911334823139,-0.04279016003233459,-0.02413701445056004,-0.02976646076520012,-0.0363750216089534,-0.149814620972932,0.02051592920414684,0.09167504717052484,0.09008887070295865,-0.05097640891371581,0.1235791047455719,0.01632087247971531,0.04702545836918134,0.05367466100439586,-0.02423468738670238,-0.06641320493924842,0.07625264734339708,-0.1213233690507501,-0.003569683068449048,-0.05614200168714564,0.03142904413443101,-0.0232229208444178,0.1255432296457791,-0.06625168097029303,-0.05731538704357964,-0.1385614810577466,-0.0482405359993421,0.09411246887826426,-0.02537417227003911,-0.07349068898288846,-0.05103689827288069,0.05378428244449479,-0.01929232581363215,-0.0303775798473689,-0.04584014078849753,-0.086042301640782,-0.0359486793071443,-0.03744159078690304,-0.02747242024466403,-0.06278789496597183,-0.003775570589521392,-0.02346381028750599,-0.03220116455884501,0.2432332581005452,-0.0841307140432372,-0.004957667502469837,0.04852737445189233,-0.01375036569073966,-0.06334336040268505,-0.05246222294603371,-0.03974862468883776,-0.06062111303942831,-0.01563694653411982,-0.01703231599360568,0.1825689449893332,-0.03485076462918088,-0.03325774071375471,-0.04072991101525787,-0.01908386131451723,-0.01721011745656036,-0.01428716255203499,0.04761222164036913,-0.00445036842272216,-0.02795815142011913,-0.006146262691884969,-0.04935686416669867,0,-0.007620294600132252,-0.01906330066244756,-0.01936462876212854,0.136261943578129,-0.03308184122462454,-0.01890268548616166,-0.004452895743278646,-0.02400462372722517,0.1466477408316297,-0.0114593434047178,-0.02352761372234031,0,-0.004748031072411129,-0.009017248952852223,-0.004519594019979522,-0.005718725565597704,0.09445802760283664,0.08660444443314345,-0.03345851528621175,-0.04866170538744239,0.1225592711594262,-0.05220878392363027,0.09844969749705083,-0.0281037363658104,-0.0883313834846228,-0.004744478135017962,-0.03863166587556699,-0.04087839026015926,-0.0606855964382404,-0.09062315906255243,0.1092486663393262,0.1526671416720737,-0.0161827629668814,0.03625507280209671,-0.06090845896690679,0.07159133077793917,0.06397378263878008,-0.007634994428819641,-0.0301885122398199,-0.01741626761964453,-0.008664677236190486,-0.04838115477551868,-0.05664973861878079,-0.02841309666207664,-0.03233175245231197,-0.02476245407766222,0.1034827088182347,-0.01828175523471228,-0.02852678743785386,-0.03033998377879989,0.1425099878741372,0,-0.0222080130357441,-0.03412653096054417,-0.02546996944204093,0.1475190660177628,-0.05724381593806427,-0.01715874282008742,-0.00333214341767639,-0.03110620249535564,0.1032186332729324,-0.02342132711101927,0.1517625994949392,-0.01738288797535842,-0.01996857440290548,-0.01286613089060975,-0.004093344904385022,-0.01595999273340866,0.1319469170227889,-0.07837854067895227,0.1370409436803328,-0.03624477393242269,0.05274445722787394,-0.02033147959189756,-0.03603655141581791,0.1291757587741523,0.08691415801455554,-0.005048296580489608,-0.02541364259901217,-0.04165918616201197,-0.02958899527391349,0.1243538897476196,-0.06843709671254723,-0.05447734402814078,-0.008286857120998081,0.07551756532457829,0.1332953818394713,0.07588918030867006,-0.06301539633650124,-0.01861106381031593,-0.02974268264330522,-0.02131066152968092,-0.007008543655393163,-0.02833691014206576,-0.1027124834249754,0.0878313781432114,-0.06135275942399887,0.06583687881410115,-0.1224823234555143,0.1191372045668197,-0.06323162630867592,-0.02922821596839253,-0.09200908216330052,0.1710387037721199,-0.04550442074606916,-0.05786812606964927,-0.05958342660277224,0.05292217786065607,0.06599060624545394,-0.05503843492462659,0.278153710635141,-0.04929575059519366,-0.05690979903806351,-0.05087672367985983,-0.1360580240390689,0.1311893792775815,-0.02557606478777632,-0.01442745896275757,-0.02283223222051418,-0.04831590248851301,-0.062737047470233,-0.02181102090501332,-0.01522924932379803,-0.02207558867880523,0.06423344140583551,-0.0195975507727956,-0.02731084601755406,-0.01413084916179435,0.1001715755330953,-0.01435279735491842,-0.01916882282381318,-0.02799257799806781,-0.005295790582987464,0.08734685661594078,0.08341392991086725,-0.04317752758697737,-0.002184185793098926,-0.01780237828042918,-0.02537874295020244,-0.03481830401173432,0.06470215195916515,0.2156115607872094,-0.006573598264056664,-0.009640872008160191,-0.00512163765075694,-0.01101375506756686,-0.07752550541642847,-0.01451526077369667,-0.01309681777173681,-0.01297903450860168,-0.07123988302655661,-0.006303028738132716,-0.02103323576854452,-0.01688701474882413,-0.03097606927467634,-0.00145416821646561,-0.01155329607678413,-0.04005393305518193,-0.04457993846377365,0.07006686626406426,0.12947312754347,-0.01594370389863827,-0.00396978627263244,-0.02031455400009916,-0.02150430543225034,-0.03158235829925411,-0.04033062877714339,-0.00128281291673851,-0.01996056887987228,-0.01111489831084659,-0.00317807492198723,-0.01370064944516664,0.184872167263463,-0.02512675334696664,-0.02975036176675047,-0.02198355321755468,0.159556748600079,-0.008191563833061112,-0.01152459429886793,-0.004835985324754412,-0.03879701922986172,0,-0.001422825111040001,-0.005741791109603867,-0.007653185990953536,-0.02188945125782785,-0.02205736826765337,-0.01984509900717733,0,-0.01428698619231674,-0.004088253896821298,-0.01062538597173897,-0.0203704558621298,-0.009574784928010718,-0.01242915376865209,-0.03062757144149502,-0.003140320624108807,-0.01927377627411451,-0.1119870151571469,-0.0118379974126811,-0.03615875629538089,-0.03053245603016885,-0.1030307956923177,-0.0169884694158918,-0.01101004625547378,0.1798599693664584,-0.03019239372944682,-0.00243106682624999,-0.01304291093827242,0.2859307322309096,-0.04304894827608673,-0.105444952181429,-0.06460352840524231,-0.01634693728449889,-0.002595661903401375,-0.02193841910387922,-0.02803554276104914,0.1308054616774745,-0.0260372755603303,-0.008612592578755362,-0.02131564461135234,-0.008058009343834499,-0.02442148778392776,-0.03357785442053225,-0.05956611035606464,-0.02177303848449264,-0.02733987440937357,-0.0232846787040413,-0.07387600046177217,-0.01545197673970942,-0.02026973666807281,-0.01072653193583477,0.2178264660728937,-0.000682133483361335,-0.02115758829683465,-0.03282124711526636,-0.04449781620430363,-0.04343342859986104,-0.05776714063487767,-0.03191534573606629,-0.002744191958974894,-0.03896165400979058,-0.004895555883536525,-0.01495513954066344,0.1957493982889831,-0.001335050802570609,-0.01775519115636569,-0.01595230300130224,-0.002694472465650066,0.2774421468993862
