-0.0175667424308341,-0.02594728685783514,-0.04445082595507406,-0.04075453209685193,-0.06117915675037322,-0.05280932451347003,-0.007332974162114675,0.05884936690296602,0.1010376420070155,0.0885343232237038,0.03154444189732349,0.01762087609760118,-0.003288161099667662,5.10864207282578e-06,0.01988187917252414,-0.02341775533501223,-0.01187097591783965,0.02378506661662791,0.01168619939403249,0.01317062822747023,0.03294823771706858,0.01794862807893264,0.003502971627943137,-0.03135868523080765,-0.01050354204862183,0.006644091530452413,0.01840732292150381,-0.01420559397671219,-0.01668509173237227,-0.005721753177099374,0.002337682533170109,-0.002168493499244245,0.03839097579550421,0.0347977622455646,0.009647866761458231,0.01531635951472648,0.01422405862942078,0.04886265693451824,0.03947166658404196,0.01442961089632494,-0.01897790724292982,0.03621391898115528,-0.01837439123483263,-0.01574947614016197,-0.002156407745105331,0.002868882015845307,0.002108368276004817,-0.04837847429586851,0.0509551595438459,0.02850209233185101,0.0421880916780512,0.03241610818053828,0.04583154430602272,0.04079313361399011,0.03207789461172524,0.006706245940361009,0.04122507188924387,0.000574979939793465,0.004283550355000282,-0.01885273234432207,-0.02109827005028363,-0.03242010963592665,0.0003090347518161982,-0.05979319797113771,0.02690213415383888,0.008545517804632313,0.04341250049327858,0.03568983277430587,0.04338362133716211,0.01529633624891878,0.01513377455101411,0.0369642263567001,0.06223695834694742,0.06432298475987465,0.02105456254414322,-0.01457319062366308,-0.02290811193718194,-0.03020979787950109,-0.08122346458898352,-0.05534998392401976,-0.007143648283587516,0.02175586508869668,0.02427751312574645,0.02072048194682568,0.01214617505356836,0.01505641067802059,0.003828123825474314,0.05713963202587771,0.0691775586503595,0.08303699091165867,0.03592323926648846,0.00713309913359877,0.005411786894633773,-0.022432288049081,-0.03076849876385844,-0.04526448431611532,0.03593124259372012,0.03301532563399504,0.01902336411068894,0.003820732987476915,0.01243778852206142,0.005972574128605682,0.01912023142112775,0.05196544359454642,0.08374507319497929,0.07361593674827974,0.05321218862378874,0.0293213256445366,0.01626308587035609,-0.01239581469120285,-0.01310501195979103,0.02248497640216104,0.0101336824995307,0.01683847094997065,0.01143629594354406,0.01245503883488733,0.004195883918602566,-0.02106692645119658,0.01943990779700592,0.02289151772782056,0.008513445479788979,0.04907107883266085,0.08260370208480142,0.06679308112089985,0.06568781579911376,0.0435161605474744,0.003999991481406117,-0.005988396063210839,-0.3243293977298231,-0.01455113733305248,-0.003564098906642271,-0.002306497949809168,0.02923861569333131,0.01015787987607474,0.01490078779060538,-0.01017030240889881,-0.01396490452519308,-0.008802985616130942,-0.02403030672627917,0.003275817857177008,0.01575809188386881,0.01920230783332956,0.01843999143918711,0.06962552026392808,0.03010365672559547,0.01861555633677237,-0.01437514724469297,-0.009178792987467529,-0.03855659309607715,0.004698445965955797,-0.02911841172537704,0.01875184220873264,0.01655222038171472,0.006779236742649645,0.03222761262487452,0.03018771617167832,0.0436633953610471,0.03214949463317668,0.05848272038594555,0.02572122801701956,0.07728221643646084,-0.02544472498002915,-0.02963082437427112,-0.04029654935313622,-0.02576712908711734,0.003272180590271507,0.002765756883844615,0.01764234531652004,-0.01042389644177842,0.04093231150998069,0.04006081667096238,0.04188114929983763,0.038754992345585,0.04330097594713609,0.06335232601133146,0.05876999528838895,0.07579191759394142,-0.06085146816778136,-0.01872102118896751,-0.0697275773880628,-0.01986000364306467,-0.02360128664195037,-0.02709256759188757,0.02030772352948156,0.02263345230307695,0.02126054647026531,0.02276535970375952,0.03471485747130863,0.05382659113175271,0.07181932060787639,0.05241397975110985,0.05957122865415466,0.09040547894664927,-0.03959204475394153,-0.01692706497247385,-0.036474303292247,-0.0475402574434084,-0.05558849166162515,-0.01906698433576837,0.002956313386620435,0.0005281439217377456,0.01063717419232306,0.01609922332985239,-0.01451752056566243,0.02223124581214344,0.05485961410409539,0.04374500739441051,0.07812399462637454,0.1056175698107935,-0.07486851646622517,-0.02851286698988845,-0.04298057593696952,-0.01829342077175694,-0.05753370559102307,0.01139695838334325,0.007255752291361256,-0.01444371914276834,-0.01028063598847395,0.01653105431511091,0.005333508606522164,0.04826001093402758,0.03385784937591909,0.05703599257293166,0.02397882774968751,0.06146393801237569,-0.09110851610966848,-0.01653714680411775,-0.0533167652693876,-0.00814471158222773,-0.02258853840051132,-0.03312306385552972,-0.06070302414323061,-0.0232654736645354,0.008984884707748981,0.03015749672724352,0.056434629641036,0.06550250052806346,0.04678877364881529,0.05135738982082521,0.05544834267657308,0.006517870329063126,-0.05091306781843098,-0.01491373197882026,0.0109786037999207,-0.03102748699379133,-0.07827109382464373,-0.1305501781648493,-0.1199917075479273,-0.002284447536335846,0.07800112894441344,0.1042321810027514,0.1087684775127127,0.09235612037645349,0.06155875796098433,0.05615006589910399,0.01973673543599238,-0.04728793609657354,-0.3004114246535953,-0.02183427947308908,-0.0409729884423347,-0.05167427264586107,-0.05600202783860723,-0.04667742497551237,-0.05542136523869344,-0.01061741474003684,0.05605622780980634,0.1167764032916547,0.111081086286624,0.05709615183598626,-0.001660395692073369,-0.01740078777656687,-0.01184032606875133,-0.01585635240462696,-0.03046339478894004,-0.008821618739568013,-0.0110595850702484,-0.03327409930346124,-0.01926632994023036,-0.02736943427447345,-0.00892805088774108,-0.04218940395574724,-0.031339393553168,0.01427670151981454,0.03415078356188464,0.001516334563992148,-0.006612762778051015,-0.002897809258695493,-0.009230486988619767,0.01108925414042698,-0.01482037325256904,-0.02460489236787554,-0.007365727561859188,-0.02372402316216176,0.004649919731857344,-0.001074193363196882,-0.003157640282549257,-0.01533019364398687,-0.08358790557696924,-0.101603691419377,-0.01450056365697224,0.01461486848993251,0.01179323668096451,0.01909288508951947,-0.001954955523502415,0.003979211996720342,0.02443602900614076,-0.00352359255429331,-0.00365362697916348,0.03429394910117847,-0.004280047635294591,0.03493669579446458,0.02855139819614089,-0.03262457792084222,-0.1023997288368024,-0.1195316436107079,-0.04586496606011298,0.006435233472245894,0.02228523623348728,0.0114485017381278,0.04819622973258572,0.02201169275566362,0.002950370341795474,0.03273052618961633,0.01934615228801563,-0.01079454210797159,0.03049768717806695,0.005655582560526413,0.00344886215557982,-0.0412628259583663,-0.02922278469699266,-0.1160645766787314,-0.06827993419296732,0.0170353737320522,0.005043166343465342,0.005821658244245353,0.04602190811284225,0.03428008443796029,0.0420878253834871,0.0248077129606937,0.01867620929979482,0.02223092046698435,0.007851176990434281,0.01341214709380887,0.0009875180209167698,-0.04294796439630036,-0.03626080090273379,-0.08930630167639822,-0.02942235123992039,-0.0337447627935156,-0.007208309893760573,0.03334416399891388,-0.005541046539014369,0.02385830883184431,0.05651725263757122,0.01940731384773097,-0.004925576929095508,0.001188859052499449,0.01930244956872063,-0.02581972070957116,-0.02733364059323996,-0.007509016206696553,-0.01788493042116746,-0.06274856569442812,-0.02832395633290755,0.007087200047728928,-0.0191599579033839,-0.01124588909295723,0.01454966360374961,-0.007632366482033908,0.06399470273275301,-0.05376485857048748,-0.01404811890257254,0.002894510589209767,-0.01733029005687377,0.002691151833711462,0.006530062780986974,-0.03379677523294522,-0.09420774040951871,-0.05591435253852187,-0.0001468770282539725,-0.0244279673039716,-0.02480023262522011,-0.04718329807199386,0.002098219880972714,-0.01735614381288951,0.001722847605619545,0.2252540279010635,-0.01849843932752388,-0.02992344996644731,0.01701270579771314,-0.05062708320032723,-0.05145714915439786,-0.04929641988103852,-0.07163548353482845,-0.07294109752320158,-0.006673440399923159,0.01715434026914778,0.02367367666507023,0.04252735679071137,0.03644291218672582,0.04885431495490115,0.0304220048401895,0.02657854923029321,-0.01327381362467124,-0.04582963805396083,-0.01524648042993171,-0.02105842372639131,-0.0298351021003848,-0.03963878457569465,-0.009249378079502083,-0.02434875022225742,-0.001340138716892682,0.02757746252336219,0.001979954322721951,0.0412723881834454,0.04759734200631308,0.04192145870524594,0.03132692224911528,0.02888022401251613,-0.04393754151429778,-0.005087554160730787,-0.001996813637858738,-0.01627380265113961,-0.02757450611621842,-0.02607928177893412,-0.03083905186283541,-0.01541955934864915,0.01266683596479656,0.01887548234537966,-0.01358686393613197,0.008816025003044346,0.01988114900908138,0.04256675735260382,0.04770958313572835,0.07867067319890286,-0.04539339926495722,-0.02496707983495206,0.01253474710043107,-0.009712996692552611,-0.01468700875520617,-0.03345328591052035,0.0009825162510866837,-0.007563491479102302,0.00365225593773186,0.007933348069477259,0.01442977161072062,0.02150807609697529,0.04904335001124238,0.02206517086508425,0.04240198062470181,0.06360433972237006,-0.02654930409371193,-0.02628398741096574,-0.008051480457603444,-0.01737021911915052,-0.01632710702458683,-0.009820081283047398,0.03283065914710604,0.001021382869965926,0.04224314738029689,0.0302798599566987,0.03923528498296836,0.05810320076496164,0.01299166563250691,0.03647114822012332,0.03311394277622502,0.05204916583813161,-0.02848462214360567,-0.003215983311950417,-0.01147095362406687,-0.01932475261833675,0.008161933809492015,0.0012251828277586,0.0106697429009904,0.02563936229381297,0.01757147717452487,0.03369919790282171,0.0364887667066884,0.07426562528085934,0.03378278395749891,0.05462730223042903,0.01987348612463874,0.00161560044313435,-0.0198799799427689,-0.05012082039547355,-0.005165488556351167,-0.02803949292075427,-0.01085785789021214,0.03609029703442534,0.01706580603668147,0.009070545410057492,0.005077038955835674,0.03606875610908727,0.04673802840602751,0.03248341378587653,0.04720853162357321,0.02776033457230804,0.04117500101668923,0.03507990648493867,-0.01565590839831511,0.01623471646158631,-0.05059287115650208,-0.03019683812986724,-0.001564815228321065,0.01067642510204585,0.02300751659820222,0.02381558678371712,0.02586608844808636,0.04177906918724225,0.02556473222992943,0.007179441634919553,0.04971090713781116,0.05193691184809716,0.04729354113325913,0.04580977661980483,-0.1554406238574256,-0.06142541606325346,-0.03409914152539747,-0.02367799360221775,-0.03834131806271579,-0.01707185922005201,0.02802978083672531,0.05810163835402782,0.1041376240522211,0.1077577818825359,0.08929050516975524,0.02970908461503806,-0.02084237132829236,-0.03441208319214035,-0.03347271730643134,-0.035237031754201,-0.0405444897604347,-0.03121479427791286,0.003017787049034075,0.01704639664778156,0.01422031539903,0.02690668436592456,0.0430618459742712,0.05052426681744814,0.06467931511661691,0.07031438025425545,0.06003924975306349,0.001210104056465923,-0.007467581169650898,0.0002738880925323249,-0.007969087809532283,0.01792884463160858,-0.03529191334867677,-0.005514007534776573,-0.02593792039596087,0.007875687415893118,0.02614787676495381,0.008591823612086822,0.04258504700068476,0.03698134598112728,0.04374175841185286,0.034827964284884,0.03151239583577058,0.02783512468447178,-0.002012907498944467,0.0163891541924755,-0.004406796545827498,0.01839461072684907,-0.002879706131837787,-0.00316155386638682,0.02528333951440416,0.02727454067250975,0.02368165912153682,0.03323332457643832,0.02696693057245209,0.03050801102825514,0.003549915380987035,0.01042454415021742,-0.03031467445076956,0.007174387618947012,0.05029980224458813,0.01173650740905365,0.03218419649452899,0.02748010997676336,0.03750082414746757,0.0001645633279153419,0.0102565363566846,0.01590180368249615,0.03653433876754641,0.02558144448301625,0.01598093830053225,0.01959725104243281,0.018645053037924,0.001873017997444848,-0.05162855364546536,0.009400147999844042,0.01403756418451381,0.02676413160524075,0.04618646910101753,0.01444453601544549,0.03432332534662025,0.004048653501221706,0.004570187944867772,0.008397922503007728,0.02968037064799664,0.01433796124644185,0.02503356068828769,0.009777022591734897,0.02392317067526533,-0.005393980224899509,-0.06675921814217098,-0.01378426536258313,-0.004972126905215442,0.01115755274979984,0.0164467123263087,0.04598468063015126,0.05569900448983675,0.009381235070587248,-0.001981437386645548,0.01907860564576992,-0.001499110264987344,0.02278938833973404,0.008417379121382912,0.02044288792142257,0.0304143187215878,-0.05396803635666769,-0.0200031233095787,-0.01220485118350123,0.001188387885674567,-0.01371878444502155,0.007845276713377604,0.01684462710740316,0.03468333200833755,0.01949931380208075,-0.01594386146804649,0.00657205032576601,0.04129747502318946,0.03882925726072407,0.02822132543836661,0.03647901996489734,-0.05051059817204235,-0.07403925156439542,-0.01539265521406093,0.003238037997364862,-0.009646671396657995,-0.002338971249553217,-0.0128629460318588,-0.006922298730756906,0.06180519356421934,-0.1903134957544281,-0.05228647122934685,-0.005258611080425732,-0.001761824868089166,0.009376928609441891,-0.008842072696499038,0.01214613961659958,0.005202324389207013,-0.01811114963611358,0.05364771529353327,0.01101492457043295,-0.005773847018708978,-0.01261304967622332,-0.03329516806431107,-0.05871953185150623,-0.08595872525974943,-0.08749732519497419,0.01524883587092962,0.01327254280550974,-0.003241071134629925,-0.01175462337339281,0.008211528953847098,-0.01496734144461266,-0.001770201987927122,0.03291653554182394,0.03691395324546443,0.0327123686111691,0.01968355677952714,-0.004170890776268043,-0.02904875166343655,-0.08777797033873232,-0.05243298458627479,-0.0506431044287258,0.02543861594301704,0.04267720141523852,0.01679935972330151,0.01764813157924914,0.01196480673236121,-0.01254513180731523,0.01354709835891089,0.03573333407951005,0.02726979424210807,0.01895319741064541,0.03424915840540393,0.001227501958612997,-0.01792585122549021,-0.0670020114096314,-0.05133563521609961,-0.04775089155199672,0.06773069899566779,0.01500123126602198,0.04166796645794818,0.0511089615098419,0.01284297092638474,-0.03130573223871413,0.006293070792826766,0.03664993622255963,0.02184071643243967,0.02640628988933134,-0.0006587153694139663,0.03112122528928356,-0.002552790035880749,-0.004636081438693919,-0.03604974692087577,-0.04986642837503145,0.100836721213065,0.0612052307015211,0.04382568870787567,0.03311471500836082,0.01016557631318848,-0.02015796668071599,-0.01805259921167477,0.01705302709167025,0.003471128963485891,0.03036683696522678,0.02850599276716868,-0.01334381448025334,-0.00264308277320764,-0.01738163549051849,-0.006095660733751064,-0.03291049548925534,0.07843216893304425,0.07779304425582753,0.04196367687185293,0.01535294322208575,-0.02882567709645557,-0.08368791642862364,-0.04256860666076807,0.007268404414578096,0.02050753285691412,-0.002622689619074039,0.001040210995697523,0.004257333399527479,-0.03600251325263815,-0.02528906837266399,-0.005734655132519929,-0.0571705644654479,0.09876802281907801,0.06457435921754989,0.0903861615934643,0.06206965367035931,0.02682252078628676,-0.06921460069493374,-0.03728486205099837,-0.05817899413747329,-0.02016973843957353,-0.03635322011401167,-0.02236942255878584,-0.03513745139940167,-0.04839539502327168,-0.03727762116835921,-0.0253094434141982,-0.07001431219956926,0.06793628240439768,0.08890813942752365,0.05877327551833905,0.0648922536799568,0.01475059166862978,0.02742857027272886,-0.06129678271849345,-0.02294306712433555,-0.02809565335760714,-0.07957208004656624,-0.05743510558275372,-0.05764784993660434,-0.02853518244449671,-0.04985416298855731,-0.06570372867942142,-0.04949935150781552,0.02523623582912533,-0.02327027396336,0.02774315333258845,-0.002032430703312479,0.03687961476284396,0.02603400428987931,-0.008994972194320862,-0.01587052822767548,-0.08539038859524371,-0.04625269925496926,-0.02163231714189298,0.01480350664623354,0.007388734146344557,-0.0144849086731501,0.008047091143227041,0.008858099416672113,0.0173815693700741,-0.01516519080881043,0.02278225721209495,0.04116057407874801,0.01053510837196402,0.02125045539961,0.02533458192803048,0.005140820926258846,-0.02254112222084981,-0.05493038736746915,-0.05526920388857294,-0.01650785428506789,-0.007099291828302007,-0.01280241315574784,-0.01003893004708306,0.03017683911742165,-0.008543597556597412,0.03651937877062576,0.02375034235527177,0.02742737517148568,0.05456873293012713,0.03389323851357978,0.02648677348299013,-0.03075221907854858,-0.01631746927257204,0.002617153229153479,-0.02991639816239874,-0.02599213217128665,-0.01857318911234646,0.01191196448853806,-0.004507520596968206,-0.004771865145489011,0.02562637229048653,0.03021095003067384,0.03499537548371029,0.03071994010207223,0.05085910241221159,0.02926123698851955,0.0244434314033419,0.001848933390199091,-0.006064094043428204,-0.02420922272240862,0.007232167512963437,-0.03514001806119545,-0.01073289166303228,0.00484075879700013,0.00883806251379541,0.009097844689044491,0.03585218456651645,0.03864528593441324,0.01431539482101975,0.03302438245365364,0.02212097640384925,0.0431693860652374,0.02207897851938308,0.01335314051084685,-0.004607641972748194,-0.006776176645601685,0.01722712823236409,-0.01015399438510265,-0.006662938647362351,-0.00754876505840887,0.01123601964825159,0.002611727928085616,0.03856440934802008,0.009727686392399468,0.01845842662790314,0.02118009375931845,0.03137136652155369,0.03853224058166118,0.03343282814353364,0.02208166653100183,-0.0007909490313525879,0.04054202962135425,0.03158998408243364,0.005892971039977371,0.01154177554893161,-0.006445376401929928,-0.006773985162649965,-0.01998313306492826,-0.01521459094290097,0.04866490916266725,0.006251782670428042,0.01308760615126084,0.02801537138734808,0.002408292887085981,0.03227075629518878,0.0428753662082121,0.02325632827753554,0.04412163523699655,0.02780904267818027,0.02827732181475436,0.004356697027946583,-0.01233132393788963,0.005570626368385945,-0.00865745578449873,-0.01679356351472258,0.01654938897548963,0.04396891309132053,0.028853068434211,0.01043040899568781,-0.0007341514302799168,0.02235237134856141,0.03824410530496779,2.541295656514341e-05,0.03891961967986717,0.03314804399015632,0.03370692523421696,0.01974153460565864,0.02494999294664981,0.01759721022448601,-0.002560737727903697,5.178628114743007e-05,-0.07709251052647061,0.03078636857904191,-0.01131192299318353,0.005268024228587477,0.01856696634904009,0.02357876189813555,-0.0342159773109021,-0.01430738270401568,0.01893652376382405,-0.01632981750697561,-0.01445301139351534,-0.03141160239375189,-0.004044720667025267,0.02555676910673214,0.04540422132403322,0.04734606287134616,0.01645177694498555,0.01407396974611901,-0.008485081871228446,0.001550716602740097,-0.03000193466041222,-0.01923479267181211,-0.01197974496777312,-0.003759346378331575,0.002989212486401284,-0.00836243939156131,0.003599783901539501,0.02396667406684047,0.05413590170011801,0.04986865632294279,0.05771173923392941,0.01515810962123382,0.03767207075529755,-0.005015136471104738,0.0008023714657430127,-0.02275721646919414,-0.04576475830699264,-0.01904957130966147,-0.02312114319777425,0.007646950929956662,0.005285348520298124,-0.001948587779920799,0.03077821780092968,0.04177763710188093,0.05510775926013575,0.03217739944206208,0.03405209744008347,0.05311756420506075,0.002625674908988663,-0.01096372574158771,-0.004823484491571036,-0.004340061585143181,-0.02918901022131909,-0.04617139189789535,-0.04695930532886249,-0.02106696410524251,0.01392829903979177,0.00398333808618143,-0.004732472603593079,0.01715107353216958,0.02195523302308612,0.03442261629973419,0.01698108266073599,-0.01023750707667168,-0.08843749298365633,-0.01070648567146833,-0.03288924902539837,-0.02985777366478818,-0.04348089641224741,-0.03958480946312407,-0.0249507254827402,-0.02404056948925144,-0.004592728888009419,-0.01729522913411291,-0.005925529095477657,-0.002208070547744267,-0.00355572830079859,0.004888928096910828,-0.06469109253244273,-0.09101778526943688,-0.1240777776211408,-0.01738940597743699,-0.01026650906080722,-0.03517750054703793,-0.05798742284071993,-0.04147564959883118,-0.03829014164425446,-0.01493562321019473,-0.02591414052320089,0.01511881992653353,0.01545336719454703,0.02722242796869295,0.03433859744292977,0.005606317258524516,0.03265886224781024,0.0234700522865544,0.07445670048580763,-0.03483810533195192,-0.01521295068066073,-0.02341799062823356,-0.03829503950989233,-0.05556924523754068,-0.06218228172165747,-0.01460602153795727,0.0264699120827603,0.02359648474140019,0.01600094272392847,0.04248378240308468,0.03884185160193109,0.02900655249695157,0.05351825591157126,0.03736957304453973,0.07361438762573926,0.03106530303461442,-0.003289504800817973,0.009145294392788468,-0.02319402310708769,-0.02806561492829074,-0.03769744054929457,-0.06111640263978112,-0.01504907888219876,0.02692547833202303,0.01360449362231354,0.04373086660330187,0.05374810016990065,0.06505649921690376,0.05918078900091191,0.05708323513892635,0.06952323179866993,0.06742149838687621,0.013887272586425,0.01426267406703934,-0.008386848986133181,-0.02197337285252588,-0.05363373201607248,-0.1178482468173441,-0.06551625463523456,-0.04271989059188719,-0.107791408349292,-0.08654867038565373,-0.02362769108955605,-0.01651810643266494,-0.004263049991585587,0.007302222313267348,-0.003662370330488626,0.02092325629614886,0.03355160576492416,-0.01664082608536056,-0.04455206311836298,-0.04002008000869753,-0.06304405239420675,-0.1004724758670558,-0.05668704112779805,-0.05451694149032396,-0.07191756895937518,-0.04874683765985332,0.01420852284548394,0.01101134715888713,-0.02335412632214971,0.02646389199137045,-0.03263820548708692,0.01025537267210494,0.03247025938826411,-0.01264781853089481,-0.0207387501753696,-0.1196961256223477,-0.08703875926030694,-0.04539251266591741,-0.02217160881628405,-0.05501495997673661,-0.03129055633250342,-0.05128226104990088,-0.0122445927497537,0.001335676114727422,-0.01442614714711523,0.01120988461874951,-0.01967586337381858,0.00809213551461605,0.009350680167170031,-0.004765964198887488,-0.07228988637995259,-0.09216641049329978,-0.05243308154814671,-0.007559355397358926,-0.04313734956173278,-0.05164313796707949,-0.02983865492387493,-0.05019746943485821,-0.02259046047507013,0.0042652484657908,0.01724166302396133,0.006667278772358287,-0.001583177763683488,-0.03177003077943703,0.0163963517363988,-0.00541470912843499,-0.01606859291194929,-0.09698033681156994,-0.05484975658968611,-0.03798227235229641,-0.05212179559553459,-0.0346711159172746,-0.03141720818481343,-0.02593217331639825,-0.004267473941163048,-0.002681827230493787,0.002093067682745522,0.01881696435134676,0.009326630176712902,0.01099912249543045,-0.001302047883121522,-0.002249759330907999,-0.01843273720582444,-0.09192562953351857,-0.05230455918089897,-0.04345197421874884,-0.05047167769402405,-0.04472898064893354,-0.03434326059963583,-0.01073260280185886,-0.01820912611470355,-0.02956395720198195,-0.01387020999913389,-0.007034740051718872,0.01253897525724689,0.001179274380386636,-0.005249442729609206,-0.01733529685838271,-0.04137619873217618,-0.1021711655659108,-0.02632897727242188,-0.02454028515747236,-0.08663160811727985,-0.05273426148058558,-0.03880756986578737,-0.06330911736701855,-0.0444882748371532,-0.01185817275612193,-0.02329571638234787,-0.002414426722656898,0.009632835190479572,0.01102718910685965,0.02823034730376266,-0.01774877591477154,-0.05719713664929397,-0.05326567183554201,-0.0288908191375416,-0.06153119227414241,-0.05663215091567618,-0.09616996200550371,-0.01108032831094219,-0.05937534323960688,-0.06075196377338977,-0.01094870236020689,-0.02138648530937667,0.01141276589671865,0.001196681679662032,0.04402678896548517,0.8610342897813603,0.01615969120723825,0.009429757751697574,-0.02513312458193321,-0.02197614470879547,-0.0152563439907487,-0.01972245502466789,-0.03227669760519247,-0.03875156077112526,-0.02037913928125448,-0.01669895068145098,-0.01283640428400317,-0.005184406182017029,0.01110881466248041,-0.001729913982231934,0.004281462732732394,0.01178401803400103,-0.008015924756079006,-0.031021333741999,-0.03839081358351219,-0.03162062558126582,-0.02224575047279438,-0.01904360157691248,-0.02126887518297523,-0.03174926267386903,-0.02915309630499436,-0.02957373222078183,-0.009959724549724765,-0.01844114846661481,0.003927349043908793,0.01473063379130453,0.01518127995185536,-0.006829520168805122,0.01321592781154907,-0.0108672886772922,-0.02578700253084338,-0.0173009498891262,-0.01931914194727711,-0.02441780168630241,-0.02433150712423234,-0.05122301664385283,-0.04568443773216935,-0.05297299695196903,-0.02440976286591919,-4.527282670843167e-05,0.02483357377310148,0.01946462763721227,0.03116588254951291,0.04446898201911899,0.01454279840267871,-0.01651494864318942,-0.04657285712300603,-0.02784087318702147,-0.01450284515008751,-0.002294050228334949,0.02204794001551241,-0.007397741149865742,-0.01775884297815939,-0.006973122793434859,-0.02435283138905889,-0.02127396192415839,-0.01255249467466911,0.0174456490217384,0.05493998446367378,0.0703610454828261,-0.01325722896064056,-0.03622141190845627,-0.04148519659355913,-0.02428523476123394,-0.01820150929738775,0.02096424571353387,0.005402485057236204,0.02053940298930206,0.01346527353373293,0.004318726762303768,0.004361545059744632,-0.004236659893080188,0.00256026032211304,0.01434334095923712,0.08297843198140399,0.07692974306314178,0.0003463825714703422,-0.03513456369433569,-0.04603737750843787,-0.01146293517506921,-0.01029869421073523,0.003834098398192728,0.00133931671358826,-0.004253603021532927,0.00260262010367572,0.02019575006642711,0.01074505953189519,0.02069939649471124,0.02073460714115334,0.01572272543385233,0.02595756777092262,0.03579914515831951,-0.005207568162312844,-0.04273465939335541,-0.02637848864809854,0.002361337193418658,-0.003404020712385894,0.004222821283696009,0.0006633769001826415,0.01279956877275895,0.01352867805788594,0.01291573162065175,0.004833839095880038,0.02697011287221748,0.03913113641843695,0.00975951546862602,0.03444844633224048,0.03534868296472174,0.01823096422564507,-0.01120543360790591,-0.01989491685562915,-0.01223081090380575,-0.02674729452229102,0.008552321540080869,0.006546848007416966,0.001545521328170231,0.0004970629232105778,0.01784410175471025,0.02652441587192927,0.02191336552026163,0.02660801493592752,0.02556920401692415,0.02566660599009846,0.01742495580570399,0.1042928803732426,0.03201483951091769,-0.01526797751462519,0.02774703751061049,0.03089626528654147,0.004544971913419803,0.02343762980898182,0.03687338725907142,-0.002390442711376791,0.01866610786696808,0.03321377908818595,0.00959019683571845,-0.006357068079025824,0.06436711308795219,0.05217482254297693,0.06064935726366168,0.02964488309244709,0.0189958953487062,-0.009114367594933531,-0.02990590963369564,-0.01330860816154385,-0.0098648623357224,0.004050132539304136,0.007603778583509984,0.06791283990597916,0.04531909302835477,0.05710100418992409,0.04742100299710318,0.04612517864624507,0.04845980931214137,0.03909234095458608,0.02383302134476536,0.06555930490992927,-0.008812837491194775,-0.007215746364002754,-0.02114844529275351,-0.01317254627387535,-0.04084459579036463,-0.000262877872741119,0.0377405174782033,0.0338620929106069,0.07730670735325387,0.05253959006355546,0.04369693264175204,0.0565603866770754,0.03603146705420274,0.02013815802679771,0.01375995784663983,0.02665965958825399,-0.01747343643332193,-0.02454055181994366,-0.0001941911888259553,-0.05307198954569196,-0.03593034824367097,-0.005707464359145687,0.03216913407315278,0.002499685777087058,0.01306128229301041,0.04334759014765342,0.02592258605753257,0.05334551524102834,0.02572328302633873,0.02338837193928161,0.01386366819382479,-0.008608494332122896,-0.04321002206603538,-0.03275063390581801,-0.05183525542226861,-0.01382746407229839,-0.0007682609817791871,-0.01567232247779921,-0.009346903578804926,-0.005862604559611889,0.004205571156640193,0.01830339530221862,0.01834542676229459,0.04928072189841985,0.0355622145609945,0.02682687268629162,0.02970262102125074,-0.01868356089284674,-0.004402134774747024,-0.05884284266750976,-0.04632676599051284,0.006309083292004546,-0.02284498779307003,-0.001113152108318411,0.003672773738436645,0.002034621028172373,0.008598728736176158,-0.005964865402815705,0.02570752293165758,-0.001907235974245823,0.02555899322582281,0.03906788096803888,0.03366003951378967,-0.007579821558641431,-0.04375371577048832,-0.03831557240645208,-0.01603431101285224,-0.05936825486482104,-0.03088063704528781,-0.0008154279121508898,0.005469265619770502,-0.005602861582454381,-0.0054918860983747,-0.0005017592793276941,-0.01638221908790631,-0.01976256996515121,-0.007378928518070612,-0.00691217565210591,0.03025493934975185,0.01695675574034513,-0.07737890099317546,-0.02841946438157487,-0.02939056921214238,-0.04409742100924614,-0.06923264908129738,-0.01116305831687318,-0.01412906295077286,-0.01518481855950318,-0.06371217442612186,-0.05370815509980465,-0.02248162261376724,-0.01663684556455325,0.01451671863814449,0.03798536742892739,0.03800810198598723,0.03175949909836862,-0.18662642342398,0.06049187235162633,0.01196454203054651,0.02289788126501286,0.006072836303628274,-0.03989271720947066,-0.04428662432836183,-0.06781357019052775,-0.03322446260943369,-0.03810692533502208,0.0003515773550870621,-0.03328768984760769,0.01578445014634577,0.01636059970603296,0.03195551752510721,0.03752335486489765,0.05399116269105263,0.007920706259724714,-0.01007914037991907,0.01897618363723858,-0.01324435400008695,-0.01230190754403902,-0.008532431784487295,-0.02745928653251957,-0.03086250947440373,-0.03049744979699219,-0.04080433691853845,-0.05152751421445565,-0.007802748534150818,-0.006739887586924839,0.01174712994285722,0.01419577934745727,0.01399018346419124,0.02065245623799355,0.001769857619717854,0.003719852345099916,0.02492710987708647,-0.01172829218191318,-0.02100004082960011,-0.01301008299769492,-0.03934968884888362,-0.03061033414676147,-0.04158538801789017,-0.03933314321722829,-0.004320023485182149,0.0111565295091073,-0.02673871071493708,0.01407272173423657,0.01363803297622273,-0.01381640432929745,-0.0027385098269207,0.01809903747740632,0.02583012852227328,0.01097557103481668,0.02637257477235244,-0.01183714070689369,-0.009558180108938436,0.0009811160579065511,-0.03011086869425779,0.0009669533194713169,0.001647692884836741,0.03966957980644156,0.008329492115218743,-0.01332438274430115,0.003568498118563389,-0.02131754532312422,-0.003120903875546107,0.005049038468880034,0.01669582052324904,0.01238340991542385,0.0042363892558578,0.002291303092183691,-0.001216569920218042,-0.0249840879162592,-0.01540453775354278,0.005491581718316338,-0.01357560765561201,0.02066692367041092,-0.0001896016920318637,0.01807748858825865,0.03022261912830873,-0.02233612860383042,-0.01478656876071096,-0.008192950470306413,-0.006249145423255539,-0.01608940371820561,-0.008484688252073358,-0.018402019283739,-0.05613283864229757,-0.05583489305489565,-0.05271059443463952,-0.03924961144602456,-0.01436456792154466,-0.03042986146930285,-0.003375395909921899,0.0005087780181705276,0.01805788078760505,-0.047403723916811,-0.009550549347107012,-0.01887337837510677,-0.02636172938301556,0.01152789167399563,0.004426865032430544,-0.05806759203282493,-0.08213906225692953,-0.09845982787279059,-0.0937472843336935,-0.04506567861019826,-0.05805830599370597,-0.03672655623992429,0.0003547071857577098,0.01455856809403526,0.02526999165645553,-0.0425380222855789,-0.01319163908048517,-0.04997565619372552,-0.05237103322540366,-0.08107435279401902,-0.1207009744444324,-0.1042307870990123,-0.07085141667326063,-0.06207090829118047,-0.01948784131983198,-0.01010469567852008,-0.03298520079854433,-0.03808150392705965,-0.03772046277631701,-0.007885120297493095,0.0230206389722959,0.4790724853241051,-0.02026842003988449,-0.0160038036019453,-0.007933188676341811,-0.003687643522758334,0.034681245799418,0.04005854243414742,0.08830452178588082,0.03978347860898878,0.05245929759074642,0.05117589028302704,0.03214063673072733,0.01811332068721096,0.005471815665729312,0.007668644657648716,-0.01507530627501619,-0.01056043187108601,-0.02000140115105384,-0.01462892564824299,-0.002009136511701648,0.006554493605125783,0.02705933206256694,0.04238853714950354,0.04392760124081424,0.04945764957452028,0.03150728134877352,-0.005069941427588681,-0.05344919548003058,-0.04923380264091864,-0.007969572209049281,-0.01522002500901566,-0.01249614376727785,-0.01985109748975131,-0.0161695629977263,-0.01518607798145804,0.003480326588912616,-0.00684591551770825,0.03144824447867813,0.03591198713967068,0.06114240948756649,0.08346732952270551,0.01642317343498868,-0.06749996938403989,-0.08791735287528689,-0.08052258191498947,-0.06737723514315901,-0.03478017839733993,-0.00756394728056911,-0.01910797248260789,-0.01761504440418816,-0.02864627372427041,-0.02078765084822545,-0.01271540486961586,0.00316647204982505,-0.001055112647361789,0.04449455880104287,0.06050163832451477,0.07970483173260819,0.02153758177308144,-0.009736264054546521,-0.03370189084311775,-0.05589654051009715,-0.04196034815908439,-0.0222914312243531,-0.02188267875474884,-0.03247720283104705,-0.02287200340944294,-0.0347454302414108,-0.02953344176306898,-0.02173515582318669,0.0275222966826566,0.03563759483305929,0.06780301444017064,0.07735531699710697,0.02409472135031194,-0.002212565940816977,-0.02276888848641477,-0.04491847830244572,-0.04133545557052947,-0.01338333406359618,-0.02299528339242561,-0.02778577487561247,-0.02949703212497264,-0.04241781335903539,-0.003252605776573089,0.02504139335786609,0.02057684170816793,0.05920188572628458,0.06654821338747967,0.03356031757606833,-0.03856414699833523,-0.06371494414725712,-0.04720867200786204,-0.01238448238410068,-0.01981402067179817,-0.02127379194905926,-0.02322177888547404,-0.02862190836322081,-0.01956462868494427,-0.01933488613088721,0.04221933315103103,0.01611327049901367,0.03835693299325114,0.05608007869225293,0.07764782470171817,0.0419646730955482,-0.005098424039163722,-0.04197306137313932,-0.05381387128178779,-0.01220376876804804,-0.01586014634224514,-0.02974931312112397,-0.02747178873195118,-0.01827345337562166,-0.005108461253966108,-0.005689366331822457,0.02209058649350257,0.004032912450901117,0.02067895767261185,0.06337979794751186,0.07563658857723267,0.05163360887902726,0.03955274609367547,0.0259727730206883,0.04260561619527142,-0.01849980227852778,-0.01744602025579529,-0.02201265185444528,-0.01841499723172106,-0.382292231285821,-0.01981180279322489,-0.02022643840692527,0.02992984718659699,0.006269465082142071,0.008993999106330962,0.0333403586470284,0.04276436655860686,0.03836879191810834,0.02914704516592887,0.02956331376709595,0.04323164365977915,0.02093120708999008,0.03830071540759473,0.007469436418338509,-0.01726549041815635,0.03253423218350953,0.01291216768861982,-0.006107454181432219,-0.01850038123420707,0.0100481554392676,0.003098068300502702,0.01347489962970993,0.009068375174224064,0.06228496320493541,0.05917167677000349,0.04119033912620269,0.0171672115221637,-0.006392851978452549,-0.00776915235899692,-0.0104680277473729,-0.009489959396295135,-0.01497373360522927,0.00642470264621752,0.010808602229928,0.009433912330438832,-0.007320334088543324,0.01042680252756419,-0.001424783001575971,0.01065823799352047,0.02092484462065762,0.03147187665719346,0.02039776762100491,-0.006111567940823911,-0.03099102228720763,-0.03327910544981498,-0.02482128219758727,-0.04190217592557618,-0.05970861376280173,-0.006239166987177796,0.006682080637973916,-0.01926853838969084,0.01985986304257658,0.005555259484663715,0.01318128130996481,-0.009784199415247011,-0.01016420090269466,-0.003765233047559151,-0.02024124509316112,-0.04916368383126306,-0.0951301583201716,-0.1248663044573042,-0.1837128406708049,-0.1398872236947747,-0.1034379296199734,-0.003151846352812592,0.0251931076371875,0.03304702264240886,0.005965462860399388,0.01122307863357111,0.005821005257601038,-0.004239607285025698,-0.04931268747835729,-0.06864710413640984,-0.07290540117801415,-0.1032515912066888,-0.08385710002111893,-0.05589316630667368,-0.06987285173760384,-0.1147500552583003,-0.08596961362726264,-0.00988395588985452,-0.02876225535020754,-0.001932855876055703,0.003767788454961507,-0.009308189923103867,0.01789901302205936,0.008679114432459086,-0.01869234386702313,-0.02076340809569295,0.001892532563267784,0.02028045225693694,-0.006000550736236248,-0.01740199234977871,-0.007441654041105633,-0.02339519665315067,-0.06082981063465674,-0.04837943869900502,-0.05053535984769703,-0.02799024773987365,-0.03032430888811637,0.00150949366691521,0.005120112244758348,0.02003340737436897,0.06070702212896095,0.06628719507060063,0.05137135160590634,0.005769566246500661,0.0002146966385769339,0.03769494654432211,0.007213337848832518,0.009635166753668161,-0.003915365821789627,-0.03425883894451127,-0.0003865693736858894,0.001307222847723652,0.04750930633245171,0.02722618689290674,0.03813111947878023,0.04355357630328071,0.06374829072617423,0.03518123561147548,0.03957293599533623,0.08000978916614397,0.06128611578594773,0.01864636251113591,0.03372723838735827,0.003638598129454344,0.01351872752905467,-0.004411123650097306,-0.005067145473199515,-0.04199854737950583,-0.01790288788404919,-0.01891574614667066,0.01262430326441791,-0.008850518568968043,-0.01745557291934362,0.05667981029523898,0.06736240006776051,0.06155165254304327,0.02275758703796881,0.01054373382962451,-0.005403716208144158,0.003255855409975756,-0.005100849090135084,-0.02407190440891092,-0.01286030605798756,0.04788011531859053,-0.01982655737256262,0.02803056578699388,0.02596311458433326,0.002885317282025527,0.01947394098982209,-0.008621104392852158,-0.0114899455473377,0.01880526938078975,-0.0001171759245871512,-0.001293308116546331,0.008003236358891821,0.008774067768819217,0.02167512756257898,0.04796764904804361,-0.009128792754598261,0.009477996832214935,0.02142286466096977,0.007362547286450987,0.02275993274709134,0.03454639077426401,0.003192602564625272,-0.03344839281141158,-0.02536749657925336,-0.01975770692795105,0.01839050606172797,0.02479488633922064,0.008339780701971252,0.01472266166845532,0.01747905039944594,0.03396350147525185,0.0290832259510511,0.01487449399667671,0.03581402105983875,0.04148953837998388,0.03263738128397498,0.04257201114963882,-0.002883962502593695,-0.04287932054835913,-0.08908502760645944,-0.009194835324234969,0.01232977699700567,0.02074298735172514,0.03192400920966725,0.02614682281435828,0.0391723075582101,0.04883178890331595,0.002819077647633967,0.03144075494107523,0.03601062487287853,0.03175295336885436,0.04982751175296626,0.04172974130402365,0.006919337345690828,-0.0762064833348377,-0.05770593046301803,-0.02053954130857912,0.01466521837846211,-0.002777712835596986,0.02089751809983421,0.04474394379588203,0.01414902656471087,0.03121691005723939,0.02094999577495217,-0.03187689158887514,0.03249748475718632,0.006179226592417312,0.01755159562063682,0.03812096041250849,0.02181667223250931,0.005823157971262182,-0.07273604754999054,-0.01294122491715222,0.03034649206222729,0.01562597698127772,0.001220892423963156,0.01519399365386825,0.02819146805882628,0.03355254857850996,0.01463072435216213,0.03698124220758719,0.002222674743932299,0.001578004889069899,0.001225471428495427,0.01440095849500068,0.03397016363128278,0.02787572666612005,0.01504020245486685,0.008916065561637024,0.01161643434082365,0.01949688046438154,0.01715984753518254,-0.004953973680994216,0.006007225616873627,0.02707714873561192,-0.01540553702844615,-0.03538942885561056,-0.04662593942868608,-0.02053273310857355,0.01479677818228045,0.04506787448958929,0.08221107936125267,0.1219864111584336,0.114392592691648,0.04868068027225129,0.01057801072898211,-0.02743654262778807,-0.01148340771358097,-0.05187681418398679,-0.05349539298400851,-0.03047227037770987,-0.1754357290180507,0.02960405180758321,0.03589636447927559,0.05617064975523513,0.05540552340920606,0.01464670475405856,0.01714694999638871,-0.01515362984896915,0.01301628744665726,0.008656748402667998,-0.02886872397480327,-0.01080663051899139,-0.02346067803641892,-0.02589118298037022,-0.04109923841322515,-0.02910053316760522,-0.03866942581547471,0.05800923451838842,0.05503649948144732,0.03342771837349039,0.07910826571554495,0.01455782916389621,0.02810961906686378,0.01713039123503772,0.0155140802947344,0.03026536864066629,0.05020881804063945,-0.00162208155592317,-0.008498814653501221,-0.02047592833771396,-0.02267309889652125,-0.06078926387683674,-0.04909102891843992,0.1008619191590809,0.06162824926053384,0.05104863165038158,0.0432132474547461,0.04241578000819707,0.03405024179347294,0.05706904625560755,0.03230584235475077,0.03293449942859927,-0.004841509691365293,0.007594598364602384,-0.00816562859830402,-0.04078695274974192,-0.0282823899309373,-0.01672446769577681,-0.07571687772985712,0.1086424394963356,0.07029719815306525,0.06369574317118554,0.04297412101235278,0.02792259874797598,0.03139934618861324,0.02775588975231997,0.04008384907915272,0.02723512841900467,0.01625554340165106,0.007165027485424823,-0.04105179403925702,-0.004990549534276995,-0.03472398513552807,-0.04373015061259777,-0.05145470524649086,0.1168588952953084,0.05628480354668405,0.04766784153561612,0.05332193943211124,0.0258887103544676,0.01097044927348232,0.003155800666696209,-0.0007943584088214492,0.001347772925403795,0.002893011978454535,-0.03538128391569695,-0.02474726477877187,-0.02142107409217557,-0.03229270228918404,-0.04541501963581313,-0.0367960813821795,0.1097584390495554,0.06878625881063338,0.06596834686784302,0.05000598206749904,0.0615399871976267,0.02904274517117786,0.02283520447736943,0.01620619998408793,-0.01188070757330483,-0.02204356906521171,-0.05314647668798429,-0.02323461482818744,-0.0507431286841157,-0.07662230703721642,-0.02362303701046788,-0.05010850814268997,0.05118369522524781,0.04156000165427027,0.05412202725791194,0.04451004706831858,0.05420458472198317,0.05379394090026431,0.01294826550129648,0.03363210859515141,-0.0368407597274952,-0.05238283212069766,-0.0975173066848231,-0.0646108280698507,-0.04417358985077852,-0.05832464251464622,-0.07456080558811208,-0.09331962207143919,0.00275924627281468,0.01090410125219737,0.0436376145865073,0.07284666142303874,0.07101526547426637,0.07310015242850325,0.07238960202991626,-0.01961327189655028,-0.03436127187583856,-0.06113471051322596,-0.08892774630908358,-0.08813848272613464,-0.07919001498628246,-0.05003861334723398,-0.03006933460874945,-0.06023227189460879,-0.2580086173257965,-0.007193273483393901,0.02185845998445691,-0.0008158575767268435,0.04649304698328308,0.02190642670122625,0.02233256498599354,0.01221277539550533,-0.01062958533344948,-0.04366250126226405,-0.04010795153378593,-0.008436516424324105,-0.02653116160152138,-0.008849639030055204,-0.01258727003244403,0.007189560647804356,0.01426345647556643,0.001947285631654315,0.01870991241008865,0.03362431546233539,0.04384559176213804,0.04250346654363599,0.03280917789159924,0.01902024547786537,-0.009366963769784447,-0.02289419289049324,-0.02058927254467559,-0.02334635638492332,-0.03557065442310661,-0.02786852064857121,-0.01124601996576924,-0.009030499746123188,-0.007306192483871112,0.04596228744634217,0.0666075200335005,0.03555500401712443,0.04401345258804976,0.06516186240813573,0.007370197197687687,-0.006414635538457243,0.00983747329696035,-0.01349601740105975,-0.01768899708393813,-0.002012019185321142,-0.003893052400690098,0.01094688087859289,-0.001294203712716147,-0.01736940305255766,-0.005710249912055417,0.05165691194630926,0.0395421291242883,0.05593856466309906,0.05334929126763809,0.03299499772882235,0.03261265877722322,0.01283339803717206,0.004696446168261138,0.003518611777290947,0.0183423738104893,0.00418353043657912,-0.003898191899502744,0.005468502366507842,-0.01850617672555373,-0.006993806166276374,-0.02152561809783237,0.05538511150570304,0.05135309403156461,0.03379011012221185,0.04213332927427831,0.04939669355473877,0.03141419894178461,0.02620608533700284,0.01530676973303431,0.009058092593842024,0.01154721779651603,0.01246852261980217,0.008724000939835018,0.002014345568821171,0.001303460584992938,-0.001531090482091339,-0.0176801015735301,0.02617903156551106,0.03880939216127365,0.02168462608954602,0.04170008263672854,0.01198806184857016,-0.005753070081636114,0.005232950590096192,-0.0003821521967704099,0.01002190606565429,0.02965240783091592,0.0048148358165225,-0.002378507091557834,-0.002076035370879053,0.001853356410590449,-0.02371518769081857,-0.01253469786203724,0.0391548949991113,0.04749261226653625,0.03203654328076213,0.02187262754626311,-0.01089475972659245,-0.00419623560834363,-0.01745912404525125,0.00287584464831913,0.0002933599647843261,0.009184898915986974,0.02022717145611683,0.008143866818571297,-0.02176852229050093,-0.006754456179745249,-0.01382550277493736,-0.01601267242555235,0.008618515030386919,0.02045107686585479,0.01065164187984254,-0.0007552829393846915,-0.02911160865957399,-0.006852333051265071,0.01281641897952555,0.01928421085557487,0.006910707192089404,0.01706380540832803,-0.02064673596281138,-0.008997465123979437,0.01792812005156283,0.007472980707429124,0.03110567340576313,0.0006667206441448056,-0.1455405171349718,0.05861253336642843,-0.004616769015235419,0.04529624611988214,0.005207862701570086,0.0140966184398319,0.04186189065025637,0.04403920043405014,0.04976440479554796,0.05008044369183847,0.02903436777473167,0.03272028503185413,-0.002266899017122877,0.001158881925144376,-0.01285036336347201,-0.02020772816890434,-0.03456611979303095,0.02262888255163223,0.01938409381124433,0.01933379191443895,0.02531185913145316,-0.0002473456988938804,0.0281067311932668,0.02901785117575037,0.0707671114235246,0.06376966711852969,0.05006661566594785,0.02680264275791107,-0.003898722897058786,-0.01864955847420496,-0.02986753461848008,-0.03705490396848703,-0.02613030861825985,-0.007928080885730139,-0.03080750245116447,0.01688774085891364,0.0269478584875136,0.01091574932389965,0.01508121215691286,0.007231681643209199,0.01082488902621296,0.02754945650973039,0.04445825163884873,0.01496396799083391,-0.01735243724766518,-0.01033255762998356,-0.04165657381458875,-0.03542611469971346,-0.04321313773198118,0.0258903407121228,0.0201219007705226,-0.005387685987983089,0.01067495935897249,0.02041878246801274,-0.00336418046460021,-0.03362112869022402,-0.007009190158411095,-0.003754002766132765,0.01032588780439353,0.01439753122092364,-0.01837766485736013,-0.02608991886584998,-0.01319552419110988,-0.007260291058481144,-0.01256406997493721,0.03536704207153266,0.02391002984306786,0.01361326622740477,0.02154110313650128,0.04387417162350314,-0.008098766673383615,-0.02418376249058038,-0.06002898211338299,-0.0244444230662877,-0.02687258544872026,0.02455374948407209,0.00581815308266584,-0.02234060087656209,0.006064222245010514,-0.005306501728116438,-0.03495796385420593,0.03634063333517134,0.01968088534221155,0.01636109878805045,0.02247023350263368,0.01957203849201139,0.02096110471171815,-0.03217654726985583,-0.04842038857728266,-0.07247634027551632,-0.04612898472247948,-0.03592671576369146,-0.07820591208030776,-0.05164371451294507,-0.05128762923686559,-0.0147764326011288,-0.03671327678009197,0.01789395088543815,-0.005180535441827783,0.01590258943461667,0.004416297840422399,0.007339005392735205,-0.008514304725717205,-0.03548775250385773,-0.1058673044197079,-0.102355394432753,-0.0979649260727663,-0.08751812463768319,-0.08345114934037463,-0.05825419720742484,-0.08212106103233831,-0.0799195578602285,-0.06457776461823317,0.03679417886152413,-0.009432435876932946,-0.008800569865267244,-0.01451851098109895,0.01539731024781964,0.003556650591163267,0.01601282854924027,-0.06709911523075918,-0.1144116258694474,-0.1378648676325983,-0.202941406269212,-0.1431623628919206,-0.08491250146790129,-0.08406621781050284,-0.08656086379977465,-0.08385011711740346,0.2048283253289254,-0.04073601863136912,-0.0002539211441676362,-0.01573462172010008,0.01057008169661548,-0.01004468549508211,0.02814801420191925,0.02454690848894483,-0.001798413881085264,-0.08182053985970839,-0.118133310431771,-0.08747121477212827,0.004218339873215632,0.001644607273023658,0.02095011376746543,-0.01818914514706862,0.07698063548164777,-0.01432479575093584,0.001270693445195907,-0.008671577110686333,0.01815110555801381,0.01720885609179422,0.03137171970545152,0.01684475067844255,-0.008568974807811392,-0.03246661283616124,-0.05959812323695998,-0.07207046919471533,-0.009617580242191311,0.003645931393652678,0.004977813673945836,0.03121278157126077,0.007824154778416477,-0.001476316245954913,0.0144419267715106,0.02161826658031717,0.007903523050090525,0.03175735758631183,0.02261085742652552,0.0117840656117188,0.005413507751862348,-0.007329286381664208,-0.0626530824975078,-0.03482760209148422,0.0001290921003409236,0.005879212310659731,0.02968166890188267,0.02302384653776646,0.02539140692139558,0.0157210984673102,0.02638403944095876,0.01377429248472031,0.004879156079485624,0.03131601791580144,-0.0052000931630197,-0.02339522648517776,0.01088282772844043,-0.007113754247626758,-0.03483394255754953,-0.04315499950446222,0.008118238376490674,0.02475044388386748,0.02644591767203789,0.005721105890700987,0.03270374624362817,0.01400046158112398,0.008846136770740731,0.03053722549087666,0.01308180424475024,0.004711269148774453,-0.02850610302701217,-0.01484904540381633,-0.0220951094180363,0.001611302065090316,-0.02871165346029482,0.01291518323391621,0.0380683592483067,0.02732307688128885,0.0006250000938393068,0.01971035785707565,-0.004869852782323737,0.001966614446985369,0.009338532024309055,-0.003307270411794606,0.01664126923719606,-0.02532093606282237,-0.0416692994244913,-0.02120065268650029,0.001132684687498989,-0.001183290668528286,0.01832659599089601,0.05134041085189731,0.009445522680657433,0.02978080390643251,0.006636073828626502,-0.004784171241337488,-0.01256341968873856,0.0471056674091432,0.006711809983284727,0.003185411332284758,0.009663889039090757,0.009717397231221713,-0.07168711955653694,-0.04836609743190171,-0.04017634112793547,0.04050523822130719,0.051833953867353,0.03504152573607777,0.03651717188087601,0.007658850189882162,0.01825787273768721,0.005532977021244619,-0.01322477451839743,0.02287340727725524,0.02372455730727779,0.04114254457216284,0.02590127918590153,0.03493375354676553,-0.07736324812029517,-0.1524712629724807,-0.01663032845513262,0.05469589092398865,0.07836515767783815,0.07436694596544416,0.07012920535992466,0.02300837334448599,-0.001702066796188338,0.002383224714856917,-0.0002095286537147485,0.08556029792201209,-0.004455135009871351,0.02129482032877836,-0.00381447742664327,-0.03321042824200667,-0.008659034233879665,-0.004813681090205493,-0.02980519010746515,-0.01135749612010695,-0.02431550947896184,-0.03261646011106915,-0.03653433747646732,-0.02327729117751329,-0.0607940847453392,-0.03881231176859908,-0.02009824683887397,0.002373462472462692,-0.02672087802475664,-0.02288564656199312,-0.011674141009002,0.01006372369660897,0.001090152019134417,-0.001530272706046227,0.00758115359114519,-0.01040233385098005,0.0007239086200108226,-0.007138147588468573,-0.0221987469890144,-0.03563285236141374,-0.01745640540586922,-0.05575455874854787,0.00208765126692608,-0.05928838894396025,-0.03558760354450696,0.002205397008382674,0.001385155996766795,0.01299029852390989,0.02184152713029757,0.00975598501128867,-0.0006313859295770185,0.006355252204849744,0.0002636312043505837,0.01669282233029227,-0.01190839334649413,-0.01192417513310026,-0.02539181606754775,0.003536438858711363,-0.03232238880887468,-0.01804771735821251,-0.02387124898932551,0.01792941836953391,0.01809062522839657,0.01431656447053333,0.04034225334175516,0.01618735093171794,0.005502476726008985,-0.007559421984350854,0.007826614011823415,-0.02106396387916615,0.002354342410489661,-0.0110138272400955,0.009666907026688321,0.008825199968850278,0.01661072944318943,0.02379676475356473,-0.04024453990329357,0.00511262832805892,0.02006544548385995,0.01711347847737888,-0.00152269401973078,0.02107206199495903,0.01273648403129077,-0.01355574265214199,0.00481211504855211,0.01314007529629782,-0.00595504869536511,0.002220446831620366,0.005015017518832406,0.02486467675298005,0.03495737848398751,-0.01094095154103638,-0.0007445343389119719,-0.00628288864295682,0.01911145004024789,0.002088222939368532,0.02026602889654929,0.02046776539356508,0.001927555313311232,0.008577003290700274,0.006133878487654294,-0.004229184180143964,-0.01999528934678041,-0.007723384846308244,-0.01357396626415836,0.01011138568206118,0.01048880802826945,0.01192383330022453,-0.01783739605570963,0.008817190548084915,-0.005423238096466184,0.01115362184945344,0.01597454904144139,0.007823678397975129,0.03306588504154191,-0.008502502647262083,0.01502661504344398,-0.00972708668902764,-0.0273580909216324,-0.03582786833484757,0.01848160766673871,-0.01821079552264,0.01523693950362986,0.04026727798749158,0.06778052598844148,-0.003877147316688608,-0.0004920578497350311,-0.02502649967459538,-0.02229015759283073,-0.0121302034715748,0.01237316154267838,0.01733040961645559,-0.01538036728680778,-0.05310137092944504,-0.05361645011447878,-0.02594728427269247,9.682808509750942e-05,0.01917897279383654,0.05808110358616403,0.04540062583153084,0.2830871802493586,-0.03170904399773179,-0.01890040141072299,-0.04089596251089662,-0.0281328550252432,0.008824619883792533,0.0458951281692087,0.05249349666664416,0.04669053993478988,0.08166383153766851,0.04398967575838791,0.01194319946733573,-0.001115458722761128,0.006409287962585137,-0.007415815303309153,-0.03298354788103458,0.01248316559465398,-0.04790728601221805,-0.00232860127126967,-0.01101111818789359,-0.02704199232772076,-0.02945013258113273,-0.0217305629015309,-0.008070535966644572,-0.006649229425784849,0.00986155088027685,0.0008429762686541987,0.01198753537041663,-0.02260945835831953,-0.008937804705094586,0.01040230599580451,-0.005825434270484332,0.007174298792623837,-0.06458382608599432,-0.08274939029947249,-0.07269356215653489,-0.06963035362510567,-0.0808164209771491,-0.07477368234359283,-0.08709294679135593,-0.07188899480326154,-0.09805169505592831,0.003478725596370673,0.01548047957642804,0.003219623160498556,0.02431307131303233,0.0101932724832993,0.0009626639504433918,-0.001042267182247824,-0.07286340006950665,-0.08556954873528531,-0.09321248852002571,-0.06576329921381882,-0.09480137898138927,-0.07154548183226123,-0.05526989971163829,-0.05973088697767098,-0.03345136702199457,-0.03285690083948631,-0.01190805609832121,-0.001119888885049852,-0.01148565818261022,0.0208704587551375,0.03616456702381078,0.05023467653189077,-0.07646905638019705,-0.0803802903174075,-0.06053458286499121,-0.05366728634804306,-0.05111875174261127,-0.03227669423640403,0.01534460965764508,0.02274564154558308,0.01149355188672756,0.00966583396209182,0.008321493852955908,0.0196006884163128,0.005125149470851656,-0.01102090622800765,0.01772374059199847,0.06692798903511195,-0.02727896554910273,-0.02696947112662706,-0.01710034899842261,-0.03191683035553756,-0.01510591650135788,-0.002081094725811187,0.007249844908035239,0.02881155820039646,0.05849828937986699,0.04862047246109186,-0.0002146937801881855,0.02662787735204174,0.03140550906680301,0.02808806986558823,-0.02982375110227762,0.028086267345068,-0.001915789002027188,0.01177057436114483,-0.0296108403204481,-0.0009489100400397282,-0.02296858058739397,0.02362106304718975,0.001181615144074843,0.04554072467594485,0.02788390187009987,0.05595846669541049,0.05734981135991198,0.06169825258603756,0.02837216590099509,0.0377543679014774,0.01851611212924102,-0.0402712485507907,0.01959469047509654,-0.04127238928084731,0.01407446024455997,0.01906588106184301,0.03920352045341005,0.06742911551716971,0.03430858369244992,0.01024028198426546,0.03732422009655598,0.02352563391397917,0.03018292282441521,0.03652229729201131,0.03207207769752533,0.003347402506857819,-0.01152531037848947,-0.0391316880953007,0.03894897142605643,0.001615229442488147,0.02213694170602434,-0.00347491686531325,-0.01353031829212659,0.01581437708206996,0.05162871810744804,0.06650848539832714,0.03649833200558079,-0.004092227413204926,-0.01291188614903378,-0.03307069151519163,-0.02487853810309183,-0.03728935931552892,0.003231299173194372,-0.02128747874299958,-0.03943975993604731,-0.009782228508318343,-0.02071006575693483,-0.001373492935844133,-0.02264514732283833,0.002501108810790855,0.02039135031621817,0.01322684320642702,0.002229828281956487,-0.01276448231721155,0.004400987025735215,0.0101415584956181,0.002485993837023371,-0.005497418451310917,0.004394803551079365,-0.001324143510711817,-0.007642430505087347,-0.03668275246611583,-0.05352414961304205,-0.03402694499093342,-0.0148612518464561,-0.03129698216369344,-0.01604507724486146,-0.02722342813833262,0.003481005866256155,0.007222406884131807,0.01829384658994296,0.01638388702586777,0.01950854800642362,0.03519513578401533,-0.02043457830806543,-0.006482880011266435,-0.004066376978703204,-0.03981794071641452,-0.06185568965345569,-0.06555086871415637,-0.07622668048217487,-0.08063596040391456,-0.05094333344578936,-0.03806118716640203,-0.03649947652751685,-0.03313108461225635,0.01968367032108005,0.02220131790263876,0.007269460221118464,-0.0003917529079187595,0.02817671699396319,0.007199455523617229,0.009788903431306128,-0.04172585256540366,-0.04732856714519141,-0.0376698412018624,-0.03356306516841919,-0.03492424125438497,-0.04283816447437871,-0.0510155646361545,-0.04658304872283103,-0.04232067420307645,0.007368538406623569,-0.0009356805231359523,0.04003910939679035,0.005440877115431299,0.0333871402344388,0.03167872100051235,0.002091133323245079,-0.01227046137014983,-0.003399474475574699,-0.02147571224874787,0.006694638062867022,-0.01123307218692741,0.01718319559877964,-0.002929693112895863,0.006608487980908443,-0.005832298490091589,-0.03549141142083462,0.003056865579278754,0.008261973417526828,0.02450218393958312,6.130532508047451e-05,0.006296472722524226,0.005405863484454871,0.007350915553168829,-0.0004371370016384416,0.002756805204182572,0.01914069600931825,0.01122508503918936,0.0217077240361439,0.01562762495846089,0.03603362342632926,0.007875724419901043,-0.01409514297433706,0.002687409215141999,-0.009812263720701674,0.00255476094037735,0.02446025967743038,0.01055712570619787,-0.009661269333081358,0.04096692254939135,0.01634132485053243,0.04707362711345277,0.03963608364480916,0.07664768962181705,0.03282132709551465,0.02667060223079637,0.02696086329408121,-0.00761932506283928,-0.02763273791000034,-0.009031620664431141,-0.01616433487030471,-0.01010434824857633,-0.0162846781134331,0.01638585127326309,-0.0001876382208742261,0.09940679549690895,-0.001726886485040647,-0.01041658461459428,-0.014642951814162,-0.0274333613264759,0.004836962742449072,-0.002676377202364518,0.03077946883915858,0.0479570374216124,0.02370135585141557,0.03646015551904044,-0.02554722698968828,0.02037696422147212,-0.04359840983793828,-0.02509821425824807,0.006630234777451252,-0.007390292453327061,-0.003169517176026071,-0.01684622094543959,-0.01976509011312471,-0.04063789810363676,-0.07366170226825115,-0.07651739987893053,-0.07288445643594944,-0.03093861327755823,-0.002709930122076017,-0.009544749061231622,0.01115216889734965,0.02669001106664124,0.02108992068358085,0.01425460379398444,-0.01298802075800368,-0.006557715376752054,-0.00965879357032572,-0.01433094926650774,-0.004595392677238319,-0.0154247859397067,-0.02295413435299861,-0.06026987811577777,-0.0367065498058432,-0.01091970118135349,0.05321591698846358,0.0596517876210773,0.03317151061721407,0.004149512253499442,-0.0006825008278962301,0.007219162740107799,-0.01933013262958945,-0.008029137026698732,-0.01270985759823669,-0.01011038563035707,-0.02590684035842062,-0.0361596513673741,-0.05819280845832437,-0.03767897665226964,-0.02536478781967298,0.07087820883161665,0.07993158729938488,0.0735639360726574,0.02166873376856469,0.008561134733887595,0.0006604721839194472,-0.02845821730972446,-0.02397362287642588,-0.007299714365616689,-0.01702347724449907,-0.005648980381543631,-0.02443280717049553,-0.01287604647419816,-0.07231101143387633,-0.06091811724920389,-0.01862441042959079,0.07651038432204152,0.08924450397840659,0.03133238665520063,0.0005813038934534036,-0.02587530723860512,-0.00615837223277451,-0.03817786699962511,-0.02543828358952963,-0.02086870681048201,-0.01711950665997744,-0.02174027123634811,-0.02042577526772902,-0.03198098057921519,-0.02864686816446018,-0.07835724111468488,-0.07737036287725861,-0.04991827406123361,0.0333543005404485,0.03722348022031208,0.02439872305176631,0.0006530883316057087,0.002414999636669722,-0.01351184071368435,-0.005027854740895376,-0.01520017910835851,-0.01158952200774444,-0.006891850915442567,-0.02467437083022878,-0.03833487417682017,-0.051713569678164,-0.01170597756779219,0.02423457088553628,-0.0116542307643463,0.003237168124917039,0.01747671365118737,0.04329741109843863,0.05229707892902099,0.02563332169860966,0.00817453025356733,-0.003060528136219585,-0.01055182077442255,-0.009902044447438606,-0.01680075249006334,-0.01834068338666262,-0.004788051734708917,0.02416971859355938,0.09191759868250975,0.1628675749741732,0.1257440501017292,0.0583235621016605,0.01446520740892663,-0.03401345098210446,-0.02372394462340821,-0.05018889217975416,-0.03798115719818745,-0.02166185978555368,-0.004991052701309181,-0.2438001360984566,0.03318973177927311,0.04110856779297387,0.06221929666985915,0.03096503248176703,0.05219893054646584,0.01477588926127173,-0.00719815651652492,-0.09447403858721368,-0.1157031161642192,-0.05050973556138812,0.05063946152421409,0.01130493439709254,0.05950756461698702,0.02700916800708927,-0.01451525456174458,-0.02609447940960273,-0.01919265943626834,-0.01301621936379244,0.01988054975638254,0.02260142909046814,0.02178182193483662,0.03888484958207269,0.01432581724075277,-0.001494875057918874,-0.0320941283414985,-0.03627193568978466,-0.005981400889409902,-0.002878773339997792,0.00652003246673136,-0.007913975718270001,-0.006605334873171816,-0.02224630900512351,-0.01092200654455862,-0.02686362963818774,0.01613743866706822,0.01146265245392389,-0.001067214513242589,-0.0007169170868025588,0.03984182019213177,0.08306992991846064,0.0227597883273695,0.005546738041623052,-0.02627209742965377,-0.02089190945410182,-0.0406611927062912,-0.004722365139260875,-0.0134007690525013,-0.03795143804076944,-0.02370484605758702,-0.01448057898185942,-0.02070673839347587,0.01638830785035848,-0.004695019441331996,0.008557869861749653,0.04428353289719021,0.05424979447114053,0.05672082603323175,0.02435352974357757,-0.00251466644799268,-0.02942492011816201,-0.03497737109649674,-0.003511086556337569,-0.008840768953041927,-0.03120237139807512,-0.01984480338781296,-0.01471753534116632,-0.02621011838652911,-0.01860713431854272,-0.007733147466201625,0.04578014858320513,0.01885280070858205,0.01857640294563914,0.06338392144282148,0.06515794793346603,-0.02925190814036938,-0.04016026805586918,-0.03455393981530472,-0.03758271402954156,-0.0192265733076896,-0.04048068954052259,-0.01314776235690216,-0.0029263630701867,0.01267520306418825,0.00492127267264003,0.02766302553234568,-0.005869456069324657,0.0306910225170942,0.003671247465783624,0.03766274899461886,0.02967016296734394,0.01021463396992965,0.009357788156154052,-0.02398898459914921,-0.009038846656706652,-0.02364585206570599,-0.0190806685599806,-0.02084092741216166,0.02325917851435894,0.009471712243970042,0.04157520101403549,0.03878447739574687,0.01088570787898109,-0.007760737454737088,-0.03904256070665695,0.02573739531324008,0.01316236889291316,0.0006029644146505647,0.002323273698833162,-0.02068722969026504,-0.02376962889911353,-0.02339661299417006,0.0002452721464250894,-0.0261234609024215,-0.01380055346045642,0.009641483561942112,-0.0363776378702724,0.004697142270024067,-0.007978766011053661,-0.05843460485977121,-0.0163437744084572,-0.03872280102945303,-0.01879006153393596,0.01407357831161924,0.004628205267320564,-0.01937774411956401,0.01977578341360537,0.02990279436458053,-0.03169423736028031,-0.0883575361680658,0.04714800434355986,0.03699357025387334,0.01595556536402834,0.05603144365918416,0.0370513370412876,0.01582374967578243,-0.0449621733309214,-0.09931807345768685,-0.1204638447978347,-0.08029865242248901,-0.02337716889947676,0.005352421634207159,0.00852302097422007,-0.009046629804791609,0.0162750383051401,0.03529169951919629,0.01988648545306403,0.01124820220720447,0.02902791493154457,0.007414802215229463,0.01161048811639023,0.01174434642326771,-0.0139701509503715,-0.03627965396622464,-0.05841457142659871,-0.08250633184680914,-0.007925939122614229,-0.008407483390209834,-0.01345005328473246,-0.005453814664161538,0.01792109065020421,0.03056620532850867,-0.0009596285621044988,0.0444739970607201,0.01346706485637953,0.0395868487268791,0.01196134905086621,0.02945292467570557,-0.007309476050099002,-0.025139612259774,-0.03263607354513085,-0.05261143399256638,-0.03091940036270862,-0.02613019409200543,-0.02480660262664216,-0.01109404339974704,-0.01084049418465345,0.01385040135172991,-0.0506724891686113,0.01238165233133259,0.0184523506897214,0.04459925149528435,0.03288716557074388,0.01884258358677345,0.0009927822142984741,-0.01409130272689342,-0.03987460604511046,-0.009915683084361672,-0.03380762117165201,-0.04155303533817612,-0.03513616830670881,-0.01081718589002309,-0.01494373398958808,0.04311687380103354,-0.02723746506428354,0.001777629826429612,0.007943431649381607,0.01861950982734094,0.01967643567766373,0.02273017347693672,0.006833297410234794,0.02615390342657174,-0.008423188705699343,-0.01915557310240535,-0.02504949691580451,-0.01371949124473472,-0.01992521436572995,-0.03360505478546239,0.01045608175332357,0.008215185637172391,-0.004983553974674053,0.004653072419732692,0.03235714986004219,0.02006169057604487,0.03718062900443196,0.03416358645678434,0.03850501988351677,2.395672543068203e-05,0.03348411587860279,-0.01659333740174375,-0.0353297273967267,-0.02265181487893363,-0.02463242536348976,-0.03016857328524,-0.01698855810474376,-0.01509247371569149,0.02714439426868487,0.01525598388848179,0.02675133118575532,0.009622061294310124,0.03180052259763965,0.03042489114264504,0.04244690321806587,-0.01611979879211098,0.02072272691738867,0.01499018591996628,-0.01943952712946716,-0.02467093753384112,-0.01430007604347344,-0.0170684408213105,-0.01149280270075768,0.0166469726683773,-0.002132564150257924,0.04391195189766332,0.03575126363882515,0.02603198199974363,0.004424733465752368,0.00368559972786522,0.03187590304381515,0.008383600347184821,0.01140341546750966,-0.005069148292306543,-0.009969030806295808,-0.02140153488937396,-0.01187034845662599,-0.01718553395133434,0.004311010008839247,0.0147621442993818,0.06018094944249201,0.01689089075959335,0.03607309113273407,-0.01785857013086354,0.01261114829650887,0.02272303240322973,0.009409817987980273,-0.05171124263767633,-0.04166692061222513,-0.07656261792997311,-0.07560561509513122,-0.03094466857453086,-0.02117028608193347,-0.005083859493739416,-0.0290954751654744,0.02585548488425841,-0.01807014534479324,0.0185307650719121,0.02674108341440892,0.04090636386735123,0.0201005663029854,0.02586549231142217,-0.008102658444355138,-0.01783197357640854,-0.04626534279761291,0.01063566789848315,-0.02445475012097492,0.02887415282169069,0.02445010397805923,-0.001933166719000752,-0.01361822605966759,-0.01917071776429076,0.004212527003002124,-0.01351001918169953,0.008773355016518738,0.011858152821512,0.01531939387855509,0.02212909863725978,-0.0002732625638210143,-0.04213670261989166,0.02400097778393246,0.0195345675976928,0.01785674886894181,0.02386949914697203,0.0151746302912772,-0.02162281017470815,0.01268967193602879,-0.007397319570311883,-0.001611926659411473,-0.001106729364493037,-0.01060728771151628,0.0314015149904101,-0.005440645352359999,0.03132885730369528,0.01367836889616701,0.01494856196539523,0.03529987414412274,0.03014696899194873,0.003977886625076267,0.03764864274395346,0.02118451617835353,-0.008378096768330087,0.02496692564200075,-0.005427866468101948,-0.02487276309186667,-0.02729929605827753,0.006968319925163211,0.01427154248485517,0.01354843141518839,0.02972804533793951,0.01124237256429533,0.04048614730115734,0.02690250540292381,0.001639750625187852,-0.01076240618563667,0.01624924774835632,0.009369142573340029,0.006286357186142563,0.0217235050537845,-0.02794699514601815,0.007336063964527693,-0.04341629938326593,0.02194186745660841,-0.003426848749072974,-0.01342210628927447,0.01159444229288148,0.01937626445315329,0.04823947851827323,0.0465304904838744,-0.006803159795024941,-0.02168781616044626,0.02050949220327668,-0.02504841078770902,0.02441424707590369,0.0008277351824808113,-0.01126734487173412,-0.0131830344424694,-0.03999093268326076,-0.01636653885288147,0.002382513103010525,0.01216627268794736,-0.002853831963463852,0.01577723536143442,0.02865038697045849,0.02287933029937692,-0.02478621690307411,0.002044960914798102,-0.001342726875672664,0.03680786593662448,0.008526396955733522,0.01948704516376194,-0.01450847872649692,-0.04340026402933134,-0.04468611178574545,-0.03645498406068017,-0.04493319051932906,-0.01644466510476102,-0.01102933868208006,0.006884848688500192,-0.02007698939027102,-0.03070512610380733,-0.04317999715818918,0.01037071359946669,0.03502661850927024,0.03073437137881922,0.02331203212795012,-0.01193039909930829,-0.01303970566876703,0.002466548305094859,-0.002264170834555192,0.06239482979068096,-0.125120239010066,0.05507508833678971,-0.09823328462324131,0.06487508501323137,-0.1352601298895285,0.02995686169160851,0.08335488598813656,0.03828599599521781,-0.02365433450943498,0.03263835283391882,-0.1516565979279195,0.03429437259950932,0.06092124181707662,0.0188555851157246,0.06657112882900522,-0.1044976836803618,0.03714757729839737,-0.07133769350711056,-0.1181827846188526,0.1620316995910997,-0.1232426024751744,0.1458683017611902,-0.08153265268864714,0.2569671235195931,-0.1165201272508438,-0.1387054055759472,0.008891817679459433,-0.08294195780130557,0.06077328790335881,-0.0145282496869667,0.03426370079535138,0.1529794436364858,0.0232706085792059,0.0154343918159897,-0.032270937905323,0.0004285960610879317,-0.03535986827530378,-0.05649298718800679,-0.1542264340316902,-0.07162893689920929,0.05409735724119395,-0.07979679618789559,-0.06853169214133133,0.07166560523166948,0.009065870237552828,-0.002873168088256791,-0.1127415740523647,0.03261789207465131,0.02592229786023393,0.3276252462909826,0.03306189242637535,-0.1984331343861398,-0.1087688485569981,0.09796049159993371,-0.1112500126520615,-0.07393127608466604,-0.07069932871949791,-0.1044286707837,0.09526864458154453,0.0644594661099722,-0.02115626646225969,0.06763783853077251,0.09108553311940791,0.03520894082654601,-0.07711154174837236,-0.09442999058745624,0.01876620834335618,-0.04662102802171032,0.1264707609462572,-0.09912906421097276,0.06460627543972745,-0.03952390024512908,-0.06943608075985705,0.1075856695820381,-0.05871945581503963,-0.05478220820855843,0.07264675064235916,0.1760794321377473,0.1095358838696666,-0.04221647606348933,-0.02806255395797799,-0.1056895090500367,-0.03380792049659038,-0.02897648075326629,-0.02265189384990373,-0.04773993979283395,0,-0.02546182838049914,-0.04400900714389291,0.09464027198201505,-0.07179559535471357,0.04851310259192625,-0.0428900556185031,-0.007951698563704139,0.1252337768260784,-0.02641045955096882,-0.03413366195239471,-0.07282082668263271,-0.01977665922772649,-0.02023053827521489,-0.01541651077554368,-0.0168140927195283,-0.02243794484154439,0.1353812686835971,-0.03197145125328571,0.1258600218103748,-0.03145518145490269,0.1069942159043178,-0.02909707843490619,-0.03776527825858917,-0.03698338594666077,0.1875528866665022,-0.0004944773144584038,-0.01936212763596457,0.1770505018487845,-0.04759330958750482,0.1093543406626223,-0.07944626358857365,-0.04658692563657605,-0.01384069574990426,-0.05998314667223563,-0.03586092975694009,-0.02390964573209001,-0.08318347980061461,-0.02232754645400281,-0.02395328843447804,-0.01220097069548457,-0.01288541125062978,-0.02311370235412049,0.09909007638051436,-0.02019616324224352,-0.03228452977066937,0.1119454889975618,0.1329444853282562,-0.0528748504397401,-0.02843206107312524,-0.02920168531400588,0.08978989950257051,-0.00208096037535244,-0.01806812422081756,-0.032821941156934,-0.03340810275197711,0.120585768532408,-0.06644480008048775,-0.03750227079912608,-0.004257388466649648,-0.03865350951008156,-0.02037748235445807,-0.02496257213466904,-0.0511161201375108,-0.006816872271729742,-0.01074358308679805,-0.02225675783537067,-0.01744776992756473,-0.06161551302618376,-0.1813364541274354,-0.107101060560721,0.02396496882930961,0.01597614492723466,-0.08328953236490642,0.06828070970825127,-0.005320246820950995,0.02544040744912176,-0.04546629201172459,0.1095369519373194,0.1125024521877613,0.1285845847718014,0.01875376211687475,-0.03797121777527919,-0.1905257367011535,-0.01354059733572113,-0.04717813484713525,-0.02196554679390198,0.004414430229843822,0.1245829964887014,-0.106420379350837,0.1375386234436365,-0.09419703411252192,-0.055555561182962,-0.05961685165945474,0.02472003278718812,0.06574510791637171,-0.04406213671996533,-0.04535404318372056,-0.02367254278462225,-0.0966326905884151,0.1784705117837453,-0.05335910739352326,-0.03188226153226284,0.1276009189934544,-0.004400193315911857,-0.03795279735006826,-0.03080053294763146,0.08872019746291257,-0.07757477228162805,-0.08342233673077579,-0.05612077573229653,-0.01010234539707317,-0.04236919661397343,0.1300603142645071,0.138279403078765,0.1400392831993676,-0.008049697458698723,-0.01801573525440604,-0.01209989717980789,-0.01509805989674876,-0.01745024861894163,-0.0917435956897292,-0.04408072725883241,-0.0398937028763824,0.1087345180574141,-0.095356225038219,-0.02454727046481773,0.1085174375620572,-0.04717594789429047,0.03965939037703497,-0.011326289808231,-0.03636929072700888,-0.03541290327962093,-0.03909466279373307,0.2089843443372267,0.07077179623664678,-0.04993428736160162,-0.01019944713045132,-0.03165464587854216,-0.05038497872944785,-0.0467582989858916,0.1223845132853675,-0.01755616717414479,-0.007937222423408254,-0.01800104208846427,-0.02609148760635404,-0.0425831788646535,-0.04893791434883422,-0.03831788756770828,0.139347003967897,-0.01166390781107385,-0.09663792791677281,-0.02169856932821499,0.1415729684158514,-0.03181973312903116,-0.03820128497158393,-0.001714879770585922,-0.02751970296882885,-0.02358384887885049,-0.04685069054670626,-0.09076128293460543,-0.07590885446615625,0.1959191454595036,-0.01065758424907783,-0.04692919415163293,0.1584052053847392,0.10077602871314,-0.06095694722435845,-0.01206716926794257,-0.01566227005003563,-0.0160866402247728,-0.01231986705904547,-0.02365758267657446,-0.1299975406057031,0.04098264062585682,0.03161694269452755,0.08692729002952868,-0.1519156695766837,0.1178340684785987,0.04685182966615863,0.06687630348284443,0.0328883437031627,-0.01055491398076858,0.1530760756860415,0.1770009484758076,0.0120202018360969,0.05092290724098804,-0.05509555268893084,-0.1185290172907952,-0.04971577195821057,0.1305233567209297,-0.07500290030041834,0.1580938460279977,0.01187307015316306,0.1081543124827528,-0.05377413143047621,0.1859677792006849,-0.05395774749889892,0.1096816226118953,-0.0073010437855554,-0.01297748286084096,-0.004709903355272033,-0.004738024457151289,0.1247333850863315,-0.005895511979728701,-0.001062532324667529,0,-0.007286481912293866,-0.00909626485741568,-0.003012460657602316,-0.007249982567818986,-0.005693297445704673,-0.01323251081578287,0.1354421112424946,-0.003308493627076452,0,-0.0008731162103513087,-0.001341800575640106,-0.004135532279517144,-0.02155354103126321,-0.004570888758493426,-0.004301715779559644,0,-0.008083034796860757,-0.001804661367551741,0.09960714665726618,-0.04247218221589085,0.1679062619107599,-0.02709194627953137,0.06590400867249163,-0.02948938715489982,-0.0415591386275011,-0.01888985086867385,-0.05957519627293423,-0.007457692237089673,-0.04559044303390956,-0.03330140461491325,-0.04235377860886197,-0.06745626351366754,0.06940997954034912,-0.0321181003634027,-0.01842422943065457,0.112791005038173,-0.04473731861222623,-0.03116669637483123,-0.08240054884096276,-0.01899081850757715,-0.02215403138011474,-0.02307905668133833,-0.01354498853495526,-0.03303010592300237,0.1139217873631041,0.1663632988423706,0.09314182964110586,-0.05813954267749302,-0.05967851360293421,-0.06408247096362517,0.05545253849161446,-0.05360864244817445,0.09270073692632445,-0.0133583625572682,-0.05665102077886165,0.1155942800569003,-0.07755678187295342,-0.1038899618390754,0.01095846023659136,0.08537820472509343,-0.02518208755539296,-0.07509915825263182,0.09418085353352332,-0.04381146824919516,0.1223099179984816,-0.02009530087126188,0.09514378692119398,-0.02837886142204087,0.1555367584379818,0.1095788031686452,-0.1033078674070474,-0.03718544462653034,-0.04680785099067843,-0.03407566449490396,0.02626776791976884,-0.039538446531358,-0.04669059611788487,-0.02521754127002261,-0.06066967002638138,0,-0.03487068523557987,-0.04717153987605988,0.04227141983831228,-0.07446928944123442,0.08469940826485257,-0.05034134072628818,-0.01355648201499614,0.08606334162144118,-0.04294057178980259,-0.06572772124461403,0.09025844269181475,-0.02572672915116827,-0.03557706855270928,-0.02318272213945283,0.1132758204471409,-0.05236557303194545,0.09000757513691592,-0.07944804854289371,-0.07660213314101527,-0.07275945993350984,0.08497816147713143,-0.05822663337960098,-0.05743545305131989,-0.04077554745692418,0.2372843103757183,-0.01201171343699814,0.0937219951868804,0.07227956141509925,-0.08022777616949565,0.00763717969413772,0.08824992575083013,-0.1169129413474223,-0.01606679697335793,0.06590438274670127,-0.04662490381883121,-0.05350104929654362,0.09606149102295329,-0.04383799728938986,-0.04719877605593153,-0.02703000243056463,-0.03488156177882241,-0.03791615417091813,-0.1571268897102237,0.01974910256725253,0.09416024108622206,0.0919658185535818,-0.0534197623092408,0.1323777724566765,0.0231670026522059,0.04996045057804103,0.0600299959963828,-0.02258008631532468,-0.07016187691270086,0.08182936455998027,-0.1297469441495907,-0.006670418118111711,-0.05432172719651655,0.03382822785398925,-0.02272130716232337,0.1296740047076331,-0.07148396692543232,-0.05868397234226086,-0.1464855838333909,-0.05207423525133017,0.1004425070470259,-0.02887905991915817,-0.08243084852867458,-0.05468912351848521,0.05613546763035777,-0.02268045777469873,-0.03325581848704967,-0.04954093029182162,-0.08929406542793734,-0.03960781828972201,-0.04509489748529303,-0.02831550562835297,-0.06836389933717223,-0.003519687862957132,-0.02755991899327699,-0.03413140564693493,0.256394062101624,-0.09066083329135279,-0.004771154165480428,0.05397808464198761,-0.01405211953673628,-0.06936211861497935,-0.05485662515674378,-0.04282075303537875,-0.06257930830870467,-0.01906500391208929,-0.02110765948269645,0.1991246815756206,-0.03350257218688728,-0.03606948918812587,-0.04534745064600942,-0.02197428849712913,-0.01870455819969185,-0.01538594263943204,0.05254524822569072,-0.007592991654931751,-0.02526273077615248,-0.007203849615093019,-0.05310095661687686,0,-0.007239683837141948,-0.02558499290010547,-0.02095222459413579,0.1395060245605443,-0.03572605629682151,-0.01898702428186569,-0.004632989948637555,-0.02494970490876893,0.1611382065138244,-0.01073052878925452,-0.02366772929211876,0,-0.004634226838582345,-0.01071981012615124,-0.004223252494690836,-0.007611319801077983,0.1022737487886211,0.09393067847375776,-0.03889607203194757,-0.05769395509597695,0.1273865136146708,-0.05554943550441736,0.1031355759007629,-0.03428499578214918,-0.08699950890260807,-0.006347960623911908,-0.03967947794142576,-0.04565998770460354,-0.06749779161461805,-0.1013576967322599,0.1149228325599595,0.164885302269801,-0.01946647158381297,0.04093027260778336,-0.06457353266754882,0.0821319371634857,0.07287274890203856,-0.008926811767455968,-0.03050936407130402,-0.01736794556269138,-0.008958255280046309,-0.05101959938357699,-0.05776950837430341,-0.03465250727170752,-0.0339740968577121,-0.0263787922643282,0.1099785301614204,-0.02003360845531026,-0.02967056373049628,-0.02971112946499634,0.1538929254834248,0,-0.02060808861740841,-0.04152544758105182,-0.02918962868175068,0.1553316517816151,-0.05704888280052406,-0.0223123888791819,-0.004214481913775515,-0.03128683960862118,0.1121761697780242,-0.02341865882544768,0.1598935008309666,-0.01626798960101275,-0.02071017104616524,-0.01358089067125239,-0.005114567926542538,-0.01690654403474092,0.1391084382082078,-0.07656041295926129,0.1462756492337183,-0.04252757590880675,0.0577129942618019,-0.02006070967982134,-0.03412012333355653,0.1363193766308681,0.09080872739604942,-0.007349763643684851,-0.02509517536716624,-0.03951733101327948,-0.03226459258791647,0.1275258625179835,-0.07387556100323144,-0.05826155440883162,-0.008256967283898225,0.07762458761209089,0.1384971922880581,0.08283829406145832,-0.06784448343535773,-0.02142122083670801,-0.03292271542044219,-0.02273575925362393,-0.006188727684656956,-0.02643848352178316,-0.1141299085842546,0.09039445233865664,-0.07357188245542713,0.07738327270274337,-0.1307183700713547,0.1313487761971267,-0.06686608138355161,-0.03223482460815835,-0.1012237464401276,0.1848086840101419,-0.04848596045355316,-0.06317289650556117,-0.06224029411621269,0.0554385603821512,0.07132359976061063,-0.05713733882052731,0.2943177618220669,-0.05413300831957057,-0.06065056753440749,-0.05158355583450477,-0.1339722122538139,0.1410370324758378,-0.02730144170570859,-0.01393187484574832,-0.02817718226768717,-0.04960372165421463,-0.06412497469658435,-0.02719953254884633,-0.01733928255262748,-0.02713650848265675,0.06929771751626201,-0.01648240860204182,-0.03079552953823067,-0.01377608858455402,0.1126318615639968,-0.01815722915015329,-0.02209839556106699,-0.03311989537485374,-0.006790361831377472,0.09319161468153739,0.09520466101772081,-0.04806845367273069,-0.001905792302927484,-0.0183554503385612,-0.02630975057024353,-0.03803093005932699,0.06727577805192032,0.2315072191874558,-0.007183549222645062,-0.01073380282316314,-0.00580372882755128,-0.01304778930666847,-0.07948758071026446,-0.01433867209257962,-0.01226035168037875,-0.01223809573538298,-0.08213896954632972,-0.007059945409939651,-0.02639309935532821,-0.01817500512872804,-0.03124327301564239,-0.001809958147583168,-0.01262951518462018,-0.04397105470767888,-0.05332820440384368,0.08072075475044099,0.1282599358161418,-0.0138904807529796,-0.005828818737558089,-0.02687180314057725,-0.02250337461921134,-0.0331907509365431,-0.04724565094133511,-0.001186890638348635,-0.02446243362714631,-0.0108824139864191,-0.003995947990385328,-0.01351683793742575,0.1914909037346256,-0.02710556955078678,-0.03133915241076612,-0.02119085797943484,0.1665122411872098,-0.007557802724502492,-0.01000696471571056,-0.005569219265473265,-0.03920493953761749,0,-0.001985072631206427,-0.008724975074904781,-0.008783102770914472,-0.02450731044086855,-0.0220526542460295,-0.02263267234818509,-0.0002486016694675694,-0.01529918398304808,-0.003819665251356955,-0.01487968066070365,-0.02135254992934679,-0.008634724136779161,-0.01399025241723969,-0.03275188595499147,-0.002901797362625318,-0.0202893933392969,-0.118149385653471,-0.01453166173069694,-0.03587584990606915,-0.02994961762760602,-0.1089442187386744,-0.01757345907171175,-0.01202782702647305,0.1914727686256668,-0.03082897066396179,-0.003703873303162996,-0.01317730716419898,0.2973064490020684,-0.04632888654260357,-0.113366885261156,-0.07160477202905551,-0.01818096844710979,-0.002494260865492706,-0.02355201847680482,-0.03162788843648679,0.1376519630916405,-0.02518649437117332,-0.008043450057528741,-0.02404456805707304,-0.01071834876389148,-0.02334937145478286,-0.03995727114729516,-0.0572716960656516,-0.0246347632190015,-0.02895172110858343,-0.02419533250017411,-0.07339378510664508,-0.01586365630524771,-0.02350192430228696,-0.01370995375296081,0.2262045943725388,-0.0006612445057783706,-0.02041442742361707,-0.03653972267574392,-0.04390766919229168,-0.04855811921195506,-0.05688826255577062,-0.03760546041050159,-0.002485981406195994,-0.04051782988254717,-0.006341898441041417,-0.01349395731994077,0.205163149056786,-0.001216564647166593,-0.01897821499870818,-0.01506302442667198,-0.006087542791665005,0.2931709652371076
